-0.00092569294404451950000000000000000000000000000000 0.00033511130721791975000000000000000000000000000000 0.00084039557130909010000000000000000000000000000000 -0.00066046313843662660000000000000000000000000000000 -0.00150917335996965100000000000000000000000000000000 -0.00286906108379492100000000000000000000000000000000 -0.00115312813167896000000000000000000000000000000000 -0.00207223152978133240000000000000000000000000000000 -0.00185658700473854050000000000000000000000000000000 -0.00066366343451301650000000000000000000000000000000
0.00148435013283032110000000000000000000000000000000 -0.00181049006956879050000000000000000000000000000000 -0.00107856980253999140000000000000000000000000000000 -0.00022476732541161380000000000000000000000000000000 -0.00170335653023226960000000000000000000000000000000 -0.00217879883491473900000000000000000000000000000000 -0.00003816837801631681000000000000000000000000000000 -0.00188717797593463680000000000000000000000000000000 -0.00108047834050830420000000000000000000000000000000 0.00014770836305468220000000000000000000000000000000
0.00032854883311042994000000000000000000000000000000 0.00277421849201051500000000000000000000000000000000 0.00193004815025331700000000000000000000000000000000 -0.00022918353658879450000000000000000000000000000000 -0.00129062336056255430000000000000000000000000000000 0.00204164733772253200000000000000000000000000000000 -0.00026505061762856365000000000000000000000000000000 0.00039883893645406210000000000000000000000000000000 0.00052769711563258710000000000000000000000000000000 0.00183155242917673250000000000000000000000000000000
0.00163123837147583240000000000000000000000000000000 0.00104092412745481440000000000000000000000000000000 0.00025359032244382710000000000000000000000000000000 -0.00003489927563902508000000000000000000000000000000 0.00016220896772958294000000000000000000000000000000 -0.00094549076169560590000000000000000000000000000000 -0.00229340598780031100000000000000000000000000000000 0.00054591206328181150000000000000000000000000000000 -0.00117502337514805140000000000000000000000000000000 -0.00300576504003556300000000000000000000000000000000
0.00092957399946523680000000000000000000000000000000 0.00045542954079637484000000000000000000000000000000 -0.00128887710339831370000000000000000000000000000000 -0.00021640233287667558000000000000000000000000000000 -0.00241572312372007300000000000000000000000000000000 0.00028018118397028030000000000000000000000000000000 -0.00055443571264677110000000000000000000000000000000 -0.00007422343972958120000000000000000000000000000000 -0.00025134728666165500000000000000000000000000000000 0.00034160568369642275000000000000000000000000000000
-0.00009106012907466449000000000000000000000000000000 0.00095363465320767260000000000000000000000000000000 -0.00097585124848888240000000000000000000000000000000 0.00246281933289012320000000000000000000000000000000 -0.00267571262292322400000000000000000000000000000000 -0.00214339730692617630000000000000000000000000000000 -0.00009376396036150957000000000000000000000000000000 0.00024340610857428644000000000000000000000000000000 -0.00121513189244894130000000000000000000000000000000 0.00118632946922327080000000000000000000000000000000
-0.00254767071596249560000000000000000000000000000000 0.00046626609356287165000000000000000000000000000000 -0.00133263247471726450000000000000000000000000000000 0.00213242971461501160000000000000000000000000000000 -0.00123920991216916770000000000000000000000000000000 -0.00033997828410267110000000000000000000000000000000 0.00147149879818108100000000000000000000000000000000 -0.00275063656913771300000000000000000000000000000000 0.00041710933014483730000000000000000000000000000000 0.00042668200620750930000000000000000000000000000000
0.00176935960973845270000000000000000000000000000000 -0.00187917147714688520000000000000000000000000000000 -0.00161550712848112110000000000000000000000000000000 0.00139398531493781100000000000000000000000000000000 0.00065212959755315640000000000000000000000000000000 -0.00205085307313486200000000000000000000000000000000 -0.00123181636866811660000000000000000000000000000000 -0.00171361437514068420000000000000000000000000000000 -0.00217922153186632560000000000000000000000000000000 0.00134548286162089510000000000000000000000000000000
0.00025322507267512117000000000000000000000000000000 -0.00087235016478793600000000000000000000000000000000 0.00205885548524033540000000000000000000000000000000 0.00057344131226955560000000000000000000000000000000 0.00053142285450471830000000000000000000000000000000 -0.00110293355583080710000000000000000000000000000000 0.00015610738773711710000000000000000000000000000000 -0.00154878006187959740000000000000000000000000000000 -0.00215645136017626700000000000000000000000000000000 0.00116725945102830700000000000000000000000000000000
0.00024846699847457757000000000000000000000000000000 0.00168897378297993080000000000000000000000000000000 0.00176596957587557900000000000000000000000000000000 0.00006401414814293177000000000000000000000000000000 -0.00099232076614258630000000000000000000000000000000 -0.00122895962865818450000000000000000000000000000000 -0.00070654956041689540000000000000000000000000000000 -0.00172105619150385220000000000000000000000000000000 -0.00120738869658589300000000000000000000000000000000 -0.00369891368526329340000000000000000000000000000000
0.00145632673494598430000000000000000000000000000000 -0.00075109899785262170000000000000000000000000000000 -0.00034968507238551540000000000000000000000000000000 0.00122683010458515820000000000000000000000000000000 -0.00091503056138787530000000000000000000000000000000 0.00003530642349424795000000000000000000000000000000 -0.00224591184574621800000000000000000000000000000000 0.00049387732291239250000000000000000000000000000000 -0.00047452351491181100000000000000000000000000000000 -0.00143965461151158580000000000000000000000000000000
0.00126425659386083730000000000000000000000000000000 -0.00063123864222265730000000000000000000000000000000 -0.00095542543237642350000000000000000000000000000000 -0.00080277026397151540000000000000000000000000000000 -0.00039074499262558540000000000000000000000000000000 0.00223519734476926260000000000000000000000000000000 0.00087750732353658830000000000000000000000000000000 -0.00267536503944940240000000000000000000000000000000 0.00134229817878218660000000000000000000000000000000 -0.00164315124577066010000000000000000000000000000000
0.00064918866432033170000000000000000000000000000000 0.00030372389407173150000000000000000000000000000000 -0.00009974044410534919000000000000000000000000000000 0.00065215035574863040000000000000000000000000000000 -0.02815224062397874200000000000000000000000000000000 0.00014770379661619096000000000000000000000000000000 0.04380590758833301000000000000000000000000000000000 -0.00057229796555014560000000000000000000000000000000 0.00044397039133343550000000000000000000000000000000 -0.07946228840353346000000000000000000000000000000000
-0.00190548709656677080000000000000000000000000000000 -0.00075987953094123500000000000000000000000000000000 -0.00208645313341588100000000000000000000000000000000 0.00300514170868700400000000000000000000000000000000 -0.05929818923830773600000000000000000000000000000000 -0.00213357548182983900000000000000000000000000000000 0.09388853629959613000000000000000000000000000000000 -0.00078679924704792930000000000000000000000000000000 -0.00167404762397894350000000000000000000000000000000 -0.16978211694809878000000000000000000000000000000000
0.00051859466546946030000000000000000000000000000000 0.00020884816435111530000000000000000000000000000000 -0.00238415445045349560000000000000000000000000000000 -0.00031525705499052270000000000000000000000000000000 -0.00088726007431029390000000000000000000000000000000 -0.00089321470378694600000000000000000000000000000000 0.00051478406510022240000000000000000000000000000000 -0.00141286823116970560000000000000000000000000000000 -0.00442939435810550150000000000000000000000000000000 -0.00057243202127531340000000000000000000000000000000
-0.00088422530511561720000000000000000000000000000000 0.00077644693433813870000000000000000000000000000000 -0.00027010692714734923000000000000000000000000000000 0.00081409995510530560000000000000000000000000000000 -0.00231217053206595040000000000000000000000000000000 -0.00134678494075328000000000000000000000000000000000 0.00108617405959046290000000000000000000000000000000 -0.00353213125343640470000000000000000000000000000000 -0.00105571223269382700000000000000000000000000000000 0.00110572268243173980000000000000000000000000000000
-0.00210004620668353000000000000000000000000000000000 -0.00255935708455984740000000000000000000000000000000 -0.00040098052494216656000000000000000000000000000000 -0.00185964691623695900000000000000000000000000000000 -0.00335684972720728300000000000000000000000000000000 -0.00208628783222059850000000000000000000000000000000 -0.00086575388789385740000000000000000000000000000000 -0.00006322500716031616000000000000000000000000000000 0.00045984050274620370000000000000000000000000000000 -0.00087288361009449820000000000000000000000000000000
-0.00052142211862407980000000000000000000000000000000 -0.00232740799118013150000000000000000000000000000000 -0.00129679460610301980000000000000000000000000000000 -0.00216305860087563550000000000000000000000000000000 -0.00126800258470944400000000000000000000000000000000 -0.00040447878799226264000000000000000000000000000000 0.00101467474572833730000000000000000000000000000000 -0.00026749337487179760000000000000000000000000000000 0.00164520423448830630000000000000000000000000000000 0.00148554147030649550000000000000000000000000000000
0.00143447193367537280000000000000000000000000000000 0.00050459901619598810000000000000000000000000000000 -0.00007356599433416084000000000000000000000000000000 -0.00055511217496073800000000000000000000000000000000 0.00151580651276818700000000000000000000000000000000 0.00053324621710500030000000000000000000000000000000 -0.00170529355776275970000000000000000000000000000000 -0.00133818974498121020000000000000000000000000000000 0.00028649618993267930000000000000000000000000000000 -0.00154324483222632040000000000000000000000000000000
0.00020788951196980265000000000000000000000000000000 -0.00090049733314287190000000000000000000000000000000 -0.00204556819537641100000000000000000000000000000000 0.00176730601391088780000000000000000000000000000000 -0.00220385002738897000000000000000000000000000000000 0.00010865509290417094000000000000000000000000000000 0.00087916545823276970000000000000000000000000000000 -0.00017991918368865777000000000000000000000000000000 -0.00256490439673263000000000000000000000000000000000 -0.00092774663291432930000000000000000000000000000000
-0.00325964811860563400000000000000000000000000000000 -0.00200611261618011500000000000000000000000000000000 -0.00092466816051318740000000000000000000000000000000 -0.00205404750899977050000000000000000000000000000000 -0.00239371966521988470000000000000000000000000000000 -0.00060195470001957020000000000000000000000000000000 -0.00040746359121208596000000000000000000000000000000 0.00197315327480934800000000000000000000000000000000 -0.00243332582658119030000000000000000000000000000000 0.00263567339551282940000000000000000000000000000000
-0.00235967689026620650000000000000000000000000000000 -0.00050209548506800840000000000000000000000000000000 -0.00033968242737216450000000000000000000000000000000 -0.00031847871865880805000000000000000000000000000000 -0.00134606312027452020000000000000000000000000000000 -0.00106035523504687760000000000000000000000000000000 -0.00007988220630289835000000000000000000000000000000 0.00173975075970217870000000000000000000000000000000 -0.00194705507917741940000000000000000000000000000000 0.00042462927538162445000000000000000000000000000000
-0.00005066620864914830000000000000000000000000000000 0.00160672739379410630000000000000000000000000000000 -0.00046361077747461530000000000000000000000000000000 0.00111085428184660130000000000000000000000000000000 -0.00051334232429683760000000000000000000000000000000 0.00129868161525559850000000000000000000000000000000 -0.00037989488428688540000000000000000000000000000000 -0.00196507621362396360000000000000000000000000000000 -0.00396941284479633800000000000000000000000000000000 -0.00122634635456301930000000000000000000000000000000
0.00027092801422744390000000000000000000000000000000 -0.00238747226240615700000000000000000000000000000000 -0.00107676181250665060000000000000000000000000000000 -0.00235573042733192400000000000000000000000000000000 -0.00039108411839787683000000000000000000000000000000 0.00006187611158537721000000000000000000000000000000 -0.00236934833689293700000000000000000000000000000000 -0.00036199595979870720000000000000000000000000000000 -0.00049016117715269040000000000000000000000000000000 -0.00061970992614402500000000000000000000000000000000
-0.00122365372874074300000000000000000000000000000000 -0.00135721451501879300000000000000000000000000000000 -0.00044334081991518855000000000000000000000000000000 -0.00144187458538598630000000000000000000000000000000 -0.00108994559153179640000000000000000000000000000000 -0.00001517550630988234200000000000000000000000000000 -0.00171915773725932720000000000000000000000000000000 0.00040748528677073700000000000000000000000000000000 -0.00010754490556697742000000000000000000000000000000 -0.00133596714432367080000000000000000000000000000000
0.00173923478866311580000000000000000000000000000000 -0.00138783449907452360000000000000000000000000000000 -0.00289444612008233660000000000000000000000000000000 -0.00297042867643985570000000000000000000000000000000 -0.00010263957266843542000000000000000000000000000000 -0.00192400886329417360000000000000000000000000000000 -0.00105993850083135950000000000000000000000000000000 -0.00199938812939923650000000000000000000000000000000 -0.00231819013365145270000000000000000000000000000000 0.00077970491889186480000000000000000000000000000000
-0.00221623480164469340000000000000000000000000000000 -0.00091719251311332040000000000000000000000000000000 0.00005385822688410899000000000000000000000000000000 -0.00081130232479725750000000000000000000000000000000 -0.00331921220017449740000000000000000000000000000000 -0.00096671953275522930000000000000000000000000000000 0.00051548952807535140000000000000000000000000000000 -0.00044430770999862380000000000000000000000000000000 -0.00139101898737210570000000000000000000000000000000 -0.00074937790600509200000000000000000000000000000000
-0.00219118984046845530000000000000000000000000000000 -0.00312362204399601550000000000000000000000000000000 -0.00334807826688827400000000000000000000000000000000 -0.00072979259639266580000000000000000000000000000000 0.00108901196508137940000000000000000000000000000000 0.00095770348291946650000000000000000000000000000000 -0.00147876924974996720000000000000000000000000000000 0.00034171203361657977000000000000000000000000000000 -0.00067002105797773600000000000000000000000000000000 -0.00127101236536184600000000000000000000000000000000
-0.00124156173518449100000000000000000000000000000000 -0.00306677223902122300000000000000000000000000000000 0.00004428693276520745600000000000000000000000000000 -0.00131135084853278180000000000000000000000000000000 -0.00013273918470611086000000000000000000000000000000 -0.00227936660820491000000000000000000000000000000000 0.00084494424512870330000000000000000000000000000000 -0.00106580383285547160000000000000000000000000000000 0.00004075235826811094400000000000000000000000000000 0.00079191955669667960000000000000000000000000000000
-0.00159066062863900350000000000000000000000000000000 -0.00132206473238226330000000000000000000000000000000 -0.00013567687272631813000000000000000000000000000000 0.00090491547297293030000000000000000000000000000000 -0.00000658670264896401800000000000000000000000000000 -0.00022101562864857197000000000000000000000000000000 0.00079443485035134510000000000000000000000000000000 -0.00196915765057319470000000000000000000000000000000 -0.00121242334432001500000000000000000000000000000000 -0.00173934989308164620000000000000000000000000000000
-0.00004526999806014843000000000000000000000000000000 0.00090277602833039180000000000000000000000000000000 -0.00126615051018644700000000000000000000000000000000 -0.00342349343683047250000000000000000000000000000000 0.00080010902759290470000000000000000000000000000000 0.00125673462178569040000000000000000000000000000000 -0.00180388585288425050000000000000000000000000000000 -0.00203146640293043200000000000000000000000000000000 -0.00148518181090170460000000000000000000000000000000 -0.00174550978782204950000000000000000000000000000000
0.00013053389384306516000000000000000000000000000000 -0.00005429897379641876000000000000000000000000000000 0.00168260027553933300000000000000000000000000000000 -0.00153891333090046830000000000000000000000000000000 -0.00276064223547848940000000000000000000000000000000 0.00045940944890291607000000000000000000000000000000 -0.00263962144686098800000000000000000000000000000000 0.00145444452958038830000000000000000000000000000000 0.00065594427044200580000000000000000000000000000000 0.00053629420771513630000000000000000000000000000000
-0.00264324020081637900000000000000000000000000000000 0.00002434350372768913500000000000000000000000000000 0.00119309923127938130000000000000000000000000000000 -0.00033773255475214243000000000000000000000000000000 -0.00292344191875649030000000000000000000000000000000 0.00062486896793316790000000000000000000000000000000 -0.00091915381021334610000000000000000000000000000000 -0.00369466638285777860000000000000000000000000000000 -0.00016971974420661518000000000000000000000000000000 -0.00041918766444551885000000000000000000000000000000
-0.00140363592738420080000000000000000000000000000000 0.00044588982742181560000000000000000000000000000000 -0.00246462019428135130000000000000000000000000000000 -0.00112839607000885680000000000000000000000000000000 -0.00559264354110651800000000000000000000000000000000 -0.00121144141078984940000000000000000000000000000000 -0.00019801830205709443000000000000000000000000000000 -0.00041882595877842883000000000000000000000000000000 0.00098799283082888730000000000000000000000000000000 -0.00022874558282072962000000000000000000000000000000
-0.00343946250964913270000000000000000000000000000000 0.00019296922219029646000000000000000000000000000000 -0.00292689694506306500000000000000000000000000000000 -0.00038874279602178990000000000000000000000000000000 -0.18698948413644030000000000000000000000000000000000 -0.00122432352286854360000000000000000000000000000000 0.00723039224207601500000000000000000000000000000000 -0.00196979639811736350000000000000000000000000000000 -0.00121992444085931570000000000000000000000000000000 -0.00135688331683116300000000000000000000000000000000
-0.00053692142524788230000000000000000000000000000000 -0.00152252626165327540000000000000000000000000000000 -0.00404938942844245100000000000000000000000000000000 -0.00196589258260709870000000000000000000000000000000 -0.28638891320101506000000000000000000000000000000000 -0.00131810994365261330000000000000000000000000000000 0.01866836747883702400000000000000000000000000000000 -0.00081541542720341290000000000000000000000000000000 0.00002693516760149932000000000000000000000000000000 0.00135318406307740580000000000000000000000000000000
-0.00015656337530343947000000000000000000000000000000 -0.02642912419200388000000000000000000000000000000000 -0.00726009945072409250000000000000000000000000000000 -0.00089162591407527930000000000000000000000000000000 -0.14572155382454702000000000000000000000000000000000 -0.00010950459662533201000000000000000000000000000000 0.21630928369640634000000000000000000000000000000000 -0.00710835287631325800000000000000000000000000000000 -0.00122379920092736760000000000000000000000000000000 -0.00051014520780746860000000000000000000000000000000
-0.01606302300276900300000000000000000000000000000000 -0.01765442216597736700000000000000000000000000000000 -0.11984932865888168000000000000000000000000000000000 -0.00179925391171666530000000000000000000000000000000 -0.10148830609779308000000000000000000000000000000000 -0.00167589270151473980000000000000000000000000000000 0.25333733321104895000000000000000000000000000000000 -0.04390786372650395000000000000000000000000000000000 -0.03624721871339945000000000000000000000000000000000 0.00040275459932744847000000000000000000000000000000
-0.09666594605145204000000000000000000000000000000000 -0.00940525543213924800000000000000000000000000000000 -0.32996626762429904000000000000000000000000000000000 0.00180253013763606740000000000000000000000000000000 -0.32743964296129760000000000000000000000000000000000 -0.00332273963847606970000000000000000000000000000000 0.10932473119975836000000000000000000000000000000000 -0.01265389475326157900000000000000000000000000000000 -0.07914943144010225000000000000000000000000000000000 0.00085727184716111770000000000000000000000000000000
-0.07938966417527211000000000000000000000000000000000 -0.00235400469451935550000000000000000000000000000000 -0.37144847589241090000000000000000000000000000000000 -0.00048074311561269320000000000000000000000000000000 -0.40830464443393133000000000000000000000000000000000 -0.00425336146712227500000000000000000000000000000000 0.01506381793724866600000000000000000000000000000000 -0.00782236133467321000000000000000000000000000000000 -0.01555828510670137500000000000000000000000000000000 -0.03382671199921260000000000000000000000000000000000
-0.00228781895153179500000000000000000000000000000000 0.00052634450551901220000000000000000000000000000000 -0.32376008855189120000000000000000000000000000000000 -0.00786672719624586200000000000000000000000000000000 -0.52371339357812570000000000000000000000000000000000 -0.00582198558069464700000000000000000000000000000000 0.13188473869062103000000000000000000000000000000000 -0.05157673591580843000000000000000000000000000000000 -0.00404080858685482400000000000000000000000000000000 -0.16943773681861632000000000000000000000000000000000
0.01982556004321014600000000000000000000000000000000 -0.00451919737554928500000000000000000000000000000000 -0.43899312807250424000000000000000000000000000000000 -0.00354243574948349870000000000000000000000000000000 -0.36892058151438534000000000000000000000000000000000 -0.01313086678693956500000000000000000000000000000000 0.28622525221166917000000000000000000000000000000000 -0.01161490361327518000000000000000000000000000000000 -0.00888293451293241700000000000000000000000000000000 -0.19469731976143528000000000000000000000000000000000
-0.01877101678966369700000000000000000000000000000000 0.09535067947237440000000000000000000000000000000000 -0.58441654968177510000000000000000000000000000000000 -0.00400649942336687500000000000000000000000000000000 -0.16901790844205540000000000000000000000000000000000 -0.03759166854345612000000000000000000000000000000000 0.20421703138985914000000000000000000000000000000000 -0.01539540582220292300000000000000000000000000000000 -0.03911172061192059000000000000000000000000000000000 -0.02392312163170069400000000000000000000000000000000
-0.01659164370382354800000000000000000000000000000000 0.11730559026350001000000000000000000000000000000000 -0.40413159397326190000000000000000000000000000000000 -0.00713411557501767200000000000000000000000000000000 -0.38473327351031070000000000000000000000000000000000 -0.04761760715638342600000000000000000000000000000000 -0.01368512937947811000000000000000000000000000000000 -0.01162044489166651700000000000000000000000000000000 -0.06904246441541890000000000000000000000000000000000 -0.05126246635392417000000000000000000000000000000000
-0.01009799109420425800000000000000000000000000000000 -0.10369514063449739000000000000000000000000000000000 -0.16904863620907026000000000000000000000000000000000 -0.00908132136566433400000000000000000000000000000000 -0.28933370202841807000000000000000000000000000000000 -0.03778804294646946000000000000000000000000000000000 0.08617688141850242000000000000000000000000000000000 -0.01780649873174615400000000000000000000000000000000 -0.07397331537893790000000000000000000000000000000000 -0.12455372063413941000000000000000000000000000000000
0.04895793486921485000000000000000000000000000000000 -0.02230827748648305700000000000000000000000000000000 -0.31951824199260953000000000000000000000000000000000 0.00276012798019712900000000000000000000000000000000 -0.12338150991149105000000000000000000000000000000000 -0.00896263613386426500000000000000000000000000000000 0.36566007287449960000000000000000000000000000000000 -0.00578171268201907400000000000000000000000000000000 -0.11271069633683167000000000000000000000000000000000 -0.15209184826162260000000000000000000000000000000000
-0.00241036532159679800000000000000000000000000000000 0.00001942889957287861800000000000000000000000000000 -0.23508199482533332000000000000000000000000000000000 0.00214506483361192800000000000000000000000000000000 -0.13733619527527430000000000000000000000000000000000 -0.01013301908634310000000000000000000000000000000000 0.22662047841149374000000000000000000000000000000000 -0.00098360656520224200000000000000000000000000000000 -0.11894019703349773000000000000000000000000000000000 -0.05025278833276978000000000000000000000000000000000
-0.00126897704373712280000000000000000000000000000000 -0.00067978669244179840000000000000000000000000000000 -0.11748988450342343000000000000000000000000000000000 0.00022749734237431364000000000000000000000000000000 -0.28030971100627483000000000000000000000000000000000 -0.01044636453058215800000000000000000000000000000000 0.10311959818610983000000000000000000000000000000000 0.00099558967555741000000000000000000000000000000000 -0.11011889909884316000000000000000000000000000000000 -0.01482223025663187200000000000000000000000000000000
-0.00363135635555667500000000000000000000000000000000 -0.00008700072356339553000000000000000000000000000000 -0.16680679483393834000000000000000000000000000000000 -0.00020020222650321242000000000000000000000000000000 -0.15828160902147195000000000000000000000000000000000 -0.00672741113040539700000000000000000000000000000000 0.05086525261219987400000000000000000000000000000000 0.00000530677821042552300000000000000000000000000000 -0.03596811224986614500000000000000000000000000000000 -0.00382665665133428400000000000000000000000000000000
-0.00018920799417841485000000000000000000000000000000 0.00115374418067886500000000000000000000000000000000 -0.05899449598724141500000000000000000000000000000000 0.00036431524965911900000000000000000000000000000000 -0.11808010354700282000000000000000000000000000000000 -0.00121281874809672760000000000000000000000000000000 0.13755822759652010000000000000000000000000000000000 -0.00130849404356731760000000000000000000000000000000 0.00043690692236354990000000000000000000000000000000 -0.01029143205611134600000000000000000000000000000000
-0.00187226947758028700000000000000000000000000000000 0.00324290043425034200000000000000000000000000000000 -0.00269507138514773040000000000000000000000000000000 -0.00203043498667298360000000000000000000000000000000 -0.21754289740952876000000000000000000000000000000000 0.00008666666545388588000000000000000000000000000000 0.01771599902765669600000000000000000000000000000000 0.00004179506305941110000000000000000000000000000000 0.00072664503056672730000000000000000000000000000000 -0.01191552114987260400000000000000000000000000000000
-0.00118231283169088000000000000000000000000000000000 -0.00075559570008535710000000000000000000000000000000 -0.00149115660307239670000000000000000000000000000000 -0.00207921528828284350000000000000000000000000000000 -0.13754066762367076000000000000000000000000000000000 -0.00122471927553433800000000000000000000000000000000 0.00025525996744790350000000000000000000000000000000 -0.00145036818572596960000000000000000000000000000000 -0.00048178017876170050000000000000000000000000000000 -0.00299315298708010700000000000000000000000000000000
0.00142760461852698470000000000000000000000000000000 0.00113752474103656980000000000000000000000000000000 -0.00149341502278071470000000000000000000000000000000 0.00007142333382877759000000000000000000000000000000 0.00091039747660779250000000000000000000000000000000 -0.00179446490080253840000000000000000000000000000000 -0.00234238140080493100000000000000000000000000000000 -0.00118943980795845800000000000000000000000000000000 -0.00017046244859192453000000000000000000000000000000 0.00041789539664249600000000000000000000000000000000
-0.00077495099191448280000000000000000000000000000000 -0.00071469772624371420000000000000000000000000000000 0.00053780978853475410000000000000000000000000000000 -0.00102886641118292950000000000000000000000000000000 -0.00318057492859422300000000000000000000000000000000 -0.00143313133582452120000000000000000000000000000000 -0.00052882639658687850000000000000000000000000000000 -0.00157027715177295110000000000000000000000000000000 0.00026285809380054755000000000000000000000000000000 0.00084135220205594400000000000000000000000000000000
0.00181394516074270120000000000000000000000000000000 -0.00018696383341349913000000000000000000000000000000 -0.00197738497660343570000000000000000000000000000000 0.00166489635806240900000000000000000000000000000000 -0.00195125225903903510000000000000000000000000000000 0.00050808608067763700000000000000000000000000000000 0.00113185640795201430000000000000000000000000000000 -0.00077927855771796960000000000000000000000000000000 0.00010308256904705091000000000000000000000000000000 -0.00045942026430148856000000000000000000000000000000
0.00174457666830115340000000000000000000000000000000 0.00004041028783218045400000000000000000000000000000 -0.00014663337489734263000000000000000000000000000000 -0.00177193254884178880000000000000000000000000000000 0.00073913420419111730000000000000000000000000000000 0.00162119536705482030000000000000000000000000000000 -0.00087124976849167790000000000000000000000000000000 -0.00134742821002086520000000000000000000000000000000 -0.00005007069726611891000000000000000000000000000000 0.00144238294089270000000000000000000000000000000000
-0.00029233827934752740000000000000000000000000000000 -0.00290555746138722600000000000000000000000000000000 -0.00262756631766213400000000000000000000000000000000 -0.00002772481338910012700000000000000000000000000000 -0.00131963409148319740000000000000000000000000000000 0.00026995395115618406000000000000000000000000000000 -0.00117865169290898230000000000000000000000000000000 -0.00002136122969022421200000000000000000000000000000 0.00096143947733303490000000000000000000000000000000 0.00145986202389197270000000000000000000000000000000
0.00039123770010705360000000000000000000000000000000 0.00071233224057714120000000000000000000000000000000 -0.00269978908269569640000000000000000000000000000000 -0.00065589074655212120000000000000000000000000000000 -0.00092715884435104830000000000000000000000000000000 -0.00250052575270188600000000000000000000000000000000 -0.00065468045662653250000000000000000000000000000000 -0.00220630866190106230000000000000000000000000000000 -0.00025417122147147324000000000000000000000000000000 -0.00234657541791888600000000000000000000000000000000
-0.00094549106321891090000000000000000000000000000000 0.00281885349862812400000000000000000000000000000000 0.00206286405371109870000000000000000000000000000000 0.00017063274252416340000000000000000000000000000000 -0.00162411132648983440000000000000000000000000000000 0.00193351919337923520000000000000000000000000000000 -0.00115981412036740560000000000000000000000000000000 0.00073852027289175540000000000000000000000000000000 0.00150554523722581650000000000000000000000000000000 -0.00173021835937939700000000000000000000000000000000
-0.00842791644550364500000000000000000000000000000000 0.00065328620554849480000000000000000000000000000000 -0.00068797862232987390000000000000000000000000000000 0.00037012860717413384000000000000000000000000000000 -0.00418286293161224700000000000000000000000000000000 -0.00270048078977719060000000000000000000000000000000 -0.00083646618271652220000000000000000000000000000000 -0.00093865362367632000000000000000000000000000000000 -0.00168967913842942780000000000000000000000000000000 -0.00111182305798364180000000000000000000000000000000
-0.00000554435759218948800000000000000000000000000000 0.00004229622530005673000000000000000000000000000000 -0.00302355781445149370000000000000000000000000000000 -0.00026131717042056417000000000000000000000000000000 -0.07368141363064841000000000000000000000000000000000 0.00028481436932303400000000000000000000000000000000 -0.00010636239861054256000000000000000000000000000000 -0.00038693559702696425000000000000000000000000000000 -0.00252684255347289300000000000000000000000000000000 0.00115916181552236160000000000000000000000000000000
-0.00695247479928514800000000000000000000000000000000 0.00127127055748963640000000000000000000000000000000 -0.00155280332572022870000000000000000000000000000000 0.00020784899179494975000000000000000000000000000000 -0.02125682425780825400000000000000000000000000000000 -0.00189706236420921540000000000000000000000000000000 -0.00108059446476637970000000000000000000000000000000 -0.00170506974796636640000000000000000000000000000000 -0.00356746709322192140000000000000000000000000000000 -0.00027972836223173420000000000000000000000000000000
-0.05663957944829981600000000000000000000000000000000 -0.00001782775165440124000000000000000000000000000000 -0.00880078542413001000000000000000000000000000000000 -0.00215117361163093100000000000000000000000000000000 -0.19660281131806840000000000000000000000000000000000 -0.00337289921136248100000000000000000000000000000000 0.10361161282825161000000000000000000000000000000000 -0.00012476871146325228000000000000000000000000000000 -0.06537734131634552000000000000000000000000000000000 -0.00103242129667226050000000000000000000000000000000
-0.11847666387292649000000000000000000000000000000000 -0.00944634640727599000000000000000000000000000000000 -0.02507651913005471200000000000000000000000000000000 -0.00791134591394128000000000000000000000000000000000 -0.55363765838289410000000000000000000000000000000000 -0.01125490635800030000000000000000000000000000000000 0.14205627552517738000000000000000000000000000000000 -0.00079501504692931880000000000000000000000000000000 -0.11847713621400294000000000000000000000000000000000 -0.00028611925307745720000000000000000000000000000000
-0.15578591192716404000000000000000000000000000000000 -0.09676447896476803000000000000000000000000000000000 -0.10164290685961053000000000000000000000000000000000 -0.02305444390080918000000000000000000000000000000000 -0.55178671953979270000000000000000000000000000000000 -0.05011589613591395000000000000000000000000000000000 0.32672585319907420000000000000000000000000000000000 -0.01702928443291754400000000000000000000000000000000 -0.09330180215664043000000000000000000000000000000000 -0.00007562849904112980000000000000000000000000000000
-0.44752272087033680000000000000000000000000000000000 -0.15264362980568771000000000000000000000000000000000 -0.24571298206325048000000000000000000000000000000000 -0.11031498911222476000000000000000000000000000000000 -0.54633851750394320000000000000000000000000000000000 -0.04910694399584555000000000000000000000000000000000 0.25159720708276495000000000000000000000000000000000 -0.06834369993559623000000000000000000000000000000000 -0.06881651013834007000000000000000000000000000000000 -0.00192043979721461480000000000000000000000000000000
-0.48428282574684334000000000000000000000000000000000 -0.08291921235083262000000000000000000000000000000000 -0.96441385278688860000000000000000000000000000000000 -0.11755236945546899000000000000000000000000000000000 -1.05981876547695130000000000000000000000000000000000 -0.14141082174349903000000000000000000000000000000000 0.41656567965128130000000000000000000000000000000000 -0.05369033254080208000000000000000000000000000000000 -0.08984090824652796000000000000000000000000000000000 -0.04961271750117871000000000000000000000000000000000
-0.30314542811697504000000000000000000000000000000000 -0.11940008489297495000000000000000000000000000000000 -1.06653732385168840000000000000000000000000000000000 0.00829894729385859000000000000000000000000000000000 -1.13270945396156790000000000000000000000000000000000 -0.30763484320531637000000000000000000000000000000000 0.08828535814120832000000000000000000000000000000000 -0.03386776318944209600000000000000000000000000000000 -0.10703121699848393000000000000000000000000000000000 -0.18878177102065538000000000000000000000000000000000
-0.40294940606340940000000000000000000000000000000000 -0.08123798850141145000000000000000000000000000000000 -0.95508989056603100000000000000000000000000000000000 -0.06455486633596855000000000000000000000000000000000 -1.01439205642241030000000000000000000000000000000000 -0.31047556237980580000000000000000000000000000000000 0.21918753649991200000000000000000000000000000000000 -0.03483851935115283000000000000000000000000000000000 -0.18319978599883627000000000000000000000000000000000 -0.33008367707671393000000000000000000000000000000000
-0.33907763449668390000000000000000000000000000000000 -0.09737770638702098000000000000000000000000000000000 -0.90663927381115420000000000000000000000000000000000 -0.18471961798197820000000000000000000000000000000000 -1.07275189357004490000000000000000000000000000000000 -0.31354263565531354000000000000000000000000000000000 0.03046187836916481000000000000000000000000000000000 -0.02860291561605864500000000000000000000000000000000 -0.28218470681540920000000000000000000000000000000000 -0.27232236478945490000000000000000000000000000000000
-0.28121049931637770000000000000000000000000000000000 0.00665577802961529050000000000000000000000000000000 -1.18602939359892800000000000000000000000000000000000 -0.11097603554824280000000000000000000000000000000000 -0.91395872981500440000000000000000000000000000000000 -0.36945377245607520000000000000000000000000000000000 0.05097530325862100600000000000000000000000000000000 -0.02532011684505474500000000000000000000000000000000 -0.53758087379205020000000000000000000000000000000000 -0.22975936144505850000000000000000000000000000000000
-0.54064845634630850000000000000000000000000000000000 0.18462685853085817000000000000000000000000000000000 -0.95956508289027890000000000000000000000000000000000 -0.19805693618996237000000000000000000000000000000000 -0.68283156373417300000000000000000000000000000000000 -0.41517226893630340000000000000000000000000000000000 0.13089672822792330000000000000000000000000000000000 -0.03390065889567772000000000000000000000000000000000 -0.61417328963461140000000000000000000000000000000000 -0.24405501078587713000000000000000000000000000000000
-0.51190816689731220000000000000000000000000000000000 0.27331074445207480000000000000000000000000000000000 -0.59254546608946880000000000000000000000000000000000 -0.28090908550199506000000000000000000000000000000000 -0.68979285770275890000000000000000000000000000000000 -0.36890526648068990000000000000000000000000000000000 0.13835167160767795000000000000000000000000000000000 -0.05077485037772633000000000000000000000000000000000 -0.58619290574347000000000000000000000000000000000000 -0.38608034085169407000000000000000000000000000000000
-0.60084888992728460000000000000000000000000000000000 -0.11144227086458816000000000000000000000000000000000 -0.73242666089775330000000000000000000000000000000000 -0.19500896986053468000000000000000000000000000000000 -0.72938661902959740000000000000000000000000000000000 -0.35019756378416333000000000000000000000000000000000 0.39509097102030800000000000000000000000000000000000 -0.07063219850989930000000000000000000000000000000000 -0.61652892400807610000000000000000000000000000000000 -0.34289811441370160000000000000000000000000000000000
-0.64142699104078660000000000000000000000000000000000 -0.00884896033313041900000000000000000000000000000000 -0.91429093073019830000000000000000000000000000000000 -0.28888976336908080000000000000000000000000000000000 -0.61327195679497550000000000000000000000000000000000 -0.25499786601686780000000000000000000000000000000000 0.42072853598791854000000000000000000000000000000000 -0.05291585733885611300000000000000000000000000000000 -0.72463882175739140000000000000000000000000000000000 -0.18916480173089664000000000000000000000000000000000
-0.51713167188838650000000000000000000000000000000000 -0.00809228427753044300000000000000000000000000000000 -0.73715514522678130000000000000000000000000000000000 -0.23840198695138937000000000000000000000000000000000 -0.56332391167041140000000000000000000000000000000000 -0.18666422917029590000000000000000000000000000000000 0.17885670043788812000000000000000000000000000000000 -0.04313709445598474000000000000000000000000000000000 -0.50426283232612390000000000000000000000000000000000 -0.18230527888584272000000000000000000000000000000000
-0.58988405722489720000000000000000000000000000000000 -0.08450541520809535000000000000000000000000000000000 -0.53996845490936470000000000000000000000000000000000 -0.12495479619961460000000000000000000000000000000000 -0.44462757007606063000000000000000000000000000000000 -0.13916780271200554000000000000000000000000000000000 0.33590732193894410000000000000000000000000000000000 -0.00477371123233442200000000000000000000000000000000 -0.19321390688977993000000000000000000000000000000000 -0.05274203754617584000000000000000000000000000000000
-0.42219989704767140000000000000000000000000000000000 -0.05724186173976436000000000000000000000000000000000 -0.40882877225493590000000000000000000000000000000000 -0.07750835275888780000000000000000000000000000000000 -0.32160046591656630000000000000000000000000000000000 -0.15613789157709270000000000000000000000000000000000 0.86670253740522360000000000000000000000000000000000 0.00013560186662761280000000000000000000000000000000 -0.11706005132757470000000000000000000000000000000000 -0.02805776728622135600000000000000000000000000000000
-0.22439686104199452000000000000000000000000000000000 -0.01449746162748522500000000000000000000000000000000 -0.34375761122326900000000000000000000000000000000000 -0.03018788394438221000000000000000000000000000000000 -0.44315640631596180000000000000000000000000000000000 -0.08709597916962866000000000000000000000000000000000 0.68217267611908700000000000000000000000000000000000 -0.00231756856347668140000000000000000000000000000000 -0.09640148563068450000000000000000000000000000000000 -0.03802902943524820000000000000000000000000000000000
-0.07195170855883329000000000000000000000000000000000 -0.03396303173410550000000000000000000000000000000000 -0.06474067714897482000000000000000000000000000000000 -0.01141578953371061600000000000000000000000000000000 -0.20736810075556197000000000000000000000000000000000 -0.02334684025490599300000000000000000000000000000000 0.29948340628044360000000000000000000000000000000000 -0.00108625572079714760000000000000000000000000000000 -0.05014730515722004000000000000000000000000000000000 -0.00780668007970270800000000000000000000000000000000
-0.00446719116327512900000000000000000000000000000000 -0.01523273746715181000000000000000000000000000000000 0.00101125608170572130000000000000000000000000000000 -0.00103202144600313820000000000000000000000000000000 -0.05795909155036177400000000000000000000000000000000 -0.00753138813460161400000000000000000000000000000000 -0.10768316490940874000000000000000000000000000000000 0.00091692436957473600000000000000000000000000000000 -0.17949163324485270000000000000000000000000000000000 -0.00152304152090747460000000000000000000000000000000
-0.00355268262458261230000000000000000000000000000000 -0.00188070368273401220000000000000000000000000000000 0.00866633682435105000000000000000000000000000000000 -0.00066916705206591100000000000000000000000000000000 -0.02048092944328231600000000000000000000000000000000 0.00042680864603065436000000000000000000000000000000 -0.11531795568172637000000000000000000000000000000000 -0.00212207605756483360000000000000000000000000000000 -0.11297520532246727000000000000000000000000000000000 -0.00009301861781022814000000000000000000000000000000
0.00022581731576354455000000000000000000000000000000 -0.00233464361500947260000000000000000000000000000000 0.00175966296328318700000000000000000000000000000000 -0.00047663709776917580000000000000000000000000000000 -0.00195210890481696800000000000000000000000000000000 -0.00064852597535839660000000000000000000000000000000 -0.00158153199758600180000000000000000000000000000000 -0.00048198751531363180000000000000000000000000000000 0.00033719318132176430000000000000000000000000000000 0.00053344290521454500000000000000000000000000000000
-0.00138418844795207190000000000000000000000000000000 -0.00218076552795202830000000000000000000000000000000 0.00079891651460465460000000000000000000000000000000 -0.00140040798620616430000000000000000000000000000000 -0.00297432945903696800000000000000000000000000000000 0.00080776797714106310000000000000000000000000000000 -0.00007268998584864970000000000000000000000000000000 -0.00103004347309763800000000000000000000000000000000 0.00050673038634983060000000000000000000000000000000 -0.00002996684851498318800000000000000000000000000000
0.00128812674400372420000000000000000000000000000000 0.00051200512773662140000000000000000000000000000000 -0.00056088766531041270000000000000000000000000000000 -0.00051697811706203650000000000000000000000000000000 -0.00208925517673886830000000000000000000000000000000 -0.00031191498215484893000000000000000000000000000000 0.00051728539234822010000000000000000000000000000000 -0.00049606124224863160000000000000000000000000000000 -0.00072762284652870190000000000000000000000000000000 -0.00109541777920564700000000000000000000000000000000
-0.00007775972071084902000000000000000000000000000000 -0.00080261072316661280000000000000000000000000000000 0.00003943185830895552000000000000000000000000000000 -0.00016733967226340690000000000000000000000000000000 -0.00102595570709221820000000000000000000000000000000 -0.00118714216499655050000000000000000000000000000000 -0.00119792178454413600000000000000000000000000000000 -0.00140421989684669540000000000000000000000000000000 -0.00264916449768217220000000000000000000000000000000 -0.00093018977693916000000000000000000000000000000000
0.00077722806271064710000000000000000000000000000000 0.01570923617304728000000000000000000000000000000000 -0.00133276524734456830000000000000000000000000000000 -0.00053030626284768930000000000000000000000000000000 -0.00031992458166512470000000000000000000000000000000 -0.00067188628022748390000000000000000000000000000000 -0.00314676214334571330000000000000000000000000000000 -0.00168240929613154650000000000000000000000000000000 -0.00163069185831637800000000000000000000000000000000 -0.00120228969740754900000000000000000000000000000000
-0.06236029977652936000000000000000000000000000000000 0.00504107590479092000000000000000000000000000000000 0.00033165106772704833000000000000000000000000000000 0.00108084083763197530000000000000000000000000000000 -0.00932956259339336500000000000000000000000000000000 -0.00090350453010880500000000000000000000000000000000 0.01605966360380622600000000000000000000000000000000 0.00122609836299456920000000000000000000000000000000 -0.00019048788887975055000000000000000000000000000000 0.00108131287850593520000000000000000000000000000000
-0.06867961546146661000000000000000000000000000000000 -0.00291662685271064300000000000000000000000000000000 -0.00576197912118052200000000000000000000000000000000 -0.00318938888014019500000000000000000000000000000000 -0.00503093435214278800000000000000000000000000000000 0.03643457660257633000000000000000000000000000000000 0.07425341828897516000000000000000000000000000000000 -0.00269521687573174950000000000000000000000000000000 -0.00308919943142988300000000000000000000000000000000 -0.00325226560141800000000000000000000000000000000000
-0.15163440127002076000000000000000000000000000000000 -0.00573903047666393700000000000000000000000000000000 -0.10482906006694681000000000000000000000000000000000 0.22539927333405382000000000000000000000000000000000 -0.08762251325162170000000000000000000000000000000000 -0.05328156677104535000000000000000000000000000000000 0.03516599770593345500000000000000000000000000000000 -0.00270953944272564040000000000000000000000000000000 -0.06594701566586829000000000000000000000000000000000 -0.00049873285859614950000000000000000000000000000000
-0.26195025637990765000000000000000000000000000000000 -0.03417508541969333700000000000000000000000000000000 -0.15097114780325013000000000000000000000000000000000 0.00171069418754055470000000000000000000000000000000 -0.35530755109963890000000000000000000000000000000000 -0.03919437078744491000000000000000000000000000000000 0.16071746267031730000000000000000000000000000000000 -0.00118934797022331350000000000000000000000000000000 -0.15746071686130947000000000000000000000000000000000 -0.00531396614648780400000000000000000000000000000000
-0.19553545335973452000000000000000000000000000000000 -0.15255117069982344000000000000000000000000000000000 -0.06758942926518897000000000000000000000000000000000 -0.01406030119632018100000000000000000000000000000000 -0.71517855772037800000000000000000000000000000000000 -0.14356572352215638000000000000000000000000000000000 0.02356838741826662200000000000000000000000000000000 -0.01433526203252431100000000000000000000000000000000 -0.24372314655668012000000000000000000000000000000000 -0.01713648204758711000000000000000000000000000000000
-0.27350213358074570000000000000000000000000000000000 -0.29016702866408317000000000000000000000000000000000 0.02810577991799772000000000000000000000000000000000 0.11065222530109636000000000000000000000000000000000 -0.81138263884171070000000000000000000000000000000000 -0.25918766321801910000000000000000000000000000000000 0.18710065670030124000000000000000000000000000000000 -0.09509875129388941000000000000000000000000000000000 -0.30475814459413810000000000000000000000000000000000 -0.05700919762810246000000000000000000000000000000000
-0.57274903027925600000000000000000000000000000000000 -0.38837222036735100000000000000000000000000000000000 0.19741463782069320000000000000000000000000000000000 0.01366416277626471600000000000000000000000000000000 -0.88265710162265030000000000000000000000000000000000 -0.49133201371782570000000000000000000000000000000000 -0.21801717168534498000000000000000000000000000000000 -0.31410416299861520000000000000000000000000000000000 -0.21238528409448884000000000000000000000000000000000 -0.09010265185106395000000000000000000000000000000000
-0.66633879059798750000000000000000000000000000000000 -0.51060576752974580000000000000000000000000000000000 -0.03835942041704967000000000000000000000000000000000 0.09828862087390590000000000000000000000000000000000 -1.20888351941357160000000000000000000000000000000000 -0.61963753858471570000000000000000000000000000000000 0.12995632151628575000000000000000000000000000000000 -0.27464234628487570000000000000000000000000000000000 -0.19964149095176223000000000000000000000000000000000 -0.09742702824242919000000000000000000000000000000000
-0.64959833282099720000000000000000000000000000000000 -0.76713196968535280000000000000000000000000000000000 -0.07408895374036714000000000000000000000000000000000 0.20077161611573850000000000000000000000000000000000 -1.38878355292398360000000000000000000000000000000000 -0.53384869854313990000000000000000000000000000000000 0.23728331158181834000000000000000000000000000000000 -0.21072450243509394000000000000000000000000000000000 -0.39235860457626437000000000000000000000000000000000 -0.30072189744211390000000000000000000000000000000000
-0.55419109650629990000000000000000000000000000000000 -0.45260297842806600000000000000000000000000000000000 -0.06455814100680750000000000000000000000000000000000 0.46388186206283016000000000000000000000000000000000 -1.52544285483447340000000000000000000000000000000000 -0.50775409605953700000000000000000000000000000000000 -0.03503190795846302500000000000000000000000000000000 -0.17269250358837024000000000000000000000000000000000 -0.56528709105415420000000000000000000000000000000000 -0.44588523338321706000000000000000000000000000000000
-0.45417044454683870000000000000000000000000000000000 -0.37863626273247550000000000000000000000000000000000 0.28057629479971400000000000000000000000000000000000 0.47305225527017440000000000000000000000000000000000 -1.48082504673915530000000000000000000000000000000000 -0.60698027458069010000000000000000000000000000000000 0.09550305694193562000000000000000000000000000000000 -0.20903376997559858000000000000000000000000000000000 -1.03588613079748000000000000000000000000000000000000 -0.42873401959420040000000000000000000000000000000000
-0.38513480168266184000000000000000000000000000000000 -0.06375140728562191000000000000000000000000000000000 0.00415060175465431160000000000000000000000000000000 -0.16924716446075805000000000000000000000000000000000 -1.22357979888776680000000000000000000000000000000000 -0.47718478889612950000000000000000000000000000000000 -0.22848845324479147000000000000000000000000000000000 -0.10107726913992710000000000000000000000000000000000 -1.23350863607050850000000000000000000000000000000000 -0.48323417679815220000000000000000000000000000000000
-0.64937069405745640000000000000000000000000000000000 -0.17209497131102192000000000000000000000000000000000 -0.45457731448324730000000000000000000000000000000000 -0.13201345243615317000000000000000000000000000000000 -0.94979629004631580000000000000000000000000000000000 -0.07847830761152054000000000000000000000000000000000 -0.22050730966525356000000000000000000000000000000000 -0.10252194921219330000000000000000000000000000000000 -1.14992967551567400000000000000000000000000000000000 -0.41936435959353540000000000000000000000000000000000
-0.75047383436185270000000000000000000000000000000000 -0.01157203365410428200000000000000000000000000000000 -0.75756830625354110000000000000000000000000000000000 0.15806672973816230000000000000000000000000000000000 -0.83195729091966350000000000000000000000000000000000 -0.22653416197791995000000000000000000000000000000000 -0.05048369339232388000000000000000000000000000000000 -0.08824259461213520000000000000000000000000000000000 -1.50878138499600370000000000000000000000000000000000 -0.43150288733056420000000000000000000000000000000000
-0.67552095322009480000000000000000000000000000000000 -0.20852220410375427000000000000000000000000000000000 -0.18229732814648522000000000000000000000000000000000 0.33806041279890736000000000000000000000000000000000 -1.02128703944724180000000000000000000000000000000000 -0.52277610351794250000000000000000000000000000000000 0.39824649914361510000000000000000000000000000000000 -0.08374829650142189000000000000000000000000000000000 -1.87086614334815100000000000000000000000000000000000 -0.47791227940372710000000000000000000000000000000000
-0.81552381330950310000000000000000000000000000000000 -0.23761729917665503000000000000000000000000000000000 -0.57169189811846130000000000000000000000000000000000 0.28548889031325890000000000000000000000000000000000 -0.81865266176803340000000000000000000000000000000000 -0.41209991703951876000000000000000000000000000000000 0.34549164394638170000000000000000000000000000000000 -0.09000706665453435000000000000000000000000000000000 -1.70853428928223800000000000000000000000000000000000 -0.33414046654094987000000000000000000000000000000000
-0.89257561386578030000000000000000000000000000000000 -0.29042221479231367000000000000000000000000000000000 -0.17180358173575990000000000000000000000000000000000 0.14138180644864540000000000000000000000000000000000 -0.56588804599508390000000000000000000000000000000000 -0.42464498239727860000000000000000000000000000000000 0.24341766514402570000000000000000000000000000000000 -0.07224056424269758000000000000000000000000000000000 -1.15889786169027940000000000000000000000000000000000 -0.29327885260166187000000000000000000000000000000000
-0.80114700505859890000000000000000000000000000000000 -0.29330317952381757000000000000000000000000000000000 -0.57491476577124550000000000000000000000000000000000 0.67153398784297780000000000000000000000000000000000 -0.18762706919979136000000000000000000000000000000000 -0.35570095104038450000000000000000000000000000000000 0.05712639874355453000000000000000000000000000000000 -0.02205964394525517000000000000000000000000000000000 -0.94144287983688150000000000000000000000000000000000 -0.18814294082164867000000000000000000000000000000000
-0.65635669710327880000000000000000000000000000000000 -0.27466831899724790000000000000000000000000000000000 -0.63645113106609250000000000000000000000000000000000 -0.00303560993091465200000000000000000000000000000000 0.00755165266771187100000000000000000000000000000000 -0.20984314878616508000000000000000000000000000000000 0.26998481488653500000000000000000000000000000000000 -0.02570378120884298300000000000000000000000000000000 -0.40341962777950400000000000000000000000000000000000 -0.10100424706590710000000000000000000000000000000000
-0.32604766442035493000000000000000000000000000000000 -0.26155160973941110000000000000000000000000000000000 -0.35746115184853705000000000000000000000000000000000 -0.41643075473151225000000000000000000000000000000000 -0.19335775755556348000000000000000000000000000000000 0.04176387225664331000000000000000000000000000000000 0.47726886168890000000000000000000000000000000000000 -0.02052624985866535000000000000000000000000000000000 -0.10312935887202550000000000000000000000000000000000 -0.03433373892730882000000000000000000000000000000000
-0.04528204015658930000000000000000000000000000000000 -0.29013999278586990000000000000000000000000000000000 -0.24760316388033377000000000000000000000000000000000 -0.13620001507594473000000000000000000000000000000000 -0.06896539387782605000000000000000000000000000000000 -0.43870251324926257000000000000000000000000000000000 0.97607113810491220000000000000000000000000000000000 -0.00798153995266490800000000000000000000000000000000 0.05372423982777057400000000000000000000000000000000 -0.00534184535325392500000000000000000000000000000000
-0.05605450292592011000000000000000000000000000000000 -0.25120467275322980000000000000000000000000000000000 -0.08273815423312945000000000000000000000000000000000 -0.02489866645396871000000000000000000000000000000000 -0.06995202161526595000000000000000000000000000000000 -0.24915515994023724000000000000000000000000000000000 0.49306431581067950000000000000000000000000000000000 -0.00474465125882033400000000000000000000000000000000 -0.13053797194152458000000000000000000000000000000000 -0.00092862666691038040000000000000000000000000000000
-0.03535828435593780400000000000000000000000000000000 -0.04516383753114609000000000000000000000000000000000 0.00400671682921200700000000000000000000000000000000 0.00024695886472618920000000000000000000000000000000 -0.02292759016879962500000000000000000000000000000000 0.07366331739227001000000000000000000000000000000000 -0.12693173940397430000000000000000000000000000000000 0.00036452262025981820000000000000000000000000000000 -0.10444436191658976000000000000000000000000000000000 0.00012275984418654570000000000000000000000000000000
-0.00529371883361574500000000000000000000000000000000 -0.02864154287855124000000000000000000000000000000000 -0.00041704086124485547000000000000000000000000000000 -0.00251113767689529160000000000000000000000000000000 -0.00118282488793824750000000000000000000000000000000 0.02876291818948491600000000000000000000000000000000 0.05744120833904297000000000000000000000000000000000 -0.00182739769968553230000000000000000000000000000000 -0.00239764416157286360000000000000000000000000000000 -0.00019802142854250852000000000000000000000000000000
0.00070011056373073900000000000000000000000000000000 -0.00033794352983156214000000000000000000000000000000 -0.00053353214260652900000000000000000000000000000000 0.00029079494515527290000000000000000000000000000000 -0.00101872670097564840000000000000000000000000000000 -0.00074050344310406700000000000000000000000000000000 0.00154326043917674560000000000000000000000000000000 0.00118721397112360940000000000000000000000000000000 -0.00222689025116875770000000000000000000000000000000 0.00003361402955286315000000000000000000000000000000
0.00096651244923212130000000000000000000000000000000 0.00052684286124548260000000000000000000000000000000 -0.00047609680156083800000000000000000000000000000000 -0.00170178598032806870000000000000000000000000000000 0.00025143615148917010000000000000000000000000000000 -0.00147115082562712500000000000000000000000000000000 -0.00273460823275811960000000000000000000000000000000 -0.00007727360414361349000000000000000000000000000000 -0.00167729223032629960000000000000000000000000000000 0.00006848189162281715000000000000000000000000000000
-0.00173131556119248680000000000000000000000000000000 -0.00024042420917196390000000000000000000000000000000 0.00154283454650831350000000000000000000000000000000 -0.00073286365221593840000000000000000000000000000000 -0.00134971148151599800000000000000000000000000000000 -0.00068583216650440960000000000000000000000000000000 -0.00176247715809658400000000000000000000000000000000 -0.00262822253215922550000000000000000000000000000000 0.00078223084217191830000000000000000000000000000000 0.00038635038268573900000000000000000000000000000000
0.00110752518002392680000000000000000000000000000000 0.05791520377376874000000000000000000000000000000000 -0.01706371996765481200000000000000000000000000000000 -0.00198239776610305630000000000000000000000000000000 -0.00040752513080953200000000000000000000000000000000 -0.00056971646386959650000000000000000000000000000000 -0.01296919828410954000000000000000000000000000000000 0.00331022502409568700000000000000000000000000000000 0.02032070510332163700000000000000000000000000000000 -0.00091720518224373700000000000000000000000000000000
-0.00358491187930557300000000000000000000000000000000 0.01173702868180700300000000000000000000000000000000 -0.06542647506415553000000000000000000000000000000000 0.02430263297596654500000000000000000000000000000000 -0.00365997800518450250000000000000000000000000000000 -0.02741644859180737000000000000000000000000000000000 -0.01215150390680950200000000000000000000000000000000 0.00058505846734989380000000000000000000000000000000 0.00130857314987200260000000000000000000000000000000 0.00228446249007724060000000000000000000000000000000
-0.02875565322467284000000000000000000000000000000000 0.00930267951928598500000000000000000000000000000000 -0.19458481502143074000000000000000000000000000000000 0.11509079084092738000000000000000000000000000000000 0.00009053217302617801000000000000000000000000000000 -0.23475569386426193000000000000000000000000000000000 0.07495322858234844000000000000000000000000000000000 -0.02343393515062769400000000000000000000000000000000 -0.01089055430477718800000000000000000000000000000000 -0.00705376242628710400000000000000000000000000000000
-0.28429102354607730000000000000000000000000000000000 0.07889323790162805000000000000000000000000000000000 -0.14176119546946958000000000000000000000000000000000 0.45274853848221086000000000000000000000000000000000 -0.09224421579372388000000000000000000000000000000000 -0.59309645016408930000000000000000000000000000000000 -0.08319429776468670000000000000000000000000000000000 -0.02062763769167036400000000000000000000000000000000 -0.09153380329045260000000000000000000000000000000000 -0.02240856627113414000000000000000000000000000000000
-0.21384755127824734000000000000000000000000000000000 -0.12174888650752455000000000000000000000000000000000 0.01932382804662185700000000000000000000000000000000 -0.05101323473694472000000000000000000000000000000000 -0.55222923379635960000000000000000000000000000000000 -0.55638348877337910000000000000000000000000000000000 -0.13343713100835264000000000000000000000000000000000 -0.02297001883794242600000000000000000000000000000000 -0.25080506963744925000000000000000000000000000000000 -0.14423520939838844000000000000000000000000000000000
-0.23832778143168362000000000000000000000000000000000 -0.22553638678058270000000000000000000000000000000000 -0.11668297283234101000000000000000000000000000000000 0.03260789430185626000000000000000000000000000000000 -0.52545084546270690000000000000000000000000000000000 -0.51617896891520410000000000000000000000000000000000 -0.54271541708112970000000000000000000000000000000000 -0.07422508134133834000000000000000000000000000000000 -0.25555013443607800000000000000000000000000000000000 -0.27121771068529915000000000000000000000000000000000
-0.40628038744698430000000000000000000000000000000000 -0.11460010225905243000000000000000000000000000000000 -0.07867003586748868000000000000000000000000000000000 0.42403065490273190000000000000000000000000000000000 -0.67470512907643810000000000000000000000000000000000 -0.95966576806927230000000000000000000000000000000000 -0.19611512342739446000000000000000000000000000000000 -0.19648645737685344000000000000000000000000000000000 -0.39052352813686997000000000000000000000000000000000 -0.42555821996267146000000000000000000000000000000000
-0.24622402314618720000000000000000000000000000000000 -0.67511979182841770000000000000000000000000000000000 0.18315170791896823000000000000000000000000000000000 0.07334436639118076000000000000000000000000000000000 -0.62703089729157800000000000000000000000000000000000 -0.55394242521124530000000000000000000000000000000000 -0.35865435144454130000000000000000000000000000000000 -0.35569621810455660000000000000000000000000000000000 -0.53057850235698270000000000000000000000000000000000 -0.43019276492654600000000000000000000000000000000000
-0.37736658659230930000000000000000000000000000000000 -0.42932541167306115000000000000000000000000000000000 -0.79581551753864480000000000000000000000000000000000 0.68050348604906770000000000000000000000000000000000 -0.70859259148933820000000000000000000000000000000000 -0.48161481693603440000000000000000000000000000000000 0.26557576079022620000000000000000000000000000000000 -0.55622440935932880000000000000000000000000000000000 -0.34959066521926090000000000000000000000000000000000 -0.39093581904961144000000000000000000000000000000000
-0.46274563294252470000000000000000000000000000000000 -0.36679777817353104000000000000000000000000000000000 -0.49183791059164150000000000000000000000000000000000 0.69724626674835310000000000000000000000000000000000 -0.58818468619687840000000000000000000000000000000000 -0.35929739141816330000000000000000000000000000000000 -0.86287573170529590000000000000000000000000000000000 -0.43006703620322460000000000000000000000000000000000 -0.25921446338231197000000000000000000000000000000000 -0.45732827710273294000000000000000000000000000000000
-0.16994902999107250000000000000000000000000000000000 -0.18870152996483208000000000000000000000000000000000 0.03544815446159108000000000000000000000000000000000 -0.02975923026424486700000000000000000000000000000000 -0.67542095950924700000000000000000000000000000000000 -0.25697460442034015000000000000000000000000000000000 -0.73049141985852700000000000000000000000000000000000 -0.43746035754230495000000000000000000000000000000000 -0.42845846810779430000000000000000000000000000000000 -0.81976850108133670000000000000000000000000000000000
-0.41589827743794320000000000000000000000000000000000 -0.15393935541432327000000000000000000000000000000000 -0.32060696609815265000000000000000000000000000000000 0.09861976863699567000000000000000000000000000000000 -0.90783360853023780000000000000000000000000000000000 -0.14206588660867425000000000000000000000000000000000 -0.90754422773860080000000000000000000000000000000000 -0.48906764371559236000000000000000000000000000000000 0.17366041292657233000000000000000000000000000000000 -1.30491536029159170000000000000000000000000000000000
-1.09085718951640190000000000000000000000000000000000 -0.19955099574649390000000000000000000000000000000000 -0.22251920013506385000000000000000000000000000000000 1.01412529052391060000000000000000000000000000000000 -0.98493978806915330000000000000000000000000000000000 -0.29434877248721597000000000000000000000000000000000 0.12144319988131490000000000000000000000000000000000 -0.37710248614923490000000000000000000000000000000000 -0.53094822935760200000000000000000000000000000000000 -1.29100776724745450000000000000000000000000000000000
-0.81085419994803880000000000000000000000000000000000 -0.30528475549576745000000000000000000000000000000000 -0.28109313897011023000000000000000000000000000000000 0.42845642533568984000000000000000000000000000000000 -0.48501834647315156000000000000000000000000000000000 -0.33609826883274097000000000000000000000000000000000 -0.36875614095833326000000000000000000000000000000000 -0.41689444381261953000000000000000000000000000000000 0.13784660174784472000000000000000000000000000000000 -1.24984683915971660000000000000000000000000000000000
-0.63879844040147840000000000000000000000000000000000 -0.13176677705895465000000000000000000000000000000000 -0.27536904636866690000000000000000000000000000000000 0.22333547243655952000000000000000000000000000000000 -0.57886659165029060000000000000000000000000000000000 0.23072922812504798000000000000000000000000000000000 -0.20041660826328270000000000000000000000000000000000 -0.41494364952803860000000000000000000000000000000000 -0.65255779665175120000000000000000000000000000000000 -1.68445187511906670000000000000000000000000000000000
-0.34440287559069355000000000000000000000000000000000 -0.13775708072978600000000000000000000000000000000000 -0.28795771824475364000000000000000000000000000000000 0.04131825597308033000000000000000000000000000000000 -0.58171748732635690000000000000000000000000000000000 0.51361917594723600000000000000000000000000000000000 -0.30050651579909310000000000000000000000000000000000 -0.38117352665368875000000000000000000000000000000000 -1.08628253986558930000000000000000000000000000000000 -1.21285129803853020000000000000000000000000000000000
-0.18545872806484410000000000000000000000000000000000 0.00995626895444750000000000000000000000000000000000 -0.29240401074220850000000000000000000000000000000000 -0.11177232864471490000000000000000000000000000000000 -0.53828751640794900000000000000000000000000000000000 -0.03017268050873077700000000000000000000000000000000 0.09219249894240238000000000000000000000000000000000 -0.38654362836449330000000000000000000000000000000000 -1.17992328308611750000000000000000000000000000000000 -0.97982836617379010000000000000000000000000000000000
-0.54048016433377840000000000000000000000000000000000 -0.06673838701008113000000000000000000000000000000000 -0.49213036767241697000000000000000000000000000000000 0.00929048182916289300000000000000000000000000000000 -0.35605178373587687000000000000000000000000000000000 -0.08114291783373413000000000000000000000000000000000 0.39495738151749904000000000000000000000000000000000 -0.49172163599295604000000000000000000000000000000000 -0.47627878869876090000000000000000000000000000000000 -0.74242463827313640000000000000000000000000000000000
-0.43469499157462294000000000000000000000000000000000 0.07909192678185932000000000000000000000000000000000 -0.56187547457396310000000000000000000000000000000000 -0.43149934917839570000000000000000000000000000000000 0.17512666977727745000000000000000000000000000000000 -0.09749200675678600000000000000000000000000000000000 0.06961697454055922000000000000000000000000000000000 -0.39350572007705030000000000000000000000000000000000 -0.58228387271657340000000000000000000000000000000000 -0.57365642392494210000000000000000000000000000000000
-0.29945053503832610000000000000000000000000000000000 0.01795584923046015700000000000000000000000000000000 -0.48255682667281924000000000000000000000000000000000 -0.40367506759236760000000000000000000000000000000000 0.11895767669560513000000000000000000000000000000000 -0.12664706396113730000000000000000000000000000000000 0.13933689794908186000000000000000000000000000000000 -0.04424896524631674000000000000000000000000000000000 -0.85904345444841410000000000000000000000000000000000 -0.56570440527810700000000000000000000000000000000000
-0.14757569324213815000000000000000000000000000000000 0.10289174130174174000000000000000000000000000000000 -1.01454064236831830000000000000000000000000000000000 -0.38335879595671150000000000000000000000000000000000 0.34407716924592160000000000000000000000000000000000 0.41886248282156160000000000000000000000000000000000 0.06380796606758682000000000000000000000000000000000 -0.07516962415659410000000000000000000000000000000000 -0.87702365609602760000000000000000000000000000000000 -0.53590438786121800000000000000000000000000000000000
-0.21190642358786890000000000000000000000000000000000 -0.10161438557733576000000000000000000000000000000000 -0.89144585762141330000000000000000000000000000000000 -0.66817586539485150000000000000000000000000000000000 0.43078939566977990000000000000000000000000000000000 0.57397574371824270000000000000000000000000000000000 0.15559498982301045000000000000000000000000000000000 -0.10916887322676933000000000000000000000000000000000 -0.97029392928270370000000000000000000000000000000000 -0.26196073587548410000000000000000000000000000000000
-0.53553957627218330000000000000000000000000000000000 -0.48777125215887800000000000000000000000000000000000 -0.47124079042457334000000000000000000000000000000000 -0.11280019035715588000000000000000000000000000000000 0.41414947631017934000000000000000000000000000000000 0.84772587467862050000000000000000000000000000000000 -0.16996704355896147000000000000000000000000000000000 -0.10685454547282465000000000000000000000000000000000 0.00104669203584403100000000000000000000000000000000 -0.02290641604498414700000000000000000000000000000000
-0.18840302389558167000000000000000000000000000000000 -0.29205672521318400000000000000000000000000000000000 -0.15892260100524644000000000000000000000000000000000 -0.00295429299712738570000000000000000000000000000000 0.05349651535936597000000000000000000000000000000000 0.20260186234475738000000000000000000000000000000000 -0.30784457498362330000000000000000000000000000000000 -0.01787617788354713000000000000000000000000000000000 0.08305719744203880000000000000000000000000000000000 -0.00423610901232302300000000000000000000000000000000
-0.00405233873901625600000000000000000000000000000000 -0.00889391261496647000000000000000000000000000000000 -0.00629688808093616700000000000000000000000000000000 -0.00077020603170931520000000000000000000000000000000 -0.03711799702121958000000000000000000000000000000000 0.02043687132151757000000000000000000000000000000000 -0.06495279736632573000000000000000000000000000000000 -0.00101811900474431600000000000000000000000000000000 0.13133507262333238000000000000000000000000000000000 -0.00328210369422810920000000000000000000000000000000
0.00092732685936412200000000000000000000000000000000 -0.00200372448005719400000000000000000000000000000000 -0.00645826715381888600000000000000000000000000000000 0.00002133311774473500000000000000000000000000000000 -0.00166564762501019000000000000000000000000000000000 -0.00687636021448418800000000000000000000000000000000 0.04556575997195634000000000000000000000000000000000 -0.00022036937497203080000000000000000000000000000000 0.02463703235902641000000000000000000000000000000000 -0.00058237010278819950000000000000000000000000000000
0.00018511254268101446000000000000000000000000000000 -0.00022130674875876392000000000000000000000000000000 -0.00011859173484313852000000000000000000000000000000 -0.00049196182650321580000000000000000000000000000000 -0.00110161307359421920000000000000000000000000000000 0.00071772179405120030000000000000000000000000000000 -0.00076189449318009580000000000000000000000000000000 -0.00136883093757679150000000000000000000000000000000 0.00198511376950686100000000000000000000000000000000 0.00023442325247534292000000000000000000000000000000
-0.00241531654758776830000000000000000000000000000000 -0.00306735840799333970000000000000000000000000000000 -0.00086300074470488050000000000000000000000000000000 0.00196765982469604600000000000000000000000000000000 -0.00087658903444502730000000000000000000000000000000 -0.00028809036581373154000000000000000000000000000000 -0.00047676205237615174000000000000000000000000000000 -0.00173858202400948430000000000000000000000000000000 0.00025449836289527170000000000000000000000000000000 0.00059047770113514970000000000000000000000000000000
-0.00063039243946973460000000000000000000000000000000 0.00197009269438619600000000000000000000000000000000 -0.00282926576394946840000000000000000000000000000000 -0.02149571385587553700000000000000000000000000000000 -0.00961669332523921100000000000000000000000000000000 -0.04366735058097833500000000000000000000000000000000 0.00554753539074549250000000000000000000000000000000 -0.00089611497076277030000000000000000000000000000000 0.00123699462659075470000000000000000000000000000000 0.00003732121508590327000000000000000000000000000000
-0.02183911091234932600000000000000000000000000000000 0.02637783358916545200000000000000000000000000000000 -0.07314152945339789000000000000000000000000000000000 0.10940064900206614000000000000000000000000000000000 0.00566930375231510200000000000000000000000000000000 -0.14501147015402160000000000000000000000000000000000 -0.15533930841660212000000000000000000000000000000000 -0.00303642312897448640000000000000000000000000000000 -0.13258893082230702000000000000000000000000000000000 -0.01995331974584079600000000000000000000000000000000
-0.19562089881231048000000000000000000000000000000000 0.04799060178754104000000000000000000000000000000000 0.13239058874142276000000000000000000000000000000000 0.47712650640102110000000000000000000000000000000000 0.12632949912343272000000000000000000000000000000000 -0.68075013475952110000000000000000000000000000000000 -0.04374501293166097000000000000000000000000000000000 -0.21162714732203025000000000000000000000000000000000 -0.28487657046778700000000000000000000000000000000000 -0.04811757088201519500000000000000000000000000000000
-0.48041512297128390000000000000000000000000000000000 0.19938551391850500000000000000000000000000000000000 -0.16250973389194942000000000000000000000000000000000 0.80310044359756230000000000000000000000000000000000 0.14931304377182175000000000000000000000000000000000 -0.91838951125085920000000000000000000000000000000000 -0.39968962341359600000000000000000000000000000000000 0.04778050073056372000000000000000000000000000000000 -0.46491923507457820000000000000000000000000000000000 -0.32533683366453270000000000000000000000000000000000
-0.34710556644774854000000000000000000000000000000000 -0.10147620492199338000000000000000000000000000000000 0.05209011600940973000000000000000000000000000000000 0.17534275656700096000000000000000000000000000000000 -0.18937139307471956000000000000000000000000000000000 -0.52383414026047850000000000000000000000000000000000 -0.46429773228053334000000000000000000000000000000000 -0.19577246280119090000000000000000000000000000000000 -0.31562822046627920000000000000000000000000000000000 -0.72148913872367440000000000000000000000000000000000
-0.39737499110711700000000000000000000000000000000000 -0.19774353907455210000000000000000000000000000000000 -0.37145305829476800000000000000000000000000000000000 0.38167190641485627000000000000000000000000000000000 -0.34961494885142297000000000000000000000000000000000 -0.35432681826542320000000000000000000000000000000000 -0.22790768669035880000000000000000000000000000000000 -0.19909025832908242000000000000000000000000000000000 -0.80633248139894640000000000000000000000000000000000 -0.77696868706879300000000000000000000000000000000000
-0.34491072417733604000000000000000000000000000000000 -0.52970648885353520000000000000000000000000000000000 -0.20343003609909197000000000000000000000000000000000 0.15591842426460267000000000000000000000000000000000 -0.08542287385358381000000000000000000000000000000000 -0.09173441935728967000000000000000000000000000000000 -0.35447447850005187000000000000000000000000000000000 -0.07651517804612630000000000000000000000000000000000 -1.18137716025264240000000000000000000000000000000000 -0.61369263839231560000000000000000000000000000000000
-0.07421136744139060000000000000000000000000000000000 -0.61304489034171430000000000000000000000000000000000 -0.11188951527671039000000000000000000000000000000000 0.14270437693657528000000000000000000000000000000000 -0.20490839846763256000000000000000000000000000000000 -0.47940853713066595000000000000000000000000000000000 -0.37592366441468130000000000000000000000000000000000 -0.35121673044395480000000000000000000000000000000000 -0.74802205654976300000000000000000000000000000000000 -0.88655945026147230000000000000000000000000000000000
-0.26996328948941070000000000000000000000000000000000 -0.90238405959853500000000000000000000000000000000000 1.25517323977964250000000000000000000000000000000000 -0.29341827976066304000000000000000000000000000000000 -0.26018553303650294000000000000000000000000000000000 -0.22897564611302001000000000000000000000000000000000 -0.68739361668282710000000000000000000000000000000000 -0.30855044546752760000000000000000000000000000000000 -0.95300478356648750000000000000000000000000000000000 -0.61138027203990160000000000000000000000000000000000
-0.72957885648878550000000000000000000000000000000000 -0.54164907415219500000000000000000000000000000000000 0.41887593549937540000000000000000000000000000000000 0.37834849917056650000000000000000000000000000000000 -0.51176745729424180000000000000000000000000000000000 -0.53945571771391070000000000000000000000000000000000 -0.87971580950020580000000000000000000000000000000000 -0.54608041011392180000000000000000000000000000000000 -0.97862482444428210000000000000000000000000000000000 0.17489036825255055000000000000000000000000000000000
-0.09342431677003747000000000000000000000000000000000 -0.23304990155237357000000000000000000000000000000000 -0.34636036121129620000000000000000000000000000000000 -0.36900390157573665000000000000000000000000000000000 -0.46793994327039430000000000000000000000000000000000 -1.29737000806826930000000000000000000000000000000000 -0.83218356419904750000000000000000000000000000000000 -0.57697841319589640000000000000000000000000000000000 0.09273799817632095000000000000000000000000000000000 0.40769891785278100000000000000000000000000000000000
0.27150232320255624000000000000000000000000000000000 0.09102638626177523000000000000000000000000000000000 1.37278821942969200000000000000000000000000000000000 0.16592363084053288000000000000000000000000000000000 -0.87192856718359990000000000000000000000000000000000 -0.57521647546755540000000000000000000000000000000000 -1.05790577209415940000000000000000000000000000000000 -0.38663458751621870000000000000000000000000000000000 -1.79601468991887820000000000000000000000000000000000 0.60131464241186130000000000000000000000000000000000
0.45284301931033070000000000000000000000000000000000 0.11200724490591112000000000000000000000000000000000 0.15795972444445050000000000000000000000000000000000 0.36250471131902834000000000000000000000000000000000 -0.26044160364796487000000000000000000000000000000000 -0.13342757457748347000000000000000000000000000000000 -0.88603097967143670000000000000000000000000000000000 -0.40522728456437680000000000000000000000000000000000 -1.50080957526082500000000000000000000000000000000000 -0.59663100009744930000000000000000000000000000000000
1.04909785262888570000000000000000000000000000000000 0.39160178930860530000000000000000000000000000000000 0.13242764838684082000000000000000000000000000000000 -1.08288336526674800000000000000000000000000000000000 -0.01444097202666621200000000000000000000000000000000 -0.75293225873190030000000000000000000000000000000000 -1.14475227069043160000000000000000000000000000000000 -0.69458905875116210000000000000000000000000000000000 -1.53910129602840120000000000000000000000000000000000 -2.08523150873651670000000000000000000000000000000000
-0.25403662324126610000000000000000000000000000000000 0.14388616917049443000000000000000000000000000000000 0.92046831085525900000000000000000000000000000000000 -0.65658660986210070000000000000000000000000000000000 0.59910088543298920000000000000000000000000000000000 -0.56156146761558990000000000000000000000000000000000 -1.27667064299260510000000000000000000000000000000000 -0.71283268006570090000000000000000000000000000000000 -0.41089525562940830000000000000000000000000000000000 -1.97725764745390430000000000000000000000000000000000
-0.26209253930162124000000000000000000000000000000000 0.04091207819315141000000000000000000000000000000000 -0.12080134231693243000000000000000000000000000000000 -0.03711631944505782000000000000000000000000000000000 0.42140492516751630000000000000000000000000000000000 -0.72116313625389040000000000000000000000000000000000 -0.34584355131588910000000000000000000000000000000000 -1.24445671574302040000000000000000000000000000000000 0.33659696437992076000000000000000000000000000000000 -1.76557285454781200000000000000000000000000000000000
0.33420059453726486000000000000000000000000000000000 -0.26454720621596780000000000000000000000000000000000 -0.47373732361813814000000000000000000000000000000000 -1.16483930740834030000000000000000000000000000000000 0.18108961644968685000000000000000000000000000000000 0.36851594870264410000000000000000000000000000000000 -1.24440386617908500000000000000000000000000000000000 -1.33875108896686920000000000000000000000000000000000 0.34419038195810880000000000000000000000000000000000 -1.64983547968291380000000000000000000000000000000000
0.04767626480891171000000000000000000000000000000000 0.34534552473366970000000000000000000000000000000000 0.25616669896197990000000000000000000000000000000000 -0.27034734135529320000000000000000000000000000000000 0.12415735710669612000000000000000000000000000000000 -0.41284526855607045000000000000000000000000000000000 0.21104756280931306000000000000000000000000000000000 -1.25296365794560900000000000000000000000000000000000 -1.76733278455268760000000000000000000000000000000000 -1.70462373246489940000000000000000000000000000000000
-0.32834630833157640000000000000000000000000000000000 0.68134503265312550000000000000000000000000000000000 -0.16480903218469353000000000000000000000000000000000 -0.26648606445161765000000000000000000000000000000000 0.23660590752598268000000000000000000000000000000000 0.27064036549475250000000000000000000000000000000000 -0.15764013892890963000000000000000000000000000000000 -1.09251745958746270000000000000000000000000000000000 0.05337188955856527000000000000000000000000000000000 -0.86945606182724580000000000000000000000000000000000
-0.43966695649712440000000000000000000000000000000000 0.58565319342870130000000000000000000000000000000000 -0.59386652671276400000000000000000000000000000000000 -1.11490179743422320000000000000000000000000000000000 0.18470153939438014000000000000000000000000000000000 0.25365426655352685000000000000000000000000000000000 -0.50732588133501950000000000000000000000000000000000 -0.59143464521554550000000000000000000000000000000000 -1.04422392049471060000000000000000000000000000000000 -1.05672403967323500000000000000000000000000000000000
0.22200776693843852000000000000000000000000000000000 0.61594881094861850000000000000000000000000000000000 -0.06805754238512095000000000000000000000000000000000 -0.47254326434754323000000000000000000000000000000000 0.53029809886397900000000000000000000000000000000000 0.73528799137572530000000000000000000000000000000000 0.09046744607659618000000000000000000000000000000000 -0.58360569259422150000000000000000000000000000000000 0.20156213818951987000000000000000000000000000000000 -1.34431515582347360000000000000000000000000000000000
-0.18966961433526786000000000000000000000000000000000 0.17652763699583368000000000000000000000000000000000 -1.02901384382954530000000000000000000000000000000000 -0.83426061691200280000000000000000000000000000000000 0.34626914556467200000000000000000000000000000000000 0.54692906201362430000000000000000000000000000000000 -0.09454316121500810000000000000000000000000000000000 -0.43288650805593737000000000000000000000000000000000 -0.33890262622774650000000000000000000000000000000000 -0.75972218419271590000000000000000000000000000000000
-0.83325061107381960000000000000000000000000000000000 -0.12903040164224114000000000000000000000000000000000 -0.84603396795767630000000000000000000000000000000000 -0.22106462308522554000000000000000000000000000000000 -0.36672612362500584000000000000000000000000000000000 0.34386829144143444000000000000000000000000000000000 -0.25266856442622787000000000000000000000000000000000 -0.07519421995441339000000000000000000000000000000000 -0.20133926253829973000000000000000000000000000000000 -0.41819200431881340000000000000000000000000000000000
-0.59005601813087650000000000000000000000000000000000 -0.41620938024652354000000000000000000000000000000000 -0.31054235739021650000000000000000000000000000000000 -0.05506133915661995000000000000000000000000000000000 -0.46478970144868320000000000000000000000000000000000 0.07790451591586671000000000000000000000000000000000 -0.45593521982261387000000000000000000000000000000000 -0.01413141611018019900000000000000000000000000000000 0.08936778507718478000000000000000000000000000000000 -0.14231189855953896000000000000000000000000000000000
-0.18272646717321467000000000000000000000000000000000 -0.07020704553821329000000000000000000000000000000000 -0.02359256851529703000000000000000000000000000000000 -0.00375083440792806570000000000000000000000000000000 -0.35652575586660400000000000000000000000000000000000 0.27134425801016820000000000000000000000000000000000 -0.01890243427882017800000000000000000000000000000000 -0.00459865167069021400000000000000000000000000000000 -0.01777058187476025000000000000000000000000000000000 -0.02391545938784139000000000000000000000000000000000
-0.05590550526793553000000000000000000000000000000000 -0.00223059343902409650000000000000000000000000000000 -0.00937332046454141800000000000000000000000000000000 -0.00155552130288798400000000000000000000000000000000 -0.02246797299395588200000000000000000000000000000000 -0.00735964342642114100000000000000000000000000000000 0.06121317039244164600000000000000000000000000000000 -0.00122206310501110420000000000000000000000000000000 -0.00809377324234385900000000000000000000000000000000 0.00037884236762002855000000000000000000000000000000
-0.00001996677131469110400000000000000000000000000000 0.00051049547969759700000000000000000000000000000000 -0.00219573489922936800000000000000000000000000000000 0.00050180073126249400000000000000000000000000000000 -0.00034414100911474353000000000000000000000000000000 -0.00269377027215431700000000000000000000000000000000 -0.00082026781253127700000000000000000000000000000000 -0.00265021684502622040000000000000000000000000000000 0.00019070016311391250000000000000000000000000000000 -0.00027299619821369800000000000000000000000000000000
-0.00106197726932356340000000000000000000000000000000 -0.00106279913000364060000000000000000000000000000000 -0.00178522624814364450000000000000000000000000000000 -0.00018326214335997895000000000000000000000000000000 -0.00273048176230522840000000000000000000000000000000 -0.00314195570874489920000000000000000000000000000000 -0.00043002564225443750000000000000000000000000000000 -0.00055867946097485840000000000000000000000000000000 0.00119883587569166620000000000000000000000000000000 -0.00129670194913087970000000000000000000000000000000
-0.00220263871010440700000000000000000000000000000000 -0.02378295024636341600000000000000000000000000000000 -0.08060547410126813000000000000000000000000000000000 0.01056918124454705700000000000000000000000000000000 -0.05235904349672370000000000000000000000000000000000 -0.00366518110027363000000000000000000000000000000000 -0.00107549901402516070000000000000000000000000000000 0.23591035776528038000000000000000000000000000000000 -0.00903004378279669900000000000000000000000000000000 -0.00734687020836082900000000000000000000000000000000
-0.03383335036256565600000000000000000000000000000000 0.06972876146230766000000000000000000000000000000000 -0.25570272759406230000000000000000000000000000000000 0.19120782308538675000000000000000000000000000000000 -0.08656076247049216000000000000000000000000000000000 -0.29967864426593520000000000000000000000000000000000 -0.21039148009156436000000000000000000000000000000000 0.59385656551176550000000000000000000000000000000000 -0.44079147470275230000000000000000000000000000000000 -0.05106702898135343600000000000000000000000000000000
-0.45653962018319616000000000000000000000000000000000 -0.04291544863426037500000000000000000000000000000000 -0.06433941329176715000000000000000000000000000000000 0.59968645894644800000000000000000000000000000000000 0.21125722926981264000000000000000000000000000000000 -0.68863586992021020000000000000000000000000000000000 -0.28331863933318860000000000000000000000000000000000 0.08162934581798027000000000000000000000000000000000 -0.54187974763355250000000000000000000000000000000000 -0.36744572635962660000000000000000000000000000000000
-0.35459602224419806000000000000000000000000000000000 -0.26540741220934405000000000000000000000000000000000 -0.35359059502281840000000000000000000000000000000000 0.51093635209998830000000000000000000000000000000000 0.10936274419839268000000000000000000000000000000000 -0.44276272997002036000000000000000000000000000000000 -0.48467927988250440000000000000000000000000000000000 0.19350004604762452000000000000000000000000000000000 -0.20759182400848572000000000000000000000000000000000 -0.91013697659630510000000000000000000000000000000000
-0.47137641340139286000000000000000000000000000000000 -0.29190030766789093000000000000000000000000000000000 0.03361663611066039000000000000000000000000000000000 0.07289733612140321000000000000000000000000000000000 0.09919177256202898000000000000000000000000000000000 -0.30997084068285930000000000000000000000000000000000 -0.79795217188285950000000000000000000000000000000000 0.10280016350917535000000000000000000000000000000000 -0.48830280609903220000000000000000000000000000000000 -1.39274258828873880000000000000000000000000000000000
-0.25314494985189520000000000000000000000000000000000 -0.49894882419452790000000000000000000000000000000000 -0.31835735530004930000000000000000000000000000000000 -0.21912081036683512000000000000000000000000000000000 0.20251294975634418000000000000000000000000000000000 -0.53072864104589310000000000000000000000000000000000 -0.18854509861909433000000000000000000000000000000000 0.20027129850454456000000000000000000000000000000000 -0.63654032645111460000000000000000000000000000000000 -1.54705237209734370000000000000000000000000000000000
-0.45654631728875520000000000000000000000000000000000 -0.49977492545200710000000000000000000000000000000000 0.01301191290638449700000000000000000000000000000000 -0.13034991116222360000000000000000000000000000000000 0.16051199744760214000000000000000000000000000000000 -0.54487595149202530000000000000000000000000000000000 -0.26668345815165406000000000000000000000000000000000 0.66239058405051220000000000000000000000000000000000 -0.55776949833787850000000000000000000000000000000000 -0.78425296045380260000000000000000000000000000000000
-0.54183671710846700000000000000000000000000000000000 -0.54581707197293730000000000000000000000000000000000 -0.20867379632692593000000000000000000000000000000000 1.08936637910042730000000000000000000000000000000000 0.28918012639682095000000000000000000000000000000000 0.72816839790634440000000000000000000000000000000000 0.42857811458899770000000000000000000000000000000000 0.61359149303397710000000000000000000000000000000000 0.57499536560112790000000000000000000000000000000000 0.69972597423066470000000000000000000000000000000000
-0.37475971847106720000000000000000000000000000000000 -0.20810613423248597000000000000000000000000000000000 0.07587106878344761000000000000000000000000000000000 0.73708399032682210000000000000000000000000000000000 -0.53591378264213440000000000000000000000000000000000 0.09621716832157882000000000000000000000000000000000 -0.85253174420061180000000000000000000000000000000000 0.10190670137881908000000000000000000000000000000000 -1.15774499441657400000000000000000000000000000000000 -0.64316798754837510000000000000000000000000000000000
-0.24267022467430507000000000000000000000000000000000 -0.49371556098409747000000000000000000000000000000000 -0.49507784382008024000000000000000000000000000000000 0.57389568448803640000000000000000000000000000000000 -0.36112780063012506000000000000000000000000000000000 -0.57585475342496810000000000000000000000000000000000 -0.39191035423552220000000000000000000000000000000000 -0.40142881156650050000000000000000000000000000000000 -0.50354511188006190000000000000000000000000000000000 -0.55636032049776020000000000000000000000000000000000
0.47890961509393976000000000000000000000000000000000 -0.33646437631857220000000000000000000000000000000000 0.13080669725528307000000000000000000000000000000000 2.16893896922191630000000000000000000000000000000000 -0.41737558990935650000000000000000000000000000000000 0.33141016002320073000000000000000000000000000000000 0.28768202977686524000000000000000000000000000000000 0.39404237775309825000000000000000000000000000000000 1.07021291592137450000000000000000000000000000000000 1.23638748675757750000000000000000000000000000000000
0.41340711172484310000000000000000000000000000000000 -0.10355662599723041000000000000000000000000000000000 0.36446340799005994000000000000000000000000000000000 2.63892796981933260000000000000000000000000000000000 0.38075549441466650000000000000000000000000000000000 -0.15163291895040687000000000000000000000000000000000 -0.38607535231871400000000000000000000000000000000000 0.37640996011885910000000000000000000000000000000000 1.86424136655625700000000000000000000000000000000000 -0.16269481040796574000000000000000000000000000000000
0.07192677062678877000000000000000000000000000000000 -0.25936785719105754000000000000000000000000000000000 0.51360148356523250000000000000000000000000000000000 0.53698768403348460000000000000000000000000000000000 -0.11244777752229719000000000000000000000000000000000 0.12820374270680637000000000000000000000000000000000 -0.01176533974358702300000000000000000000000000000000 0.03440327080768984000000000000000000000000000000000 3.01017725690947650000000000000000000000000000000000 0.26040180445074584000000000000000000000000000000000
0.19246514497894035000000000000000000000000000000000 -0.72976707770753240000000000000000000000000000000000 0.45818985481023183000000000000000000000000000000000 1.48666134273267600000000000000000000000000000000000 -1.00407836078915440000000000000000000000000000000000 -0.48432379708674145000000000000000000000000000000000 -0.24460934948745950000000000000000000000000000000000 0.28151195013105720000000000000000000000000000000000 2.45477466415655470000000000000000000000000000000000 1.04595938368083700000000000000000000000000000000000
0.40903693396576885000000000000000000000000000000000 -0.30551614935249466000000000000000000000000000000000 0.21909785194997947000000000000000000000000000000000 1.19147575705000250000000000000000000000000000000000 -0.45179838357088470000000000000000000000000000000000 -0.92974843424182570000000000000000000000000000000000 0.33395705189156310000000000000000000000000000000000 0.46751112531587240000000000000000000000000000000000 2.68867681141876800000000000000000000000000000000000 0.29995051398188330000000000000000000000000000000000
0.84382585618788820000000000000000000000000000000000 -0.64344268328914920000000000000000000000000000000000 0.04906291265956138000000000000000000000000000000000 0.38627191726497384000000000000000000000000000000000 -0.07765724472129597000000000000000000000000000000000 0.86111149161519400000000000000000000000000000000000 -0.14729612617343277000000000000000000000000000000000 0.40860477758186853000000000000000000000000000000000 1.17437720548325130000000000000000000000000000000000 0.42462356514298440000000000000000000000000000000000
