-0.00053908714023357750000000000000000000000000000000 0.00073536552119559020000000000000000000000000000000 0.00288032222148959900000000000000000000000000000000 0.00010003233969344699000000000000000000000000000000 -0.00344474527011468140000000000000000000000000000000 0.00027538178961597620000000000000000000000000000000 -0.00036459255519966610000000000000000000000000000000 -0.00301645988731868030000000000000000000000000000000 -0.00019211725652085686000000000000000000000000000000 -0.00158225495881741300000000000000000000000000000000
-0.00014901200207708938000000000000000000000000000000 -0.00077554990136502770000000000000000000000000000000 0.00132259049216005600000000000000000000000000000000 -0.00224043357354754930000000000000000000000000000000 -0.00137653863559750920000000000000000000000000000000 -0.00110973163215051860000000000000000000000000000000 -0.00089084494335462320000000000000000000000000000000 -0.00199872054494676030000000000000000000000000000000 -0.00010850602063270070000000000000000000000000000000 -0.00183356461792347820000000000000000000000000000000
0.00166055833000931880000000000000000000000000000000 -0.00211062118394766500000000000000000000000000000000 -0.00088894913322987210000000000000000000000000000000 -0.00129242487101362850000000000000000000000000000000 -0.00038519050550413843000000000000000000000000000000 -0.00177148987123233000000000000000000000000000000000 -0.00001185452433580312700000000000000000000000000000 0.00012854325309685960000000000000000000000000000000 -0.00077958722426666690000000000000000000000000000000 -0.00117242000589390560000000000000000000000000000000
-0.00095170087405531780000000000000000000000000000000 -0.00207339778842855700000000000000000000000000000000 0.00117655228116844870000000000000000000000000000000 0.00006369374276041077000000000000000000000000000000 0.00018238676109049899000000000000000000000000000000 0.00033612485525977680000000000000000000000000000000 -0.00030961308008175663000000000000000000000000000000 -0.00129937357968286400000000000000000000000000000000 -0.00272332556124125700000000000000000000000000000000 -0.00131570740720154130000000000000000000000000000000
-0.00032844641675193290000000000000000000000000000000 0.00117406359759712320000000000000000000000000000000 0.00156705082206185820000000000000000000000000000000 0.00079293184342580740000000000000000000000000000000 -0.00070666020246773150000000000000000000000000000000 0.00033384133995962217000000000000000000000000000000 -0.00219742142662000600000000000000000000000000000000 -0.00086603636762506090000000000000000000000000000000 0.00170860171226859800000000000000000000000000000000 -0.00177099563345223000000000000000000000000000000000
-0.00084522434766277130000000000000000000000000000000 -0.00030673313696350744000000000000000000000000000000 -0.00045133744595837006000000000000000000000000000000 -0.00001514156491146166700000000000000000000000000000 -0.00168038682171615370000000000000000000000000000000 -0.00054901662114371880000000000000000000000000000000 -0.00088351537125036070000000000000000000000000000000 0.00035656331580145330000000000000000000000000000000 0.00038225930678620290000000000000000000000000000000 -0.00117863323343131800000000000000000000000000000000
-0.00253058167362080070000000000000000000000000000000 -0.00087105006093266790000000000000000000000000000000 0.00096192171906796010000000000000000000000000000000 0.00026957176338907713000000000000000000000000000000 -0.00139581817124057820000000000000000000000000000000 -0.00053748044301834510000000000000000000000000000000 -0.00112200587115023430000000000000000000000000000000 0.00144254464017328600000000000000000000000000000000 -0.00016190063299281916000000000000000000000000000000 0.00150085343743160730000000000000000000000000000000
0.00134798981567152250000000000000000000000000000000 -0.00108146057060632000000000000000000000000000000000 0.00040231254777429840000000000000000000000000000000 0.00014230269358945830000000000000000000000000000000 -0.00156771995067896000000000000000000000000000000000 -0.00115629815471067050000000000000000000000000000000 -0.00296449423346206900000000000000000000000000000000 -0.00021798628515173717000000000000000000000000000000 -0.00237943387473135700000000000000000000000000000000 0.00056405851853951380000000000000000000000000000000
-0.00082527502139852990000000000000000000000000000000 0.00195698014132357750000000000000000000000000000000 -0.00209624197800333930000000000000000000000000000000 0.00115304615507446850000000000000000000000000000000 -0.00228285876164363270000000000000000000000000000000 -0.00025839563099954480000000000000000000000000000000 -0.00001980743662700803600000000000000000000000000000 -0.00220079336405172400000000000000000000000000000000 -0.00094487105460608670000000000000000000000000000000 -0.00215368778557880430000000000000000000000000000000
-0.00014418517204672378000000000000000000000000000000 -0.00115792974104684440000000000000000000000000000000 -0.00077085151785856920000000000000000000000000000000 -0.00234742257163791070000000000000000000000000000000 -0.00195319933196947600000000000000000000000000000000 -0.00041759418933840010000000000000000000000000000000 0.00246420438333937800000000000000000000000000000000 0.00087363260114137300000000000000000000000000000000 0.00029802137954272740000000000000000000000000000000 -0.00078751801594534520000000000000000000000000000000
-0.00049093477993308500000000000000000000000000000000 -0.00161925372883750530000000000000000000000000000000 0.00025546952512516180000000000000000000000000000000 -0.00091064712682055880000000000000000000000000000000 -0.00171286645409208850000000000000000000000000000000 -0.00226447836240214900000000000000000000000000000000 -0.00032108368998006040000000000000000000000000000000 0.00010664317937438038000000000000000000000000000000 -0.00281201316277958360000000000000000000000000000000 -0.00226681521548549070000000000000000000000000000000
-0.00096930697955245460000000000000000000000000000000 -0.00020824916221041055000000000000000000000000000000 -0.00325446537740366060000000000000000000000000000000 0.00039496220912778074000000000000000000000000000000 -0.00168543643450753000000000000000000000000000000000 0.00037488328650566946000000000000000000000000000000 -0.00031545514351413257000000000000000000000000000000 -0.00012811238983489396000000000000000000000000000000 -0.00204606760205283200000000000000000000000000000000 0.00097032845156393950000000000000000000000000000000
0.00003909106014890811400000000000000000000000000000 -0.00063487979539163340000000000000000000000000000000 0.00020203918488420177000000000000000000000000000000 0.00011116497693832789000000000000000000000000000000 -0.02569376426988463000000000000000000000000000000000 0.00011015335142193055000000000000000000000000000000 0.04135272813009354500000000000000000000000000000000 -0.00178166370299468300000000000000000000000000000000 -0.00024700132760524560000000000000000000000000000000 -0.07820223993195143000000000000000000000000000000000
0.00212020694062414200000000000000000000000000000000 0.00040254221637316590000000000000000000000000000000 -0.00183056763631939730000000000000000000000000000000 -0.00225927303848315630000000000000000000000000000000 -0.05864949494978696000000000000000000000000000000000 0.00089290106091086830000000000000000000000000000000 0.09420437237044688000000000000000000000000000000000 0.00008744554955340281000000000000000000000000000000 -0.00168772085084642430000000000000000000000000000000 -0.17122425642261707000000000000000000000000000000000
0.00105045378827099000000000000000000000000000000000 -0.00132554507471937440000000000000000000000000000000 -0.00177217127456405260000000000000000000000000000000 -0.00015921025536145300000000000000000000000000000000 -0.00072697317842824730000000000000000000000000000000 -0.00106013683181721680000000000000000000000000000000 -0.00159518304224814680000000000000000000000000000000 0.00181117206327918180000000000000000000000000000000 -0.00266171034094725160000000000000000000000000000000 -0.00076680421458166570000000000000000000000000000000
-0.00221993563302980620000000000000000000000000000000 0.00034601215793549664000000000000000000000000000000 -0.00155292525515880350000000000000000000000000000000 -0.00010154796505847937000000000000000000000000000000 0.00095254958369310840000000000000000000000000000000 -0.00025064404540016557000000000000000000000000000000 -0.00190045357409834950000000000000000000000000000000 -0.00132290876012148530000000000000000000000000000000 -0.00112149859179028720000000000000000000000000000000 -0.00088434380732255070000000000000000000000000000000
0.00084177191054738090000000000000000000000000000000 -0.00229950589698641250000000000000000000000000000000 -0.00152211187063942040000000000000000000000000000000 -0.00149412434827328300000000000000000000000000000000 -0.00191009494995351400000000000000000000000000000000 0.00004017977165143383000000000000000000000000000000 -0.00126474015003509860000000000000000000000000000000 -0.00066627842582635080000000000000000000000000000000 -0.00240048779390833940000000000000000000000000000000 0.00043752432788803184000000000000000000000000000000
0.00162100499328640940000000000000000000000000000000 0.00068255722708363530000000000000000000000000000000 -0.00245055812414263440000000000000000000000000000000 -0.00105846865186820840000000000000000000000000000000 0.00054177718417912480000000000000000000000000000000 -0.00056721905523780330000000000000000000000000000000 0.00005295624003971635000000000000000000000000000000 0.00003809781362219930000000000000000000000000000000 -0.00128689795910892240000000000000000000000000000000 -0.00172422936503805040000000000000000000000000000000
0.00165242978284351830000000000000000000000000000000 -0.00093739551934514940000000000000000000000000000000 -0.00010386599210345578000000000000000000000000000000 -0.00325069305600492700000000000000000000000000000000 -0.00235495869933682960000000000000000000000000000000 -0.00007380195705721047000000000000000000000000000000 0.00005132192553882928500000000000000000000000000000 -0.00210285459261121520000000000000000000000000000000 0.00065587087461631090000000000000000000000000000000 -0.00119116966491517900000000000000000000000000000000
-0.00060110822639652580000000000000000000000000000000 -0.00227295209740345160000000000000000000000000000000 -0.00176531369034690400000000000000000000000000000000 0.00120321239935298730000000000000000000000000000000 -0.00122254270967310680000000000000000000000000000000 0.00063993892698320260000000000000000000000000000000 -0.00069012229402166740000000000000000000000000000000 0.00210703322847583500000000000000000000000000000000 -0.00005244407724699343000000000000000000000000000000 0.00046611647397596094000000000000000000000000000000
-0.00077823955624714640000000000000000000000000000000 -0.00155251342519057930000000000000000000000000000000 -0.00261326680527370570000000000000000000000000000000 -0.00059560894584991120000000000000000000000000000000 -0.00134738010019413430000000000000000000000000000000 -0.00285541378264159100000000000000000000000000000000 -0.00120562206990469790000000000000000000000000000000 -0.00145538274141157500000000000000000000000000000000 -0.00177942729526102190000000000000000000000000000000 -0.00041915056063096144000000000000000000000000000000
-0.00066588203302007180000000000000000000000000000000 -0.00084990675791357250000000000000000000000000000000 -0.00016772428602507580000000000000000000000000000000 -0.00055102899358850720000000000000000000000000000000 -0.00261453708617917500000000000000000000000000000000 0.00081713230444788120000000000000000000000000000000 0.00071550957232241380000000000000000000000000000000 -0.00059968672276769010000000000000000000000000000000 0.00020127730031266073000000000000000000000000000000 0.00085977782850379140000000000000000000000000000000
-0.00122529268987857900000000000000000000000000000000 0.00082142982564430290000000000000000000000000000000 -0.00065248956055552500000000000000000000000000000000 0.00015423602659719383000000000000000000000000000000 -0.00198977954766556500000000000000000000000000000000 0.00063857472542734770000000000000000000000000000000 0.00042001380253108977000000000000000000000000000000 -0.00029616096858082336000000000000000000000000000000 -0.00004983401318854532000000000000000000000000000000 -0.00109350234524823440000000000000000000000000000000
0.00157274183978974980000000000000000000000000000000 -0.00110419976275290220000000000000000000000000000000 -0.00043945501579886303000000000000000000000000000000 -0.00323181988645850640000000000000000000000000000000 -0.00056526887770045760000000000000000000000000000000 -0.00210934366082782740000000000000000000000000000000 -0.00047499615330387490000000000000000000000000000000 -0.00178714562500291570000000000000000000000000000000 -0.00273021206551039600000000000000000000000000000000 -0.00050863375445581980000000000000000000000000000000
0.00144712114961262260000000000000000000000000000000 -0.00185504866563627330000000000000000000000000000000 -0.00066363488000951830000000000000000000000000000000 0.00048081854328465656000000000000000000000000000000 0.00084671852095971750000000000000000000000000000000 -0.00144664919437907980000000000000000000000000000000 -0.00057822517630650170000000000000000000000000000000 -0.00183357169197953310000000000000000000000000000000 -0.00095174234206644530000000000000000000000000000000 0.00199532311670439940000000000000000000000000000000
-0.00160710874268599830000000000000000000000000000000 -0.00119680630764005770000000000000000000000000000000 -0.00001834001663254337000000000000000000000000000000 0.00002773808861907824600000000000000000000000000000 -0.00053643523732434300000000000000000000000000000000 0.00021089576363438295000000000000000000000000000000 -0.00007251179482389229000000000000000000000000000000 -0.00020865367022587263000000000000000000000000000000 -0.00155281993025479680000000000000000000000000000000 0.00110279551596677810000000000000000000000000000000
-0.00035402678193460817000000000000000000000000000000 0.00051516616569179230000000000000000000000000000000 -0.00050477164502766730000000000000000000000000000000 -0.00196627869617331360000000000000000000000000000000 -0.00077718406626101910000000000000000000000000000000 0.00152178397457362590000000000000000000000000000000 -0.00000911536074223249600000000000000000000000000000 -0.00093300594151225270000000000000000000000000000000 0.00083717703159814430000000000000000000000000000000 -0.00007741185744555054000000000000000000000000000000
-0.00141418600305061270000000000000000000000000000000 -0.00128091688040931750000000000000000000000000000000 -0.00138105914369213870000000000000000000000000000000 0.00100853256321358500000000000000000000000000000000 0.00071639078388652880000000000000000000000000000000 -0.00115052699004758820000000000000000000000000000000 0.00097325092834722050000000000000000000000000000000 -0.00283075214126369150000000000000000000000000000000 0.00018462388950411855000000000000000000000000000000 -0.00014413277581201743000000000000000000000000000000
0.00067050179988934430000000000000000000000000000000 -0.00070031279536185450000000000000000000000000000000 -0.00054284212464262010000000000000000000000000000000 -0.00117287132179819120000000000000000000000000000000 -0.00188768458171589910000000000000000000000000000000 0.00034389042622779895000000000000000000000000000000 -0.00112717081950107530000000000000000000000000000000 -0.00175494168999718080000000000000000000000000000000 0.00111203293730277680000000000000000000000000000000 -0.00017948927531573632000000000000000000000000000000
-0.00019161399506457315000000000000000000000000000000 -0.00040313025429146270000000000000000000000000000000 -0.00163080849960374170000000000000000000000000000000 0.00021036530044881026000000000000000000000000000000 0.00050879546960376680000000000000000000000000000000 0.00113427461765675060000000000000000000000000000000 -0.00123484130131826160000000000000000000000000000000 -0.00021136660611560453000000000000000000000000000000 -0.00181337830933591720000000000000000000000000000000 -0.00044566510225124516000000000000000000000000000000
0.00057526387282443340000000000000000000000000000000 -0.00045004665774479230000000000000000000000000000000 -0.00035385103451314784000000000000000000000000000000 -0.00019285090584968633000000000000000000000000000000 0.00019620935019647092000000000000000000000000000000 0.00101262784704755740000000000000000000000000000000 0.00095982663145749770000000000000000000000000000000 -0.00139205649578543050000000000000000000000000000000 0.00114000529725175300000000000000000000000000000000 -0.00086262546350774130000000000000000000000000000000
-0.00027809959409912080000000000000000000000000000000 -0.00138003335475399150000000000000000000000000000000 0.00037585927594744740000000000000000000000000000000 -0.00353445678513534870000000000000000000000000000000 0.00118961824994540200000000000000000000000000000000 -0.00096224740049846200000000000000000000000000000000 -0.00128523544536675870000000000000000000000000000000 -0.00193547762322114400000000000000000000000000000000 -0.00057936385510577510000000000000000000000000000000 -0.00006470850809419196000000000000000000000000000000
0.00036993177546830360000000000000000000000000000000 -0.00036716253330864153000000000000000000000000000000 -0.00120152362586104630000000000000000000000000000000 -0.00015984105736041368000000000000000000000000000000 0.00175432165608561700000000000000000000000000000000 -0.00032764069211650110000000000000000000000000000000 -0.00060414661711916420000000000000000000000000000000 0.00005151394252396918400000000000000000000000000000 -0.00231250464429921720000000000000000000000000000000 0.00142951601029262810000000000000000000000000000000
-0.00054614095151263940000000000000000000000000000000 -0.00061861089196566350000000000000000000000000000000 -0.00067782610139130530000000000000000000000000000000 -0.00299840901448648630000000000000000000000000000000 -0.00780323296746104100000000000000000000000000000000 0.00092574002657930320000000000000000000000000000000 0.00167607243162802910000000000000000000000000000000 -0.00057889679778985750000000000000000000000000000000 -0.00007236571905965014000000000000000000000000000000 -0.00370968630286695600000000000000000000000000000000
-0.00095263564805209850000000000000000000000000000000 -0.00312692570814922940000000000000000000000000000000 -0.00150167682134855300000000000000000000000000000000 0.00035782031341395306000000000000000000000000000000 -0.18873373129804674000000000000000000000000000000000 0.00147894869736216000000000000000000000000000000000 0.00595076820548091800000000000000000000000000000000 -0.00131736615306231500000000000000000000000000000000 -0.00108984556596898420000000000000000000000000000000 -0.00214796309888432530000000000000000000000000000000
0.00052111020284800750000000000000000000000000000000 0.00026885162406502040000000000000000000000000000000 -0.00526918307001198950000000000000000000000000000000 0.00043478867825559520000000000000000000000000000000 -0.29237846119442390000000000000000000000000000000000 -0.00083405705979165250000000000000000000000000000000 0.01516973505358170700000000000000000000000000000000 -0.00078811413881308400000000000000000000000000000000 -0.00100796131348412310000000000000000000000000000000 -0.00152672839455803080000000000000000000000000000000
-0.00146222147953234080000000000000000000000000000000 -0.02784973610865234400000000000000000000000000000000 -0.00678151675099898500000000000000000000000000000000 -0.00069849305687017430000000000000000000000000000000 -0.14786371957050120000000000000000000000000000000000 0.00084136319166490590000000000000000000000000000000 0.21176408577289854000000000000000000000000000000000 -0.00663108833627870800000000000000000000000000000000 -0.00161000874663312270000000000000000000000000000000 -0.00127862682404970700000000000000000000000000000000
-0.01843749632972407000000000000000000000000000000000 -0.01925274724678663700000000000000000000000000000000 -0.11784069926219508000000000000000000000000000000000 -0.00094409161464633910000000000000000000000000000000 -0.10036574722610013000000000000000000000000000000000 0.00134574438198585700000000000000000000000000000000 0.25263839696595590000000000000000000000000000000000 -0.04249821449638702000000000000000000000000000000000 -0.04019489285543209600000000000000000000000000000000 -0.00133338918873038280000000000000000000000000000000
-0.10123910377751318000000000000000000000000000000000 -0.00905691755383045700000000000000000000000000000000 -0.32873764617208520000000000000000000000000000000000 -0.00002253695478399300300000000000000000000000000000 -0.32361174701237133000000000000000000000000000000000 -0.00445252365928975300000000000000000000000000000000 0.11501560224688304000000000000000000000000000000000 -0.01160615992792803400000000000000000000000000000000 -0.08225285980564576000000000000000000000000000000000 -0.00059042631553302420000000000000000000000000000000
-0.07817869853284082000000000000000000000000000000000 0.00113098225072428830000000000000000000000000000000 -0.37450255045402614000000000000000000000000000000000 0.00017760892754767150000000000000000000000000000000 -0.40724321514889980000000000000000000000000000000000 -0.00609533305025631500000000000000000000000000000000 0.02113172549019639400000000000000000000000000000000 -0.00607446247000446200000000000000000000000000000000 -0.01553858230576090300000000000000000000000000000000 -0.03271277490486299000000000000000000000000000000000
-0.00196608434407403740000000000000000000000000000000 -0.00299958497104882500000000000000000000000000000000 -0.31730300432574504000000000000000000000000000000000 -0.00702539868056190100000000000000000000000000000000 -0.51795748163780930000000000000000000000000000000000 -0.00671982594600981600000000000000000000000000000000 0.13196834564578344000000000000000000000000000000000 -0.05464880287327427000000000000000000000000000000000 -0.00107936880555408070000000000000000000000000000000 -0.17211963072278720000000000000000000000000000000000
0.02093342063234842500000000000000000000000000000000 -0.00089918130741637670000000000000000000000000000000 -0.44110007030827560000000000000000000000000000000000 -0.00200875923884859170000000000000000000000000000000 -0.36641890578454805000000000000000000000000000000000 -0.01491610423798310700000000000000000000000000000000 0.29635382436312920000000000000000000000000000000000 -0.01124142941207580000000000000000000000000000000000 -0.01065282541093230700000000000000000000000000000000 -0.19357888677817140000000000000000000000000000000000
-0.02242734012670558700000000000000000000000000000000 0.09330096533772460000000000000000000000000000000000 -0.58102672315205010000000000000000000000000000000000 -0.00270006211125280730000000000000000000000000000000 -0.17491878717454900000000000000000000000000000000000 -0.03644976583198529500000000000000000000000000000000 0.20101523814273758000000000000000000000000000000000 -0.01416063228696952900000000000000000000000000000000 -0.04053897471851060000000000000000000000000000000000 -0.02089611924984264400000000000000000000000000000000
-0.01825375273022162000000000000000000000000000000000 0.11542887122204042000000000000000000000000000000000 -0.40717089013104720000000000000000000000000000000000 -0.00722443675884404800000000000000000000000000000000 -0.39431858290427090000000000000000000000000000000000 -0.04863501095758115000000000000000000000000000000000 -0.01940983204637166500000000000000000000000000000000 -0.00963965719426605700000000000000000000000000000000 -0.06499651975018036000000000000000000000000000000000 -0.05267046950958527000000000000000000000000000000000
-0.01587728733971828500000000000000000000000000000000 -0.09934430822951600000000000000000000000000000000000 -0.16802166552894535000000000000000000000000000000000 -0.00593265301204751600000000000000000000000000000000 -0.28578850221994584000000000000000000000000000000000 -0.04182580387173473500000000000000000000000000000000 0.07226616672393277000000000000000000000000000000000 -0.01717533636484819000000000000000000000000000000000 -0.07416311906243872000000000000000000000000000000000 -0.12860513489673145000000000000000000000000000000000
0.04714742817061922000000000000000000000000000000000 -0.01991418470189473500000000000000000000000000000000 -0.31756050694306265000000000000000000000000000000000 -0.00258628920113402640000000000000000000000000000000 -0.12323628444246754000000000000000000000000000000000 -0.00896166824895352300000000000000000000000000000000 0.35568774892521876000000000000000000000000000000000 -0.00763745695815936500000000000000000000000000000000 -0.10828488569239567000000000000000000000000000000000 -0.14194770856192848000000000000000000000000000000000
-0.00313729373677420300000000000000000000000000000000 -0.00271108474982818770000000000000000000000000000000 -0.23966845565529785000000000000000000000000000000000 -0.00111716941878280580000000000000000000000000000000 -0.14088759072897197000000000000000000000000000000000 -0.00866870529909497700000000000000000000000000000000 0.22352427696476346000000000000000000000000000000000 -0.00014176660200255296000000000000000000000000000000 -0.11895070310570893000000000000000000000000000000000 -0.04582640194917022400000000000000000000000000000000
-0.00207215556922507070000000000000000000000000000000 -0.00069310758391461890000000000000000000000000000000 -0.11769201421717523000000000000000000000000000000000 -0.00115928757425259250000000000000000000000000000000 -0.28393371468528755000000000000000000000000000000000 -0.01002587567264810000000000000000000000000000000000 0.10063082267089252000000000000000000000000000000000 -0.00275379600755739330000000000000000000000000000000 -0.11054354133825313000000000000000000000000000000000 -0.01633483259201974300000000000000000000000000000000
-0.00325844560936452370000000000000000000000000000000 -0.00051509076388329420000000000000000000000000000000 -0.17030695790901050000000000000000000000000000000000 -0.00030967344949061970000000000000000000000000000000 -0.15616800729937114000000000000000000000000000000000 -0.00738920621803923100000000000000000000000000000000 0.05122606126529035500000000000000000000000000000000 0.00087154280762398420000000000000000000000000000000 -0.03331723476694298000000000000000000000000000000000 -0.00672240217737300400000000000000000000000000000000
-0.00338786389236449230000000000000000000000000000000 -0.00009521811841636002000000000000000000000000000000 -0.06198148152041048400000000000000000000000000000000 -0.00119546937488324840000000000000000000000000000000 -0.11990505806680339000000000000000000000000000000000 -0.00213198009358373960000000000000000000000000000000 0.14038039520120893000000000000000000000000000000000 -0.00208653013093613400000000000000000000000000000000 -0.00026817338196772540000000000000000000000000000000 -0.01003667733443520400000000000000000000000000000000
-0.00085397057186583320000000000000000000000000000000 -0.00216618865329595200000000000000000000000000000000 -0.00311567172046299800000000000000000000000000000000 -0.00152184896209568930000000000000000000000000000000 -0.21959749339135892000000000000000000000000000000000 -0.00099826879720758200000000000000000000000000000000 0.01932388370241105600000000000000000000000000000000 0.00093345665001393060000000000000000000000000000000 -0.00064713449140971180000000000000000000000000000000 -0.00922711181455517000000000000000000000000000000000
-0.00060349868659732720000000000000000000000000000000 0.00045537301943101380000000000000000000000000000000 -0.00080035277079421760000000000000000000000000000000 -0.00261733243646523900000000000000000000000000000000 -0.13958738606168575000000000000000000000000000000000 0.00079016973918592560000000000000000000000000000000 0.00290585849912881980000000000000000000000000000000 0.00024903381132276083000000000000000000000000000000 -0.00335549150405943430000000000000000000000000000000 -0.00183389226856811630000000000000000000000000000000
0.00113356350138774570000000000000000000000000000000 -0.00064196649585054250000000000000000000000000000000 -0.00095974584944534240000000000000000000000000000000 0.00170032456472590400000000000000000000000000000000 -0.00008862427040326254000000000000000000000000000000 0.00040780208293110920000000000000000000000000000000 0.00054821162303330020000000000000000000000000000000 -0.00012118631547004539000000000000000000000000000000 -0.00008638187434835865000000000000000000000000000000 -0.00052774142219630100000000000000000000000000000000
-0.00227580970627826500000000000000000000000000000000 -0.00045308657944092163000000000000000000000000000000 0.00030579396799920690000000000000000000000000000000 -0.00012496100094016986000000000000000000000000000000 -0.00105469675930299950000000000000000000000000000000 -0.00082943606407571120000000000000000000000000000000 -0.00045861482275614390000000000000000000000000000000 0.00177922726608828600000000000000000000000000000000 -0.00100167289679511200000000000000000000000000000000 -0.00139923299633301600000000000000000000000000000000
-0.00268205037671170100000000000000000000000000000000 -0.00104475220420384580000000000000000000000000000000 0.00017679363222978996000000000000000000000000000000 -0.00119861820247341500000000000000000000000000000000 -0.00158316338956521100000000000000000000000000000000 -0.00204519033432758350000000000000000000000000000000 0.00023726874701886410000000000000000000000000000000 0.00011769501864392171000000000000000000000000000000 -0.00078189444331243590000000000000000000000000000000 0.00132175797843611880000000000000000000000000000000
-0.00224728884303027800000000000000000000000000000000 -0.00017875396850961444000000000000000000000000000000 -0.00006078700902543738000000000000000000000000000000 -0.00010799282601195415000000000000000000000000000000 -0.00058256964980824570000000000000000000000000000000 0.00020594891817811400000000000000000000000000000000 -0.00036950536571727910000000000000000000000000000000 -0.00173320869460892290000000000000000000000000000000 -0.00162085816886067520000000000000000000000000000000 0.00001410520648813175700000000000000000000000000000
-0.00129958787107992440000000000000000000000000000000 0.00142394987359445920000000000000000000000000000000 -0.00176702893471860620000000000000000000000000000000 0.00008213485586161529000000000000000000000000000000 -0.00089245224142536560000000000000000000000000000000 0.00038401275898867625000000000000000000000000000000 -0.00194765627425321200000000000000000000000000000000 -0.00128799745345311370000000000000000000000000000000 0.00010782688487070903000000000000000000000000000000 -0.00060427992027900440000000000000000000000000000000
0.00079367641743088890000000000000000000000000000000 -0.00158728529505018930000000000000000000000000000000 0.00240351800806099920000000000000000000000000000000 0.00091640562451067500000000000000000000000000000000 -0.00122057427915838660000000000000000000000000000000 0.00019665837304032525000000000000000000000000000000 -0.00200770764405623300000000000000000000000000000000 -0.00256071241264144300000000000000000000000000000000 -0.00244393546346619800000000000000000000000000000000 -0.00160439833062034480000000000000000000000000000000
-0.00306893653180271100000000000000000000000000000000 0.00134481485107853270000000000000000000000000000000 0.00009293141244984657000000000000000000000000000000 -0.00127065562177079660000000000000000000000000000000 -0.00217383378022445060000000000000000000000000000000 -0.00187309341618900440000000000000000000000000000000 -0.00123130038942921330000000000000000000000000000000 -0.00123888075107090600000000000000000000000000000000 -0.00167666657722425630000000000000000000000000000000 -0.00055133741701010300000000000000000000000000000000
-0.01026317281069301700000000000000000000000000000000 -0.00008333307686224519000000000000000000000000000000 0.00080163725060798990000000000000000000000000000000 0.00042514807267373490000000000000000000000000000000 -0.00715537913634932800000000000000000000000000000000 -0.00263813125111010340000000000000000000000000000000 0.00009419843032868054000000000000000000000000000000 -0.00058729723857849020000000000000000000000000000000 -0.00019917413561033764000000000000000000000000000000 -0.00104256846425537960000000000000000000000000000000
0.00073170790301942640000000000000000000000000000000 0.00071079997482469400000000000000000000000000000000 -0.00033911417437227540000000000000000000000000000000 -0.00164412452790279490000000000000000000000000000000 -0.07288356828659175000000000000000000000000000000000 0.00021317065720079030000000000000000000000000000000 -0.00032630044029169700000000000000000000000000000000 0.00048604303921389886000000000000000000000000000000 0.00030372059364901764000000000000000000000000000000 -0.00053863738056947460000000000000000000000000000000
-0.00750565484925907300000000000000000000000000000000 0.00176164617136540990000000000000000000000000000000 -0.00393038795012378100000000000000000000000000000000 0.00232756578514860560000000000000000000000000000000 -0.01758548377530550000000000000000000000000000000000 -0.00294285032322267030000000000000000000000000000000 0.00293063455846339400000000000000000000000000000000 -0.00051054518433625030000000000000000000000000000000 -0.00268848503204037100000000000000000000000000000000 -0.00032926287472259794000000000000000000000000000000
-0.06263678713140800000000000000000000000000000000000 -0.00020332707854955347000000000000000000000000000000 -0.00693346867007048300000000000000000000000000000000 -0.00163742577196228200000000000000000000000000000000 -0.19591649296695932000000000000000000000000000000000 0.00003509224652760643000000000000000000000000000000 0.10151279613704732000000000000000000000000000000000 -0.00303317460219843520000000000000000000000000000000 -0.06868569973353358000000000000000000000000000000000 -0.00260125677297090570000000000000000000000000000000
-0.12175142110877686000000000000000000000000000000000 -0.01000437178580935300000000000000000000000000000000 -0.02355054439814070400000000000000000000000000000000 -0.00642920239770580500000000000000000000000000000000 -0.55627721452639940000000000000000000000000000000000 -0.01600969185228545400000000000000000000000000000000 0.14220463372823267000000000000000000000000000000000 0.00032295521017967530000000000000000000000000000000 -0.12434946539233925000000000000000000000000000000000 -0.00171943530429035380000000000000000000000000000000
-0.15503339524093362000000000000000000000000000000000 -0.09812024228304240000000000000000000000000000000000 -0.09805156894272624000000000000000000000000000000000 -0.02377530701009364700000000000000000000000000000000 -0.55168725532494870000000000000000000000000000000000 -0.06632605658847720000000000000000000000000000000000 0.32359189434730407000000000000000000000000000000000 -0.01839451612420942400000000000000000000000000000000 -0.09498962070458565000000000000000000000000000000000 -0.00032864910001122053000000000000000000000000000000
-0.44559249228943887000000000000000000000000000000000 -0.15298168147046850000000000000000000000000000000000 -0.24793823579575320000000000000000000000000000000000 -0.10560260941648966000000000000000000000000000000000 -0.55083704430507530000000000000000000000000000000000 -0.05608158456172545500000000000000000000000000000000 0.25818447348155393000000000000000000000000000000000 -0.06760329157194246000000000000000000000000000000000 -0.06827323633978484000000000000000000000000000000000 -0.00234770430628170600000000000000000000000000000000
-0.48046980091978425000000000000000000000000000000000 -0.08476703967860147000000000000000000000000000000000 -0.94262163020633670000000000000000000000000000000000 -0.12085953215665696000000000000000000000000000000000 -1.06747038566886230000000000000000000000000000000000 -0.14262666641029430000000000000000000000000000000000 0.42299859275940390000000000000000000000000000000000 -0.05220404573221177000000000000000000000000000000000 -0.08778585480708063000000000000000000000000000000000 -0.04330346990637040000000000000000000000000000000000
-0.29953021219530670000000000000000000000000000000000 -0.11930663055151218000000000000000000000000000000000 -1.02224390827040450000000000000000000000000000000000 0.00292818712904903060000000000000000000000000000000 -1.14044621889231030000000000000000000000000000000000 -0.30524754515264374000000000000000000000000000000000 0.08838596036262250000000000000000000000000000000000 -0.03191623565799141000000000000000000000000000000000 -0.11022080327516134000000000000000000000000000000000 -0.18071716395005996000000000000000000000000000000000
-0.40628698821784730000000000000000000000000000000000 -0.08135124786883982000000000000000000000000000000000 -0.91585176388099830000000000000000000000000000000000 -0.06704128398968706000000000000000000000000000000000 -1.00562771367345620000000000000000000000000000000000 -0.30349376265361290000000000000000000000000000000000 0.20938817615933450000000000000000000000000000000000 -0.03798942480675166600000000000000000000000000000000 -0.18253155168868512000000000000000000000000000000000 -0.33128317506090005000000000000000000000000000000000
-0.34078486846639590000000000000000000000000000000000 -0.09650664055154498000000000000000000000000000000000 -0.90734028934623460000000000000000000000000000000000 -0.18408352204877354000000000000000000000000000000000 -1.06879563621221240000000000000000000000000000000000 -0.31218275372356435000000000000000000000000000000000 0.02339445202863822300000000000000000000000000000000 -0.03008799229273519800000000000000000000000000000000 -0.28185708809725190000000000000000000000000000000000 -0.27327263214133113000000000000000000000000000000000
-0.28178057203558260000000000000000000000000000000000 0.00407141423520134100000000000000000000000000000000 -1.18657145411475740000000000000000000000000000000000 -0.11206336417710781000000000000000000000000000000000 -0.92010493394731120000000000000000000000000000000000 -0.36976272851603426000000000000000000000000000000000 0.05642758163635558400000000000000000000000000000000 -0.02394017345015776000000000000000000000000000000000 -0.53300021643170840000000000000000000000000000000000 -0.22765348566168853000000000000000000000000000000000
-0.54017035955841080000000000000000000000000000000000 0.18321712752347308000000000000000000000000000000000 -0.95070322227998460000000000000000000000000000000000 -0.19717340046096724000000000000000000000000000000000 -0.68880115756423750000000000000000000000000000000000 -0.41948506480756580000000000000000000000000000000000 0.13667925076743556000000000000000000000000000000000 -0.03638794378543848400000000000000000000000000000000 -0.61662856091719300000000000000000000000000000000000 -0.23815839769101050000000000000000000000000000000000
-0.51409034254436040000000000000000000000000000000000 0.27085064342016690000000000000000000000000000000000 -0.59545989532135110000000000000000000000000000000000 -0.28260777391998350000000000000000000000000000000000 -0.68571813786230860000000000000000000000000000000000 -0.36817342177091110000000000000000000000000000000000 0.13692843000438257000000000000000000000000000000000 -0.04746062286526553000000000000000000000000000000000 -0.59266569125406650000000000000000000000000000000000 -0.38767781643903654000000000000000000000000000000000
-0.60408760367844500000000000000000000000000000000000 -0.11162498034198905000000000000000000000000000000000 -0.72508481064370820000000000000000000000000000000000 -0.19948406655876177000000000000000000000000000000000 -0.72706228835801690000000000000000000000000000000000 -0.34750366148400450000000000000000000000000000000000 0.39725295564448400000000000000000000000000000000000 -0.07260882216500002000000000000000000000000000000000 -0.62689944950038360000000000000000000000000000000000 -0.34425073734582545000000000000000000000000000000000
-0.64014704560534120000000000000000000000000000000000 -0.00960062550556408300000000000000000000000000000000 -0.91407910579310940000000000000000000000000000000000 -0.28840129483464660000000000000000000000000000000000 -0.62091443213680850000000000000000000000000000000000 -0.25660527083286750000000000000000000000000000000000 0.42696559438692470000000000000000000000000000000000 -0.05191247143847445000000000000000000000000000000000 -0.73974675820989320000000000000000000000000000000000 -0.19112141167147936000000000000000000000000000000000
-0.51410670014807490000000000000000000000000000000000 -0.00889010747691311100000000000000000000000000000000 -0.73451049407922280000000000000000000000000000000000 -0.23637584401208610000000000000000000000000000000000 -0.56563196208720720000000000000000000000000000000000 -0.18565341322469484000000000000000000000000000000000 0.17740047673386164000000000000000000000000000000000 -0.04548038934180452000000000000000000000000000000000 -0.51305966828847220000000000000000000000000000000000 -0.17877306469993384000000000000000000000000000000000
-0.58931946381003760000000000000000000000000000000000 -0.08194555199560086000000000000000000000000000000000 -0.53358621083277090000000000000000000000000000000000 -0.12254379602957510000000000000000000000000000000000 -0.44416618787473233000000000000000000000000000000000 -0.13884921586333696000000000000000000000000000000000 0.33835790494336293000000000000000000000000000000000 -0.00834205848757990600000000000000000000000000000000 -0.19840119206418447000000000000000000000000000000000 -0.05233230141669838000000000000000000000000000000000
-0.41890561172108870000000000000000000000000000000000 -0.05630650553090096000000000000000000000000000000000 -0.40494212111989070000000000000000000000000000000000 -0.07746439057912333000000000000000000000000000000000 -0.32216725954568237000000000000000000000000000000000 -0.14874354752613364000000000000000000000000000000000 0.86983540151698580000000000000000000000000000000000 -0.00044311343931851817000000000000000000000000000000 -0.12458141988427794000000000000000000000000000000000 -0.02657522608214289000000000000000000000000000000000
-0.21744649697428473000000000000000000000000000000000 -0.01397470984662369100000000000000000000000000000000 -0.34037784041693490000000000000000000000000000000000 -0.03647645105092283500000000000000000000000000000000 -0.44340745403781817000000000000000000000000000000000 -0.07743238371571946000000000000000000000000000000000 0.68074292363468560000000000000000000000000000000000 0.00030716586343784843000000000000000000000000000000 -0.10476561732374419000000000000000000000000000000000 -0.03392090132513528000000000000000000000000000000000
-0.06616497597536390000000000000000000000000000000000 -0.03458276893091774000000000000000000000000000000000 -0.06166528641741870000000000000000000000000000000000 -0.01136011629632847400000000000000000000000000000000 -0.20737139259593804000000000000000000000000000000000 -0.02140580168664593000000000000000000000000000000000 0.29635396237865710000000000000000000000000000000000 -0.00151017204054604460000000000000000000000000000000 -0.05160452671746491000000000000000000000000000000000 -0.00982427364149240600000000000000000000000000000000
-0.00419139586767968600000000000000000000000000000000 -0.01590181161499272200000000000000000000000000000000 0.00018928599005898502000000000000000000000000000000 -0.00095935586342704760000000000000000000000000000000 -0.05586116278595728000000000000000000000000000000000 -0.00733670491016474700000000000000000000000000000000 -0.10962167214011827000000000000000000000000000000000 -0.00238279341855868500000000000000000000000000000000 -0.18020860833303584000000000000000000000000000000000 -0.00180947736726186190000000000000000000000000000000
-0.00076694886358727910000000000000000000000000000000 -0.00067473451050247460000000000000000000000000000000 0.00667365912398158650000000000000000000000000000000 0.00049668424182022070000000000000000000000000000000 -0.01731223771021235000000000000000000000000000000000 -0.00005337250700032496600000000000000000000000000000 -0.11425679501285615000000000000000000000000000000000 0.00041897098881864535000000000000000000000000000000 -0.11131476785445492000000000000000000000000000000000 -0.00129412622201919860000000000000000000000000000000
-0.00031103951039387490000000000000000000000000000000 -0.00016748028875314620000000000000000000000000000000 -0.00153353780644511920000000000000000000000000000000 -0.00052020767440009010000000000000000000000000000000 -0.00057905689890985880000000000000000000000000000000 -0.00290060714134597700000000000000000000000000000000 0.00153785884731114230000000000000000000000000000000 0.00122433779999763650000000000000000000000000000000 -0.00257263390612477000000000000000000000000000000000 -0.00036404670013469790000000000000000000000000000000
-0.00184518503144757420000000000000000000000000000000 -0.00281517366284991200000000000000000000000000000000 0.00047645860589516956000000000000000000000000000000 -0.00195692324943553700000000000000000000000000000000 -0.00165067833632191180000000000000000000000000000000 -0.00039453336315853024000000000000000000000000000000 -0.00010792867122273264000000000000000000000000000000 0.00044226450174414760000000000000000000000000000000 0.00100298374873373280000000000000000000000000000000 -0.00115131559650043200000000000000000000000000000000
-0.00144814447165360960000000000000000000000000000000 -0.00137604927946064020000000000000000000000000000000 -0.00199271068803643730000000000000000000000000000000 0.00027090032518330837000000000000000000000000000000 -0.00047916048775694820000000000000000000000000000000 -0.00081467471591457340000000000000000000000000000000 -0.00259697043693675420000000000000000000000000000000 0.00049065450474632960000000000000000000000000000000 0.00058150439063676270000000000000000000000000000000 -0.00123560676644240450000000000000000000000000000000
-0.00256817492445440740000000000000000000000000000000 -0.00269847553429801260000000000000000000000000000000 0.00002027862436852941000000000000000000000000000000 -0.00035710210677684684000000000000000000000000000000 0.00015586169548765182000000000000000000000000000000 -0.00004584692295821137000000000000000000000000000000 -0.00137798483571679310000000000000000000000000000000 -0.00352969291893508000000000000000000000000000000000 -0.00219105355585553530000000000000000000000000000000 -0.00045165745723584267000000000000000000000000000000
-0.00028792165618431170000000000000000000000000000000 0.01745625160902090600000000000000000000000000000000 -0.00109158584561890640000000000000000000000000000000 -0.00153602962217353990000000000000000000000000000000 -0.00027242454913502850000000000000000000000000000000 -0.00194357589499725480000000000000000000000000000000 -0.00404466257151446340000000000000000000000000000000 -0.00109443656567116700000000000000000000000000000000 -0.00183010391626989600000000000000000000000000000000 0.00159480575218020670000000000000000000000000000000
-0.06130297095386811500000000000000000000000000000000 0.00501928016362776800000000000000000000000000000000 0.00154583900889409170000000000000000000000000000000 0.00057476654421804520000000000000000000000000000000 -0.01066391017638179200000000000000000000000000000000 0.00039778945867099307000000000000000000000000000000 0.01970093787087200500000000000000000000000000000000 -0.00169682730149931600000000000000000000000000000000 -0.00002073732917878141300000000000000000000000000000 -0.00136188428391527300000000000000000000000000000000
-0.06723806798518162000000000000000000000000000000000 0.00030844925057734040000000000000000000000000000000 -0.00444614315163647700000000000000000000000000000000 -0.00098381169474165960000000000000000000000000000000 -0.00326658499955411300000000000000000000000000000000 0.03877665315612229000000000000000000000000000000000 0.07422235926483194000000000000000000000000000000000 -0.00129660615811747770000000000000000000000000000000 -0.00349153122293326600000000000000000000000000000000 -0.00050320798916369190000000000000000000000000000000
-0.16029659942833630000000000000000000000000000000000 -0.00537141823435456550000000000000000000000000000000 -0.10576494886777850000000000000000000000000000000000 0.22491782588938350000000000000000000000000000000000 -0.09002368376127017000000000000000000000000000000000 -0.05157280235422008000000000000000000000000000000000 0.03445119041182149000000000000000000000000000000000 0.00031638941993911396000000000000000000000000000000 -0.06872262702233269000000000000000000000000000000000 0.00108436708214447650000000000000000000000000000000
-0.26957363377183240000000000000000000000000000000000 -0.03405591114492816000000000000000000000000000000000 -0.15024861298323836000000000000000000000000000000000 0.00348399916145289420000000000000000000000000000000 -0.35465340728728130000000000000000000000000000000000 -0.03815231695873367400000000000000000000000000000000 0.15980560901045765000000000000000000000000000000000 -0.00083518918676116120000000000000000000000000000000 -0.16187679328007262000000000000000000000000000000000 -0.00636384253370612300000000000000000000000000000000
-0.19905093917185765000000000000000000000000000000000 -0.15325142922224944000000000000000000000000000000000 -0.06434883451593935000000000000000000000000000000000 -0.00796695824795345600000000000000000000000000000000 -0.72104140702821870000000000000000000000000000000000 -0.14523063832125294000000000000000000000000000000000 0.02060393057609705500000000000000000000000000000000 -0.01442991403407839500000000000000000000000000000000 -0.24861134494157980000000000000000000000000000000000 -0.01607616421106664400000000000000000000000000000000
-0.27905601234908967000000000000000000000000000000000 -0.28595329469623800000000000000000000000000000000000 0.03032362841774293600000000000000000000000000000000 0.11731690952896873000000000000000000000000000000000 -0.81636646106622720000000000000000000000000000000000 -0.26369950552731560000000000000000000000000000000000 0.18234787159046234000000000000000000000000000000000 -0.09080591625529680000000000000000000000000000000000 -0.31701154755074480000000000000000000000000000000000 -0.05639417508451147000000000000000000000000000000000
-0.57125927661291500000000000000000000000000000000000 -0.38560900026960676000000000000000000000000000000000 0.19351636073905270000000000000000000000000000000000 0.01466626068997566400000000000000000000000000000000 -0.88844742604780980000000000000000000000000000000000 -0.48707028883764014000000000000000000000000000000000 -0.21285662371052602000000000000000000000000000000000 -0.31131446479291525000000000000000000000000000000000 -0.21437146891312920000000000000000000000000000000000 -0.09030265244244877000000000000000000000000000000000
-0.67034844129193040000000000000000000000000000000000 -0.50738011064340830000000000000000000000000000000000 0.00532205509015748400000000000000000000000000000000 0.09858487163465597000000000000000000000000000000000 -1.21786556356294780000000000000000000000000000000000 -0.61371782767698770000000000000000000000000000000000 0.12793083838988534000000000000000000000000000000000 -0.27233090293858550000000000000000000000000000000000 -0.19989068229338922000000000000000000000000000000000 -0.09293222737122209000000000000000000000000000000000
-0.65334289662184850000000000000000000000000000000000 -0.76635993161709590000000000000000000000000000000000 -0.06223098886293093000000000000000000000000000000000 0.19246966661633720000000000000000000000000000000000 -1.39141490892003030000000000000000000000000000000000 -0.52784472263757210000000000000000000000000000000000 0.23745126111518314000000000000000000000000000000000 -0.20879370960654145000000000000000000000000000000000 -0.39492805095644430000000000000000000000000000000000 -0.30000668873062660000000000000000000000000000000000
-0.55672307820039580000000000000000000000000000000000 -0.44988414812384680000000000000000000000000000000000 -0.05320268045057529500000000000000000000000000000000 0.47321196037685864000000000000000000000000000000000 -1.53136167626223200000000000000000000000000000000000 -0.50422645398252470000000000000000000000000000000000 -0.03514184187321628400000000000000000000000000000000 -0.16937465626438264000000000000000000000000000000000 -0.56020972135972240000000000000000000000000000000000 -0.45122736296366994000000000000000000000000000000000
-0.45064769601919374000000000000000000000000000000000 -0.37351032994432043000000000000000000000000000000000 0.27697564539646060000000000000000000000000000000000 0.47882310844725157000000000000000000000000000000000 -1.48517997213072860000000000000000000000000000000000 -0.60673894290476400000000000000000000000000000000000 0.09959849345221838000000000000000000000000000000000 -0.20805716015583270000000000000000000000000000000000 -1.02828764171162000000000000000000000000000000000000 -0.42590874013753743000000000000000000000000000000000
-0.38798021178906390000000000000000000000000000000000 -0.06292833343818150000000000000000000000000000000000 0.00330056146161724060000000000000000000000000000000 -0.16730846099073230000000000000000000000000000000000 -1.22533133923156320000000000000000000000000000000000 -0.47171448975248953000000000000000000000000000000000 -0.23141950654617560000000000000000000000000000000000 -0.10189865792371400000000000000000000000000000000000 -1.22117893880425840000000000000000000000000000000000 -0.48347447759753154000000000000000000000000000000000
-0.65157003146072890000000000000000000000000000000000 -0.16878059519134614000000000000000000000000000000000 -0.44713269997591370000000000000000000000000000000000 -0.14335644938810116000000000000000000000000000000000 -0.94854498625911070000000000000000000000000000000000 -0.07917880689234510000000000000000000000000000000000 -0.23357708702464278000000000000000000000000000000000 -0.10385293459258063000000000000000000000000000000000 -1.14051008488082830000000000000000000000000000000000 -0.41392951723798665000000000000000000000000000000000
-0.75376554830935640000000000000000000000000000000000 -0.01520720589792094900000000000000000000000000000000 -0.75625792020848960000000000000000000000000000000000 0.14834540809037788000000000000000000000000000000000 -0.83379286626161910000000000000000000000000000000000 -0.22181199523726106000000000000000000000000000000000 -0.05055251408739221000000000000000000000000000000000 -0.08926700850182863000000000000000000000000000000000 -1.50382794350614720000000000000000000000000000000000 -0.42801950187883560000000000000000000000000000000000
-0.67202168982125100000000000000000000000000000000000 -0.20737652663817470000000000000000000000000000000000 -0.18074116391639244000000000000000000000000000000000 0.34192635933809100000000000000000000000000000000000 -1.02494269181455340000000000000000000000000000000000 -0.52666677263835790000000000000000000000000000000000 0.39963207597201433000000000000000000000000000000000 -0.08346734922438591000000000000000000000000000000000 -1.88241076410578100000000000000000000000000000000000 -0.48331636912914040000000000000000000000000000000000
-0.81801725028072850000000000000000000000000000000000 -0.23532267579631340000000000000000000000000000000000 -0.57526704362445200000000000000000000000000000000000 0.29008284680118035000000000000000000000000000000000 -0.81580447129002180000000000000000000000000000000000 -0.41309483510791395000000000000000000000000000000000 0.33843178672712865000000000000000000000000000000000 -0.09182845596475639000000000000000000000000000000000 -1.71379350903928200000000000000000000000000000000000 -0.33522955176271324000000000000000000000000000000000
-0.88972466456748680000000000000000000000000000000000 -0.29362761686715590000000000000000000000000000000000 -0.17085330508815470000000000000000000000000000000000 0.15050433913817560000000000000000000000000000000000 -0.56845639779472990000000000000000000000000000000000 -0.43101753956288390000000000000000000000000000000000 0.23556780105088154000000000000000000000000000000000 -0.07044376291323733000000000000000000000000000000000 -1.16930142014360630000000000000000000000000000000000 -0.29416435226026927000000000000000000000000000000000
-0.79658208519857930000000000000000000000000000000000 -0.29729057688572140000000000000000000000000000000000 -0.57051705498713590000000000000000000000000000000000 0.67585728366903310000000000000000000000000000000000 -0.18574511889841408000000000000000000000000000000000 -0.35551967199064290000000000000000000000000000000000 0.05377118568714421000000000000000000000000000000000 -0.01896482552499485400000000000000000000000000000000 -0.94126603657378960000000000000000000000000000000000 -0.18911046790267866000000000000000000000000000000000
-0.65598267987705560000000000000000000000000000000000 -0.27650768920042650000000000000000000000000000000000 -0.63216837035691030000000000000000000000000000000000 -0.00435984922141122000000000000000000000000000000000 0.00836268602779895300000000000000000000000000000000 -0.20689775752923592000000000000000000000000000000000 0.26964740768922540000000000000000000000000000000000 -0.02623401978214184500000000000000000000000000000000 -0.39760873671862920000000000000000000000000000000000 -0.10228116741054746000000000000000000000000000000000
-0.32608685814440763000000000000000000000000000000000 -0.26465472594631510000000000000000000000000000000000 -0.36178943195436225000000000000000000000000000000000 -0.41289077014994924000000000000000000000000000000000 -0.19032757671906098000000000000000000000000000000000 0.03772145543045745500000000000000000000000000000000 0.47832999464696796000000000000000000000000000000000 -0.02164141105326256700000000000000000000000000000000 -0.10318791681012228000000000000000000000000000000000 -0.03382100416766130000000000000000000000000000000000
-0.04828027787667455600000000000000000000000000000000 -0.29679645861295695000000000000000000000000000000000 -0.25054517670107480000000000000000000000000000000000 -0.13361205354794690000000000000000000000000000000000 -0.06549453458452813000000000000000000000000000000000 -0.43886456147932960000000000000000000000000000000000 0.97391801286727220000000000000000000000000000000000 -0.00756078689094886900000000000000000000000000000000 0.03939048786699487400000000000000000000000000000000 -0.00646287487517513850000000000000000000000000000000
-0.05849945011898607000000000000000000000000000000000 -0.25192612076743650000000000000000000000000000000000 -0.08490165485529079000000000000000000000000000000000 -0.02414595419318464600000000000000000000000000000000 -0.07112599141655879000000000000000000000000000000000 -0.25464684465443577000000000000000000000000000000000 0.49602216836903484000000000000000000000000000000000 -0.00279235679712174160000000000000000000000000000000 -0.14556278392619978000000000000000000000000000000000 0.00039506240151824536000000000000000000000000000000
-0.03280277598268843000000000000000000000000000000000 -0.04540263100196924000000000000000000000000000000000 0.00335625767261251700000000000000000000000000000000 0.00026386921336261384000000000000000000000000000000 -0.02023085241498931800000000000000000000000000000000 0.06971747560806944000000000000000000000000000000000 -0.12590394851329580000000000000000000000000000000000 -0.00115496728449477580000000000000000000000000000000 -0.10999859650190075000000000000000000000000000000000 -0.00004859008270036094400000000000000000000000000000
-0.00756044108595533100000000000000000000000000000000 -0.03115994273291532000000000000000000000000000000000 0.00030560554357438800000000000000000000000000000000 -0.00026026191552581024000000000000000000000000000000 -0.00039405058836556750000000000000000000000000000000 0.02613694629742053700000000000000000000000000000000 0.05894249282127817000000000000000000000000000000000 0.00068208664878923530000000000000000000000000000000 0.00191504304655421070000000000000000000000000000000 -0.00266138037727391530000000000000000000000000000000
-0.00223453686556453100000000000000000000000000000000 -0.00017132826733007593000000000000000000000000000000 0.00001526191709533937000000000000000000000000000000 -0.00221805851146345000000000000000000000000000000000 -0.00127556054685797970000000000000000000000000000000 0.00039728455606592620000000000000000000000000000000 -0.00292293897866614200000000000000000000000000000000 -0.00130783803511293300000000000000000000000000000000 0.00111931630144320900000000000000000000000000000000 0.00013721172463940505000000000000000000000000000000
-0.00051490407880999950000000000000000000000000000000 0.00082479314885291720000000000000000000000000000000 -0.00038186455278015226000000000000000000000000000000 0.00233439958001319680000000000000000000000000000000 -0.00026449372740735123000000000000000000000000000000 0.00010272301714703107000000000000000000000000000000 0.00089858850560229550000000000000000000000000000000 -0.00099371323922013680000000000000000000000000000000 -0.00189485357440820820000000000000000000000000000000 0.00007856989104912176000000000000000000000000000000
-0.00034863945057744773000000000000000000000000000000 -0.00163006698341433140000000000000000000000000000000 0.00081072740824347500000000000000000000000000000000 -0.00151476769026268600000000000000000000000000000000 0.00000924542534510911900000000000000000000000000000 -0.00122078689311594680000000000000000000000000000000 -0.00148448079540362430000000000000000000000000000000 -0.00093204012251786560000000000000000000000000000000 -0.00038870914360218895000000000000000000000000000000 -0.00088757098131761520000000000000000000000000000000
-0.00160973445069531200000000000000000000000000000000 0.05920933256291036000000000000000000000000000000000 -0.01627525859664145600000000000000000000000000000000 -0.00111582397077614520000000000000000000000000000000 -0.00097662079723765340000000000000000000000000000000 -0.00305486117186554030000000000000000000000000000000 -0.01242817582317081200000000000000000000000000000000 -0.00009500720790376391000000000000000000000000000000 0.02367350828945988600000000000000000000000000000000 -0.00213435207784902840000000000000000000000000000000
-0.00360724191290420600000000000000000000000000000000 0.00651102944555808800000000000000000000000000000000 -0.06758701196752244000000000000000000000000000000000 0.02040673392281451000000000000000000000000000000000 -0.00482238549523401800000000000000000000000000000000 -0.02495776815206386700000000000000000000000000000000 -0.01481614381957888600000000000000000000000000000000 0.00025661321096851197000000000000000000000000000000 -0.00358924317203998580000000000000000000000000000000 -0.00011333316638508093000000000000000000000000000000
-0.03137075754158288000000000000000000000000000000000 0.00835960421008918200000000000000000000000000000000 -0.19805159229821068000000000000000000000000000000000 0.11534973921770585000000000000000000000000000000000 0.00183783912354987800000000000000000000000000000000 -0.23025969432452884000000000000000000000000000000000 0.07745612316793814000000000000000000000000000000000 -0.02181960347833558300000000000000000000000000000000 -0.00914521642448988700000000000000000000000000000000 -0.00472819206883969000000000000000000000000000000000
-0.29402635655190910000000000000000000000000000000000 0.07726509228077146000000000000000000000000000000000 -0.14558589630405117000000000000000000000000000000000 0.45516968753926310000000000000000000000000000000000 -0.08942429312465999000000000000000000000000000000000 -0.59118472086701190000000000000000000000000000000000 -0.08619077511665080000000000000000000000000000000000 -0.02131029286992774600000000000000000000000000000000 -0.09382729819233740000000000000000000000000000000000 -0.02189323797327804400000000000000000000000000000000
-0.22186690859680555000000000000000000000000000000000 -0.11967163328056947000000000000000000000000000000000 0.01930517038493236000000000000000000000000000000000 -0.04993247559956264000000000000000000000000000000000 -0.54817478169724980000000000000000000000000000000000 -0.55139560025450160000000000000000000000000000000000 -0.12618160607986500000000000000000000000000000000000 -0.02324633067711573800000000000000000000000000000000 -0.26260683333666196000000000000000000000000000000000 -0.14742020425806418000000000000000000000000000000000
-0.23912029100027932000000000000000000000000000000000 -0.22870441652734620000000000000000000000000000000000 -0.11256033712728707000000000000000000000000000000000 0.03507073415494118400000000000000000000000000000000 -0.51988468732821360000000000000000000000000000000000 -0.51766706061049500000000000000000000000000000000000 -0.54333672028117630000000000000000000000000000000000 -0.07070096742492826000000000000000000000000000000000 -0.26312054499379370000000000000000000000000000000000 -0.27418058608858287000000000000000000000000000000000
-0.41134752693842935000000000000000000000000000000000 -0.10898526160918419000000000000000000000000000000000 -0.07921679932290711000000000000000000000000000000000 0.41375219104340650000000000000000000000000000000000 -0.66363552351999530000000000000000000000000000000000 -0.96437757097881400000000000000000000000000000000000 -0.19185796758134704000000000000000000000000000000000 -0.19755969140958582000000000000000000000000000000000 -0.38142983332786580000000000000000000000000000000000 -0.42597028878162330000000000000000000000000000000000
-0.25602223380586614000000000000000000000000000000000 -0.66549165255323890000000000000000000000000000000000 0.18516411783071396000000000000000000000000000000000 0.06812886602940935000000000000000000000000000000000 -0.63215224982218050000000000000000000000000000000000 -0.54619657259056840000000000000000000000000000000000 -0.35567243048730846000000000000000000000000000000000 -0.35514509516732060000000000000000000000000000000000 -0.52591169902863930000000000000000000000000000000000 -0.43430229814075410000000000000000000000000000000000
-0.38515807391133305000000000000000000000000000000000 -0.42294817608193850000000000000000000000000000000000 -0.75965783232825030000000000000000000000000000000000 0.68537668759186770000000000000000000000000000000000 -0.71023330264162420000000000000000000000000000000000 -0.48529338220936324000000000000000000000000000000000 0.26474079495711210000000000000000000000000000000000 -0.55673101949964990000000000000000000000000000000000 -0.34924735383411754000000000000000000000000000000000 -0.39665000226265323000000000000000000000000000000000
-0.47140718026771883000000000000000000000000000000000 -0.36344020064433580000000000000000000000000000000000 -0.47347870746392370000000000000000000000000000000000 0.69332277947129070000000000000000000000000000000000 -0.58973066230794170000000000000000000000000000000000 -0.35810152493598530000000000000000000000000000000000 -0.86001316854854120000000000000000000000000000000000 -0.42914740062168740000000000000000000000000000000000 -0.26383302516405965000000000000000000000000000000000 -0.46370522869643150000000000000000000000000000000000
-0.17867576801658555000000000000000000000000000000000 -0.18028798044966620000000000000000000000000000000000 0.06680907535359650000000000000000000000000000000000 -0.02803862299990354500000000000000000000000000000000 -0.67911968584482530000000000000000000000000000000000 -0.26981080373816146000000000000000000000000000000000 -0.72845180150275100000000000000000000000000000000000 -0.44016608992406003000000000000000000000000000000000 -0.43290272081534520000000000000000000000000000000000 -0.82264368773135830000000000000000000000000000000000
-0.42047454326337297000000000000000000000000000000000 -0.15620199768236512000000000000000000000000000000000 -0.32386947308473485000000000000000000000000000000000 0.09684019312989382000000000000000000000000000000000 -0.90285385647833330000000000000000000000000000000000 -0.13795208646180250000000000000000000000000000000000 -0.91756963729966790000000000000000000000000000000000 -0.48766907338385845000000000000000000000000000000000 0.16975673506415948000000000000000000000000000000000 -1.31060125793495330000000000000000000000000000000000
-1.09394911904528300000000000000000000000000000000000 -0.20203609986813290000000000000000000000000000000000 -0.21528983313389122000000000000000000000000000000000 1.00895322984169570000000000000000000000000000000000 -0.97941477924237670000000000000000000000000000000000 -0.29085059085058634000000000000000000000000000000000 0.12351920553569458000000000000000000000000000000000 -0.38125061978873750000000000000000000000000000000000 -0.54696990196424390000000000000000000000000000000000 -1.27936424528519590000000000000000000000000000000000
-0.81345921851014300000000000000000000000000000000000 -0.31221206661476490000000000000000000000000000000000 -0.29240521802278663000000000000000000000000000000000 0.43539522135055020000000000000000000000000000000000 -0.49468249245316900000000000000000000000000000000000 -0.32995403538245080000000000000000000000000000000000 -0.37728406233715883000000000000000000000000000000000 -0.41908005435382906000000000000000000000000000000000 0.11791589838959744000000000000000000000000000000000 -1.24558424606636400000000000000000000000000000000000
-0.64900970686712310000000000000000000000000000000000 -0.13737863294965730000000000000000000000000000000000 -0.27013139277215980000000000000000000000000000000000 0.22449754650132508000000000000000000000000000000000 -0.58016164563655580000000000000000000000000000000000 0.21047874407838674000000000000000000000000000000000 -0.19792022868696615000000000000000000000000000000000 -0.42053448086830800000000000000000000000000000000000 -0.66872863272479000000000000000000000000000000000000 -1.68047299538588370000000000000000000000000000000000
-0.36414796107818936000000000000000000000000000000000 -0.13347587049158366000000000000000000000000000000000 -0.27281275684826870000000000000000000000000000000000 0.05303209168375181600000000000000000000000000000000 -0.58975147189929880000000000000000000000000000000000 0.49189917503045360000000000000000000000000000000000 -0.29397802750218190000000000000000000000000000000000 -0.38691526750382654000000000000000000000000000000000 -1.07358818875562760000000000000000000000000000000000 -1.21981124014657660000000000000000000000000000000000
-0.19005856093700596000000000000000000000000000000000 0.00872189556221772000000000000000000000000000000000 -0.30857333366397070000000000000000000000000000000000 -0.12324726316684538000000000000000000000000000000000 -0.52741591434799040000000000000000000000000000000000 -0.04367742432932304000000000000000000000000000000000 0.08464751708804472000000000000000000000000000000000 -0.39112407713120984000000000000000000000000000000000 -1.20149032320318680000000000000000000000000000000000 -0.98140191110876710000000000000000000000000000000000
-0.55303440084434520000000000000000000000000000000000 -0.07173121764639970000000000000000000000000000000000 -0.50274843836144300000000000000000000000000000000000 0.00729616130456481900000000000000000000000000000000 -0.35381494479127323000000000000000000000000000000000 -0.09244735640574829000000000000000000000000000000000 0.39831786423762770000000000000000000000000000000000 -0.49153439753707470000000000000000000000000000000000 -0.46470394883601470000000000000000000000000000000000 -0.74164986168000950000000000000000000000000000000000
-0.43683094628988350000000000000000000000000000000000 0.08500399493421304000000000000000000000000000000000 -0.54533325830189620000000000000000000000000000000000 -0.43668048416039590000000000000000000000000000000000 0.17365154572796448000000000000000000000000000000000 -0.08075244546744269000000000000000000000000000000000 0.07157263571138142000000000000000000000000000000000 -0.39540782154788245000000000000000000000000000000000 -0.58234341284966230000000000000000000000000000000000 -0.57397567056758950000000000000000000000000000000000
-0.30126056007329116000000000000000000000000000000000 0.00851879120087048000000000000000000000000000000000 -0.47436576767455720000000000000000000000000000000000 -0.40733678641235505000000000000000000000000000000000 0.11756228429969424000000000000000000000000000000000 -0.13003778997160340000000000000000000000000000000000 0.14467514927216270000000000000000000000000000000000 -0.04407542929063085000000000000000000000000000000000 -0.85694112767175270000000000000000000000000000000000 -0.56514811359974840000000000000000000000000000000000
-0.14089326092812005000000000000000000000000000000000 0.10194628698176587000000000000000000000000000000000 -1.01227336216321700000000000000000000000000000000000 -0.37919489676602214000000000000000000000000000000000 0.34242753437601080000000000000000000000000000000000 0.41397926558863807000000000000000000000000000000000 0.07069834170843126000000000000000000000000000000000 -0.07573042567220857000000000000000000000000000000000 -0.88969846259284570000000000000000000000000000000000 -0.52663626896981970000000000000000000000000000000000
-0.20386003545703602000000000000000000000000000000000 -0.10148198823763804000000000000000000000000000000000 -0.88797127793691940000000000000000000000000000000000 -0.65935605647709590000000000000000000000000000000000 0.43794109966443795000000000000000000000000000000000 0.57036283567813120000000000000000000000000000000000 0.15209921249072741000000000000000000000000000000000 -0.11185080986046782000000000000000000000000000000000 -0.98302972917680420000000000000000000000000000000000 -0.25186353009225054000000000000000000000000000000000
-0.53717488441193750000000000000000000000000000000000 -0.49154979313400643000000000000000000000000000000000 -0.47326229503376027000000000000000000000000000000000 -0.11801979776661330000000000000000000000000000000000 0.41932668315103890000000000000000000000000000000000 0.85487681535109470000000000000000000000000000000000 -0.16186800904617055000000000000000000000000000000000 -0.10554401814896207000000000000000000000000000000000 -0.00205372333647597940000000000000000000000000000000 -0.02456934305746585500000000000000000000000000000000
-0.19219518514094460000000000000000000000000000000000 -0.29599672109153410000000000000000000000000000000000 -0.16009505997074820000000000000000000000000000000000 -0.00334344154981756100000000000000000000000000000000 0.05808605024709029000000000000000000000000000000000 0.20501054439846444000000000000000000000000000000000 -0.30174430825315070000000000000000000000000000000000 -0.01752803089788844800000000000000000000000000000000 0.09021359809526086000000000000000000000000000000000 -0.00341628220568773100000000000000000000000000000000
-0.00727697499369795300000000000000000000000000000000 -0.00902929473614530600000000000000000000000000000000 -0.00674231542068959300000000000000000000000000000000 0.00032922171502001584000000000000000000000000000000 -0.03714740318930902000000000000000000000000000000000 0.02801527573587927300000000000000000000000000000000 -0.06104986040424374000000000000000000000000000000000 -0.00019138097454880087000000000000000000000000000000 0.13281169050798497000000000000000000000000000000000 -0.00086956234975027720000000000000000000000000000000
0.00084584979649557350000000000000000000000000000000 -0.00015053599074046106000000000000000000000000000000 -0.00452011278645003800000000000000000000000000000000 -0.00173585130105106540000000000000000000000000000000 0.00073733020619060420000000000000000000000000000000 -0.00700542083219525900000000000000000000000000000000 0.04398058288723990000000000000000000000000000000000 -0.00038046932518900396000000000000000000000000000000 0.02388841714830378800000000000000000000000000000000 0.00086686139981354670000000000000000000000000000000
0.00106704567641449690000000000000000000000000000000 0.00067849797740337790000000000000000000000000000000 0.00269769810358097940000000000000000000000000000000 -0.00074664010889816070000000000000000000000000000000 -0.00280366435453578960000000000000000000000000000000 0.00084200417394661130000000000000000000000000000000 0.00017415440421304090000000000000000000000000000000 0.00002600248891344251300000000000000000000000000000 -0.00035173763719240070000000000000000000000000000000 -0.00022545283672317876000000000000000000000000000000
-0.00203375348906677700000000000000000000000000000000 -0.00086428062812167390000000000000000000000000000000 -0.00059649179139211370000000000000000000000000000000 0.00120851943855635600000000000000000000000000000000 0.00205415712594081100000000000000000000000000000000 0.00012076117339669679000000000000000000000000000000 -0.00166672306695478780000000000000000000000000000000 -0.00072245460131269840000000000000000000000000000000 -0.00275488643672262750000000000000000000000000000000 0.00198994313825277430000000000000000000000000000000
-0.00138003309071828830000000000000000000000000000000 0.00521017784343415200000000000000000000000000000000 -0.00380525389948541400000000000000000000000000000000 -0.02470207112032810000000000000000000000000000000000 -0.01239026818854386200000000000000000000000000000000 -0.04337782189321473500000000000000000000000000000000 0.00528627827630141400000000000000000000000000000000 -0.00114447504544504900000000000000000000000000000000 -0.00105750479912696830000000000000000000000000000000 0.00050959309173053130000000000000000000000000000000
-0.02071788681843645500000000000000000000000000000000 0.02668713065532006200000000000000000000000000000000 -0.07417908457686749000000000000000000000000000000000 0.10850748753093610000000000000000000000000000000000 0.00446319399927455600000000000000000000000000000000 -0.14604648948227192000000000000000000000000000000000 -0.15590629772277356000000000000000000000000000000000 -0.00132869368763749400000000000000000000000000000000 -0.13282488984127855000000000000000000000000000000000 -0.02067406987497215700000000000000000000000000000000
-0.19443701235032498000000000000000000000000000000000 0.04873245022868979000000000000000000000000000000000 0.12939932051291820000000000000000000000000000000000 0.47575388890001740000000000000000000000000000000000 0.11691045027347687000000000000000000000000000000000 -0.67682981427918940000000000000000000000000000000000 -0.04824380707697436400000000000000000000000000000000 -0.21244408815389687000000000000000000000000000000000 -0.28276482420049975000000000000000000000000000000000 -0.05147000841979093600000000000000000000000000000000
-0.48765241186617800000000000000000000000000000000000 0.19744245109058667000000000000000000000000000000000 -0.17506175523282727000000000000000000000000000000000 0.79806965551794670000000000000000000000000000000000 0.15278407347045023000000000000000000000000000000000 -0.91106330075864070000000000000000000000000000000000 -0.39632363613725946000000000000000000000000000000000 0.04552030093390521000000000000000000000000000000000 -0.46558774926448650000000000000000000000000000000000 -0.32730099727374250000000000000000000000000000000000
-0.35352466922801423000000000000000000000000000000000 -0.10233050213389300000000000000000000000000000000000 0.05330561589202983000000000000000000000000000000000 0.17955794138371908000000000000000000000000000000000 -0.18556632898338768000000000000000000000000000000000 -0.51815264639977470000000000000000000000000000000000 -0.45984958253009706000000000000000000000000000000000 -0.20044787427880947000000000000000000000000000000000 -0.32108370810472864000000000000000000000000000000000 -0.72028829815946980000000000000000000000000000000000
-0.39569644210684460000000000000000000000000000000000 -0.20055163430909840000000000000000000000000000000000 -0.37348676574154010000000000000000000000000000000000 0.38702948093805817000000000000000000000000000000000 -0.35080886210213710000000000000000000000000000000000 -0.36064194222945820000000000000000000000000000000000 -0.22483231821320065000000000000000000000000000000000 -0.20117314386543914000000000000000000000000000000000 -0.82407758987598210000000000000000000000000000000000 -0.77482056947674490000000000000000000000000000000000
-0.35489922287582076000000000000000000000000000000000 -0.52302595272119870000000000000000000000000000000000 -0.20216556898724317000000000000000000000000000000000 0.17598590885967383000000000000000000000000000000000 -0.08342703220606217000000000000000000000000000000000 -0.09304351763722796000000000000000000000000000000000 -0.34706490102523950000000000000000000000000000000000 -0.07034712832880838000000000000000000000000000000000 -1.19204666376331140000000000000000000000000000000000 -0.60529823832964150000000000000000000000000000000000
-0.08195681084258083000000000000000000000000000000000 -0.60742542902687870000000000000000000000000000000000 -0.09415054687651568000000000000000000000000000000000 0.12092964492628316000000000000000000000000000000000 -0.19742463660345683000000000000000000000000000000000 -0.49402224264013694000000000000000000000000000000000 -0.36992423586759204000000000000000000000000000000000 -0.34707608895156000000000000000000000000000000000000 -0.77705961934763090000000000000000000000000000000000 -0.87524597352243900000000000000000000000000000000000
-0.27548924127444800000000000000000000000000000000000 -0.89303073409143630000000000000000000000000000000000 1.27757329933014940000000000000000000000000000000000 -0.29671116032360545000000000000000000000000000000000 -0.26211958546854060000000000000000000000000000000000 -0.22229146028730600000000000000000000000000000000000 -0.68866544937448200000000000000000000000000000000000 -0.30838887053177355000000000000000000000000000000000 -0.97432712633908960000000000000000000000000000000000 -0.60864128539687510000000000000000000000000000000000
-0.72316676142973910000000000000000000000000000000000 -0.53884037063039570000000000000000000000000000000000 0.41454080009176963000000000000000000000000000000000 0.38392983818816610000000000000000000000000000000000 -0.51427743788868870000000000000000000000000000000000 -0.52588972850262230000000000000000000000000000000000 -0.88497002326181510000000000000000000000000000000000 -0.54747910866450570000000000000000000000000000000000 -1.00445839009758560000000000000000000000000000000000 0.16768156435956266000000000000000000000000000000000
-0.09637979256273402000000000000000000000000000000000 -0.22911173344259150000000000000000000000000000000000 -0.36831570542705160000000000000000000000000000000000 -0.38031951325630750000000000000000000000000000000000 -0.48618516914870447000000000000000000000000000000000 -1.28679505504159190000000000000000000000000000000000 -0.82325177753969700000000000000000000000000000000000 -0.57731005818948670000000000000000000000000000000000 0.08408146224122597000000000000000000000000000000000 0.42046727082971520000000000000000000000000000000000
0.28851854917880370000000000000000000000000000000000 0.09020841750632944000000000000000000000000000000000 1.31286810570336380000000000000000000000000000000000 0.10941998780419607000000000000000000000000000000000 -0.86651717604799030000000000000000000000000000000000 -0.56456450378462820000000000000000000000000000000000 -1.04471996625114170000000000000000000000000000000000 -0.39432987040940487000000000000000000000000000000000 -1.80963329392951680000000000000000000000000000000000 0.62586175019870700000000000000000000000000000000000
0.46260215841071284000000000000000000000000000000000 0.10880049567507010000000000000000000000000000000000 0.10392809591108916000000000000000000000000000000000 0.31531726769557730000000000000000000000000000000000 -0.25340434931118520000000000000000000000000000000000 -0.09712430752349116000000000000000000000000000000000 -0.88715620654389270000000000000000000000000000000000 -0.41084150278100640000000000000000000000000000000000 -1.53027373770327800000000000000000000000000000000000 -0.57222535116140390000000000000000000000000000000000
1.04457323775093000000000000000000000000000000000000 0.38917808123897984000000000000000000000000000000000 0.12604952293913002000000000000000000000000000000000 -1.11046155276411240000000000000000000000000000000000 -0.00905263381084812000000000000000000000000000000000 -0.74488399574227180000000000000000000000000000000000 -1.14770064273750500000000000000000000000000000000000 -0.69857841406427810000000000000000000000000000000000 -1.51823872351957400000000000000000000000000000000000 -2.07051918831008000000000000000000000000000000000000
-0.25531763854432340000000000000000000000000000000000 0.15386368752182392000000000000000000000000000000000 0.88258413856965980000000000000000000000000000000000 -0.68059118739085880000000000000000000000000000000000 0.58941661533949460000000000000000000000000000000000 -0.52143825866372340000000000000000000000000000000000 -1.27088859472051240000000000000000000000000000000000 -0.72951659404750550000000000000000000000000000000000 -0.40365559529774440000000000000000000000000000000000 -1.99050416321499870000000000000000000000000000000000
-0.25923745580645470000000000000000000000000000000000 0.04431830525357836000000000000000000000000000000000 -0.17384683922654856000000000000000000000000000000000 -0.06915417759226294000000000000000000000000000000000 0.43650331796435193000000000000000000000000000000000 -0.70419489430091380000000000000000000000000000000000 -0.35658747720852830000000000000000000000000000000000 -1.24916138734831500000000000000000000000000000000000 0.33730856095093864000000000000000000000000000000000 -1.78601580765439400000000000000000000000000000000000
0.32442693452417687000000000000000000000000000000000 -0.26397765207800694000000000000000000000000000000000 -0.46925048803611870000000000000000000000000000000000 -1.16312095588948440000000000000000000000000000000000 0.15818722883301028000000000000000000000000000000000 0.38732011735009260000000000000000000000000000000000 -1.23908669681051340000000000000000000000000000000000 -1.34051673156989830000000000000000000000000000000000 0.34958113674106550000000000000000000000000000000000 -1.64043030057770860000000000000000000000000000000000
0.06181175794044178000000000000000000000000000000000 0.35912123953085295000000000000000000000000000000000 0.27087228088877420000000000000000000000000000000000 -0.26353532286886590000000000000000000000000000000000 0.11476781545769332000000000000000000000000000000000 -0.43174893197048236000000000000000000000000000000000 0.22001570913120383000000000000000000000000000000000 -1.25762156307970360000000000000000000000000000000000 -1.80690088517358040000000000000000000000000000000000 -1.68783704541399150000000000000000000000000000000000
-0.33194882656327190000000000000000000000000000000000 0.70403505410674390000000000000000000000000000000000 -0.23619027126264738000000000000000000000000000000000 -0.33673391942872694000000000000000000000000000000000 0.21493515152491063000000000000000000000000000000000 0.31553943241145810000000000000000000000000000000000 -0.16066311832359234000000000000000000000000000000000 -1.09802516198093160000000000000000000000000000000000 0.08409360253881762000000000000000000000000000000000 -0.86271845043775330000000000000000000000000000000000
-0.43575213553411490000000000000000000000000000000000 0.58858771851101690000000000000000000000000000000000 -0.61925585150904140000000000000000000000000000000000 -1.13624245910988940000000000000000000000000000000000 0.19207741307815632000000000000000000000000000000000 0.25057563763515434000000000000000000000000000000000 -0.50445954133263300000000000000000000000000000000000 -0.59327530638629380000000000000000000000000000000000 -1.03777408864479210000000000000000000000000000000000 -1.06453053200018680000000000000000000000000000000000
0.23569072782544480000000000000000000000000000000000 0.63002783270003700000000000000000000000000000000000 -0.05389196740797762000000000000000000000000000000000 -0.46385927317642384000000000000000000000000000000000 0.53532588254538480000000000000000000000000000000000 0.73691104919290470000000000000000000000000000000000 0.10904155081116584000000000000000000000000000000000 -0.58361866908380040000000000000000000000000000000000 0.16464184938301468000000000000000000000000000000000 -1.32733838620603600000000000000000000000000000000000
-0.18383204010946846000000000000000000000000000000000 0.17864436227714503000000000000000000000000000000000 -1.02919458396091310000000000000000000000000000000000 -0.83389321000327920000000000000000000000000000000000 0.33906800308059750000000000000000000000000000000000 0.54666680279822790000000000000000000000000000000000 -0.09682324503989577000000000000000000000000000000000 -0.43134863552323670000000000000000000000000000000000 -0.35146337608895950000000000000000000000000000000000 -0.75241452769974370000000000000000000000000000000000
-0.83353452833759380000000000000000000000000000000000 -0.12954194541931980000000000000000000000000000000000 -0.84996719298780870000000000000000000000000000000000 -0.21960232350723880000000000000000000000000000000000 -0.37156519030223173000000000000000000000000000000000 0.36299283740200970000000000000000000000000000000000 -0.25069407175317530000000000000000000000000000000000 -0.07489304878720315000000000000000000000000000000000 -0.20682780737889958000000000000000000000000000000000 -0.42127067595306156000000000000000000000000000000000
-0.58937456956926170000000000000000000000000000000000 -0.41894920125494706000000000000000000000000000000000 -0.31302600078202053000000000000000000000000000000000 -0.05607536835383888000000000000000000000000000000000 -0.47028667442326466000000000000000000000000000000000 0.07691372877365540000000000000000000000000000000000 -0.44653108819306540000000000000000000000000000000000 -0.01442158972695411900000000000000000000000000000000 0.10038740378362179000000000000000000000000000000000 -0.14092820061392866000000000000000000000000000000000
-0.18165843054991765000000000000000000000000000000000 -0.06883872125498615000000000000000000000000000000000 -0.02321257079935526800000000000000000000000000000000 -0.00312575628239545680000000000000000000000000000000 -0.35357935196115810000000000000000000000000000000000 0.27802846902452916000000000000000000000000000000000 -0.01786357130944209500000000000000000000000000000000 -0.00639510451275438200000000000000000000000000000000 -0.03120975501557462700000000000000000000000000000000 -0.02519734513585780700000000000000000000000000000000
-0.05719825531081208000000000000000000000000000000000 -0.00499564466540333400000000000000000000000000000000 -0.00712664869214108860000000000000000000000000000000 -0.00094170938169146020000000000000000000000000000000 -0.01975947809031069300000000000000000000000000000000 -0.00716626335481945600000000000000000000000000000000 0.06331445946808481000000000000000000000000000000000 -0.00020642973935240243000000000000000000000000000000 -0.01083988379566317800000000000000000000000000000000 -0.00048459394725107740000000000000000000000000000000
-0.00152973517377289750000000000000000000000000000000 0.00035681290434485690000000000000000000000000000000 -0.00173226853036701500000000000000000000000000000000 0.00099759041775318750000000000000000000000000000000 -0.00000928964905922184000000000000000000000000000000 -0.00158833238150399940000000000000000000000000000000 -0.00153615013060296900000000000000000000000000000000 -0.00150667587014346320000000000000000000000000000000 0.00013309368020150204000000000000000000000000000000 0.00077705689519546140000000000000000000000000000000
-0.00021969542589567120000000000000000000000000000000 -0.00063597993442573160000000000000000000000000000000 0.00237995660526020780000000000000000000000000000000 -0.00084090735458257650000000000000000000000000000000 -0.00160561059921949860000000000000000000000000000000 0.00060409639322558620000000000000000000000000000000 -0.00072112935564060400000000000000000000000000000000 -0.00030699067233035130000000000000000000000000000000 -0.00014125878773050040000000000000000000000000000000 -0.00448181884609749900000000000000000000000000000000
-0.00436599056780298400000000000000000000000000000000 -0.02178242911274452500000000000000000000000000000000 -0.08136403419178154000000000000000000000000000000000 0.00990405915772143500000000000000000000000000000000 -0.04692352039062305000000000000000000000000000000000 -0.00704052767170593800000000000000000000000000000000 -0.00191522598985050150000000000000000000000000000000 0.23278107065458145000000000000000000000000000000000 -0.01043385202594078300000000000000000000000000000000 -0.00684802771570607800000000000000000000000000000000
-0.03468345256087199000000000000000000000000000000000 0.06953829065188252000000000000000000000000000000000 -0.25456962755727040000000000000000000000000000000000 0.18885614923829502000000000000000000000000000000000 -0.09402062241818741000000000000000000000000000000000 -0.30123045470423830000000000000000000000000000000000 -0.21027010053435843000000000000000000000000000000000 0.58378670829717740000000000000000000000000000000000 -0.45456466055834754000000000000000000000000000000000 -0.05596454975274159000000000000000000000000000000000
-0.45572292639770406000000000000000000000000000000000 -0.03573345222213955000000000000000000000000000000000 -0.07057248092592161000000000000000000000000000000000 0.58275892567553220000000000000000000000000000000000 0.19874196868869270000000000000000000000000000000000 -0.68540695020153560000000000000000000000000000000000 -0.27684201556201016000000000000000000000000000000000 0.07037981615001784000000000000000000000000000000000 -0.54440823739474490000000000000000000000000000000000 -0.37659472580826370000000000000000000000000000000000
-0.35693472134811990000000000000000000000000000000000 -0.26549078294272700000000000000000000000000000000000 -0.35279555290712380000000000000000000000000000000000 0.51295600465208050000000000000000000000000000000000 0.10387599936591092000000000000000000000000000000000 -0.43616842020033997000000000000000000000000000000000 -0.47715150088141606000000000000000000000000000000000 0.17859132132798916000000000000000000000000000000000 -0.20889304876975243000000000000000000000000000000000 -0.91518583692817210000000000000000000000000000000000
-0.47450558445427420000000000000000000000000000000000 -0.28880760785286130000000000000000000000000000000000 0.03157990033782107000000000000000000000000000000000 0.08185281618958663000000000000000000000000000000000 0.10092048112871504000000000000000000000000000000000 -0.30689960993919146000000000000000000000000000000000 -0.79598831170513360000000000000000000000000000000000 0.09855311860857069000000000000000000000000000000000 -0.49252791203939367000000000000000000000000000000000 -1.39453110234950060000000000000000000000000000000000
-0.25779377404307013000000000000000000000000000000000 -0.49926459202694434000000000000000000000000000000000 -0.33106776742689770000000000000000000000000000000000 -0.19886630265481230000000000000000000000000000000000 0.19320968251216608000000000000000000000000000000000 -0.52987157216854530000000000000000000000000000000000 -0.18200447897684674000000000000000000000000000000000 0.21288859813413950000000000000000000000000000000000 -0.64518614203471410000000000000000000000000000000000 -1.55040274007737120000000000000000000000000000000000
-0.47166243191882223000000000000000000000000000000000 -0.50234080105251070000000000000000000000000000000000 0.01449853473295847000000000000000000000000000000000 -0.16049611678485162000000000000000000000000000000000 0.16207962279013170000000000000000000000000000000000 -0.54194050402382930000000000000000000000000000000000 -0.25820913028660947000000000000000000000000000000000 0.65202670801909700000000000000000000000000000000000 -0.58396279432075350000000000000000000000000000000000 -0.74605678809979940000000000000000000000000000000000
-0.46438689569943050000000000000000000000000000000000 -0.56058023377290060000000000000000000000000000000000 -0.12775051921505481000000000000000000000000000000000 1.12562447585962570000000000000000000000000000000000 0.30092072713697005000000000000000000000000000000000 0.75322007868231950000000000000000000000000000000000 0.42485298915939090000000000000000000000000000000000 0.54899333720468100000000000000000000000000000000000 0.55504663521151750000000000000000000000000000000000 0.71438544235006030000000000000000000000000000000000
-0.39321029548211056000000000000000000000000000000000 -0.20649525671672966000000000000000000000000000000000 0.09768069581666947000000000000000000000000000000000 0.72664170197078510000000000000000000000000000000000 -0.53433591886282390000000000000000000000000000000000 0.11344278350733637000000000000000000000000000000000 -0.85849490136808120000000000000000000000000000000000 0.09661337758727176000000000000000000000000000000000 -1.13984965050100760000000000000000000000000000000000 -0.63008879252701310000000000000000000000000000000000
-0.26513241433877460000000000000000000000000000000000 -0.48900991961511460000000000000000000000000000000000 -0.52186385621510010000000000000000000000000000000000 0.54049757869160140000000000000000000000000000000000 -0.38897912838806720000000000000000000000000000000000 -0.57072843436327080000000000000000000000000000000000 -0.38886722584551453000000000000000000000000000000000 -0.40134969246518800000000000000000000000000000000000 -0.47883743259086115000000000000000000000000000000000 -0.51323972696534960000000000000000000000000000000000
0.46932638294612540000000000000000000000000000000000 -0.33575516018634060000000000000000000000000000000000 0.13856586328033182000000000000000000000000000000000 2.16117650837636700000000000000000000000000000000000 -0.42608395774814790000000000000000000000000000000000 0.35048639624238060000000000000000000000000000000000 0.29676672171082440000000000000000000000000000000000 0.38794008062099467000000000000000000000000000000000 1.08349283450454270000000000000000000000000000000000 1.21529261466820880000000000000000000000000000000000
0.40849357404957415000000000000000000000000000000000 -0.09840569578646340000000000000000000000000000000000 0.36081175091705064000000000000000000000000000000000 2.62250303658287140000000000000000000000000000000000 0.36298159078490900000000000000000000000000000000000 -0.12209171359470455000000000000000000000000000000000 -0.39117462725592506000000000000000000000000000000000 0.38235059357760204000000000000000000000000000000000 1.86871432897861570000000000000000000000000000000000 -0.17400019007772327000000000000000000000000000000000
0.05538960853044155000000000000000000000000000000000 -0.25735343896352897000000000000000000000000000000000 0.50104207482567320000000000000000000000000000000000 0.52853666573507240000000000000000000000000000000000 -0.09952409251623259000000000000000000000000000000000 0.13291936235311830000000000000000000000000000000000 -0.00282725046529349760000000000000000000000000000000 0.01989606563854381300000000000000000000000000000000 3.03458413123169600000000000000000000000000000000000 0.22078833445977236000000000000000000000000000000000
0.18525849197815210000000000000000000000000000000000 -0.71768022738326780000000000000000000000000000000000 0.42912274665169764000000000000000000000000000000000 1.44752883124913600000000000000000000000000000000000 -0.98321871918689200000000000000000000000000000000000 -0.48679328005273960000000000000000000000000000000000 -0.24328380549023926000000000000000000000000000000000 0.26642742823189030000000000000000000000000000000000 2.48057514203935500000000000000000000000000000000000 1.03170267592768420000000000000000000000000000000000
0.42257674000188966000000000000000000000000000000000 -0.30595604336240930000000000000000000000000000000000 0.20122842921109052000000000000000000000000000000000 1.17329199072564980000000000000000000000000000000000 -0.45857367415138610000000000000000000000000000000000 -0.92372050518300810000000000000000000000000000000000 0.32895605425431834000000000000000000000000000000000 0.46362814734836183000000000000000000000000000000000 2.66879477520728250000000000000000000000000000000000 0.27911136094219946000000000000000000000000000000000
0.83471211283989700000000000000000000000000000000000 -0.64608592464765040000000000000000000000000000000000 0.01434406301349565700000000000000000000000000000000 0.36501188998379874000000000000000000000000000000000 -0.09361978940913730000000000000000000000000000000000 0.85842004956599190000000000000000000000000000000000 -0.13725842645623476000000000000000000000000000000000 0.40031340790557174000000000000000000000000000000000 1.16407704533540520000000000000000000000000000000000 0.42166445106398454000000000000000000000000000000000
