-3.28622594202173800000000000000000000000000000000000 2.25462704066228660000000000000000000000000000000000 3.62959315966312350000000000000000000000000000000000 3.92977309062518800000000000000000000000000000000000 6.92439921333167100000000000000000000000000000000000 3.98278876776089600000000000000000000000000000000000 3.28869895286891000000000000000000000000000000000000 4.74862833635847600000000000000000000000000000000000 5.83761583541994500000000000000000000000000000000000 0.05747948395997322000000000000000000000000000000000 4.27939943694909800000000000000000000000000000000000
0.49789149441852240000000000000000000000000000000000 -3.21589175367669040000000000000000000000000000000000 -0.42684791881325246000000000000000000000000000000000 3.47835434491450400000000000000000000000000000000000 -2.60857751074819260000000000000000000000000000000000 -0.60982328887104320000000000000000000000000000000000 -0.74580499576929390000000000000000000000000000000000 -0.58956496492456860000000000000000000000000000000000 2.03793232193829300000000000000000000000000000000000 -0.04646713169406690000000000000000000000000000000000 -4.19155890252017400000000000000000000000000000000000
0.60223886135309000000000000000000000000000000000000 -1.68844013484485680000000000000000000000000000000000 -0.87147885122125570000000000000000000000000000000000 -0.83438970479587430000000000000000000000000000000000 -0.74679387516445580000000000000000000000000000000000 1.98744365016024840000000000000000000000000000000000 -1.04635032853364570000000000000000000000000000000000 2.08727958144491050000000000000000000000000000000000 1.67905577823904120000000000000000000000000000000000 -1.27986786275178080000000000000000000000000000000000 -3.88399037150269470000000000000000000000000000000000
0.80652408118836900000000000000000000000000000000000 0.03957291185250179000000000000000000000000000000000 -1.40316688748909260000000000000000000000000000000000 -1.44037960652342470000000000000000000000000000000000 0.62537675789836740000000000000000000000000000000000 1.50698200328196940000000000000000000000000000000000 0.16370864391544890000000000000000000000000000000000 0.53720719921764330000000000000000000000000000000000 0.57289264153211460000000000000000000000000000000000 0.47996381497408660000000000000000000000000000000000 -2.25460940736158400000000000000000000000000000000000
0.62771752519433280000000000000000000000000000000000 -1.07407684094654420000000000000000000000000000000000 -1.89245431756091790000000000000000000000000000000000 2.41170198115845440000000000000000000000000000000000 -1.32400922034672950000000000000000000000000000000000 1.18001417598838150000000000000000000000000000000000 2.46545635406944200000000000000000000000000000000000 -3.80935032935635440000000000000000000000000000000000 -0.56503970705432070000000000000000000000000000000000 -1.09441048666682380000000000000000000000000000000000 -0.60464910158002260000000000000000000000000000000000
0.46708953448960650000000000000000000000000000000000 0.22196835093545705000000000000000000000000000000000 1.30886902216890900000000000000000000000000000000000 -2.56159692092113960000000000000000000000000000000000 -1.25228490736936630000000000000000000000000000000000 -0.29797070248614400000000000000000000000000000000000 1.84356643958169130000000000000000000000000000000000 2.08227026742138840000000000000000000000000000000000 -1.28224547265410950000000000000000000000000000000000 -3.41071983298158350000000000000000000000000000000000 1.03798683915628940000000000000000000000000000000000
0.50887496986174910000000000000000000000000000000000 -1.48726011889265060000000000000000000000000000000000 0.73250359418490370000000000000000000000000000000000 -1.24546771423087140000000000000000000000000000000000 3.84323316874839800000000000000000000000000000000000 -0.35440288545398790000000000000000000000000000000000 -3.73274243940431900000000000000000000000000000000000 0.00265476041430752880000000000000000000000000000000 -1.31462952106843960000000000000000000000000000000000 -2.08568532430371170000000000000000000000000000000000 -1.28125282384725380000000000000000000000000000000000
0.65562967198344730000000000000000000000000000000000 -0.16588201959124080000000000000000000000000000000000 -0.64750636145615200000000000000000000000000000000000 0.47213115093773256000000000000000000000000000000000 -1.46805806324069800000000000000000000000000000000000 -2.66656969822232440000000000000000000000000000000000 -2.97112887031714120000000000000000000000000000000000 1.13491741503866940000000000000000000000000000000000 0.62596067779275310000000000000000000000000000000000 -1.28886527222924550000000000000000000000000000000000 1.46175334254169820000000000000000000000000000000000
2.11088511696950200000000000000000000000000000000000 0.83902623362203980000000000000000000000000000000000 -2.95758927236132950000000000000000000000000000000000 -2.36975909358224900000000000000000000000000000000000 1.57185273568258620000000000000000000000000000000000 -0.52128774760179420000000000000000000000000000000000 -1.60961454031887350000000000000000000000000000000000 0.92984376415316770000000000000000000000000000000000 -0.63658590952911250000000000000000000000000000000000 1.48942836374643430000000000000000000000000000000000 -1.08426512470358750000000000000000000000000000000000
0.52542787877824270000000000000000000000000000000000 -0.98754503216132000000000000000000000000000000000000 0.81145060855534170000000000000000000000000000000000 2.41964891056475560000000000000000000000000000000000 3.43786504858167400000000000000000000000000000000000 0.24295563602942910000000000000000000000000000000000 -4.06419886931690200000000000000000000000000000000000 -2.64700338851838520000000000000000000000000000000000 -0.49636128404739643000000000000000000000000000000000 -1.86002025889195770000000000000000000000000000000000 0.93515713976627930000000000000000000000000000000000
0.77887401442619690000000000000000000000000000000000 -1.12213884023504300000000000000000000000000000000000 1.43671254967897990000000000000000000000000000000000 -2.54420531666434170000000000000000000000000000000000 -2.54650541972756540000000000000000000000000000000000 0.29571149546679143000000000000000000000000000000000 1.70755272688120700000000000000000000000000000000000 0.69899547626123100000000000000000000000000000000000 0.05619032527596789400000000000000000000000000000000 0.26449241290071074000000000000000000000000000000000 0.32964269263237470000000000000000000000000000000000
0.83255352923373580000000000000000000000000000000000 -0.82947281209099470000000000000000000000000000000000 -0.50141299217976080000000000000000000000000000000000 -0.71728330275141830000000000000000000000000000000000 2.14700741919695750000000000000000000000000000000000 -1.26583731291267960000000000000000000000000000000000 2.22507283049326340000000000000000000000000000000000 -2.16810165411323470000000000000000000000000000000000 -2.02377241916211500000000000000000000000000000000000 -2.15283465236235830000000000000000000000000000000000 0.90185354965223910000000000000000000000000000000000
0.70147074404457150000000000000000000000000000000000 -2.53361391212012000000000000000000000000000000000000 1.02431912189634480000000000000000000000000000000000 1.56299192533540230000000000000000000000000000000000 -2.56403720091756340000000000000000000000000000000000 -3.05750596454706970000000000000000000000000000000000 -0.80808297592655520000000000000000000000000000000000 1.16347920686912380000000000000000000000000000000000 -2.10636388446995240000000000000000000000000000000000 -0.69951615017646930000000000000000000000000000000000 -1.86924502587241800000000000000000000000000000000000
0.49704478845459570000000000000000000000000000000000 1.46747891587526200000000000000000000000000000000000 -0.53400019811960120000000000000000000000000000000000 -2.89040008934062880000000000000000000000000000000000 0.10560117948501897000000000000000000000000000000000 -1.77978789073993540000000000000000000000000000000000 -2.41890503738265350000000000000000000000000000000000 1.89164408140890950000000000000000000000000000000000 3.66133128474505400000000000000000000000000000000000 -1.49731659615199990000000000000000000000000000000000 -3.82565335856828260000000000000000000000000000000000
0.49206530638798040000000000000000000000000000000000 -0.07473984971602989000000000000000000000000000000000 2.00133889320707370000000000000000000000000000000000 -3.43565619462366770000000000000000000000000000000000 0.44518282894052760000000000000000000000000000000000 2.22171008503288550000000000000000000000000000000000 -0.53541995085878210000000000000000000000000000000000 -1.00488704036207380000000000000000000000000000000000 0.32626996405251130000000000000000000000000000000000 -3.32967260856958670000000000000000000000000000000000 0.67170065874062850000000000000000000000000000000000
0.58599740492403240000000000000000000000000000000000 0.47666743105630560000000000000000000000000000000000 -0.35153977821333890000000000000000000000000000000000 -0.61620444797958350000000000000000000000000000000000 -3.73091577590716300000000000000000000000000000000000 -1.64858896727355280000000000000000000000000000000000 3.19347628127628760000000000000000000000000000000000 -0.34740198009071380000000000000000000000000000000000 0.04776306675260992000000000000000000000000000000000 -2.48403498876655430000000000000000000000000000000000 -3.49071582061098030000000000000000000000000000000000
0.65759616951156790000000000000000000000000000000000 1.08885050664058910000000000000000000000000000000000 -0.22331683491643570000000000000000000000000000000000 3.08891993128022730000000000000000000000000000000000 -1.15672445311463920000000000000000000000000000000000 1.31081030878024870000000000000000000000000000000000 -1.32070358593541900000000000000000000000000000000000 -1.60460231635592620000000000000000000000000000000000 -0.99963452922703360000000000000000000000000000000000 -2.92645468801710470000000000000000000000000000000000 0.02828726561871185500000000000000000000000000000000
0.56213378903404210000000000000000000000000000000000 2.47958787744967330000000000000000000000000000000000 0.28516772444543250000000000000000000000000000000000 -1.96252658473318140000000000000000000000000000000000 -1.64569702402977300000000000000000000000000000000000 -1.42497398563719440000000000000000000000000000000000 -3.61575691323563660000000000000000000000000000000000 2.07442934129886500000000000000000000000000000000000 -1.30475389694570660000000000000000000000000000000000 -0.11522550642940839000000000000000000000000000000000 -1.11652773325113400000000000000000000000000000000000
0.68760318292759780000000000000000000000000000000000 -2.66897742528032600000000000000000000000000000000000 0.84334737105044690000000000000000000000000000000000 1.49545944257529600000000000000000000000000000000000 2.39244823688729000000000000000000000000000000000000 -2.90358733604903470000000000000000000000000000000000 -0.88671278023415780000000000000000000000000000000000 -2.82142266470696200000000000000000000000000000000000 2.47323253155772570000000000000000000000000000000000 -2.68984828782797800000000000000000000000000000000000 -3.96785095821403800000000000000000000000000000000000
0.57140783741298520000000000000000000000000000000000 0.93916430663575320000000000000000000000000000000000 -0.28249453170949080000000000000000000000000000000000 0.94583027660225200000000000000000000000000000000000 1.01457285176738130000000000000000000000000000000000 -2.04275779890625180000000000000000000000000000000000 0.38572366721765770000000000000000000000000000000000 -2.46726085460789400000000000000000000000000000000000 1.81023239809520200000000000000000000000000000000000 -2.20694611133550000000000000000000000000000000000000 -2.69967319149407330000000000000000000000000000000000
0.94079116476204980000000000000000000000000000000000 -0.45201145588845410000000000000000000000000000000000 -0.61470617473587000000000000000000000000000000000000 2.39250692264509150000000000000000000000000000000000 -1.19128689262663840000000000000000000000000000000000 -0.09467917881903937000000000000000000000000000000000 -0.75850062805188780000000000000000000000000000000000 0.78054809258135080000000000000000000000000000000000 -4.49823070746244100000000000000000000000000000000000 -1.43788000249589620000000000000000000000000000000000 0.63622653711031050000000000000000000000000000000000
0.50256448289646860000000000000000000000000000000000 -0.34297001449281406000000000000000000000000000000000 1.13614531260114540000000000000000000000000000000000 2.02053151441794340000000000000000000000000000000000 -3.42289001754167630000000000000000000000000000000000 0.96141616156302910000000000000000000000000000000000 -0.48720989277727167000000000000000000000000000000000 -1.55443291394501840000000000000000000000000000000000 1.74966581631776560000000000000000000000000000000000 -2.20954606727240400000000000000000000000000000000000 1.69957961048798880000000000000000000000000000000000
0.71069867450882120000000000000000000000000000000000 2.12052470977854050000000000000000000000000000000000 -0.63412094494815210000000000000000000000000000000000 -2.41135763328243800000000000000000000000000000000000 -2.47325793708784050000000000000000000000000000000000 0.05675468021915667000000000000000000000000000000000 1.28784275712868300000000000000000000000000000000000 -2.72770028737510200000000000000000000000000000000000 -0.92354287739485420000000000000000000000000000000000 -0.80626818541395610000000000000000000000000000000000 2.14583086337693600000000000000000000000000000000000
0.85195997886051390000000000000000000000000000000000 -2.52350372117069300000000000000000000000000000000000 -2.10508112658695800000000000000000000000000000000000 -0.88619190633352710000000000000000000000000000000000 0.13945439862408554000000000000000000000000000000000 2.54413999644714070000000000000000000000000000000000 -0.21276423747907558000000000000000000000000000000000 -2.13784904354611200000000000000000000000000000000000 2.56658791315348540000000000000000000000000000000000 -3.27605327552042100000000000000000000000000000000000 1.99001033972489920000000000000000000000000000000000
0.38658140110377714000000000000000000000000000000000 0.06912960486472353000000000000000000000000000000000 2.98827019991434600000000000000000000000000000000000 -2.24534674283020450000000000000000000000000000000000 -0.36883182368804823000000000000000000000000000000000 -1.72773343692101620000000000000000000000000000000000 4.52821506378029600000000000000000000000000000000000 0.42330212378020460000000000000000000000000000000000 -0.70553007034935170000000000000000000000000000000000 -1.73206420447712280000000000000000000000000000000000 0.25680157473974224000000000000000000000000000000000
0.83573160263104950000000000000000000000000000000000 -1.88082344235983000000000000000000000000000000000000 -0.86033609334729900000000000000000000000000000000000 -2.99260813312241600000000000000000000000000000000000 -2.74758265835101630000000000000000000000000000000000 -0.46653617498532773000000000000000000000000000000000 1.82861888857174980000000000000000000000000000000000 2.11660707390169020000000000000000000000000000000000 0.49651301359379285000000000000000000000000000000000 -2.71008301646028560000000000000000000000000000000000 0.07224517783474757000000000000000000000000000000000
0.63648649508576160000000000000000000000000000000000 -2.22859358535725830000000000000000000000000000000000 -2.51603836416029750000000000000000000000000000000000 2.09884428163014300000000000000000000000000000000000 -1.15744550870547400000000000000000000000000000000000 -6.20178407364539600000000000000000000000000000000000 0.27774157518110070000000000000000000000000000000000 2.01578334246713500000000000000000000000000000000000 -3.31563388067552000000000000000000000000000000000000 -1.05094677373092280000000000000000000000000000000000 -0.94131862774501710000000000000000000000000000000000
0.54759938638764020000000000000000000000000000000000 -1.64135218219424320000000000000000000000000000000000 0.01812254597137384300000000000000000000000000000000 0.00929020295425560600000000000000000000000000000000 -0.87587083646515260000000000000000000000000000000000 -3.00767049142274430000000000000000000000000000000000 2.35440302377518200000000000000000000000000000000000 -0.88635001307324160000000000000000000000000000000000 2.08292626124903670000000000000000000000000000000000 -1.38970179304378320000000000000000000000000000000000 -0.72082598248646950000000000000000000000000000000000
0.70382370722429440000000000000000000000000000000000 -1.19091823971117480000000000000000000000000000000000 -1.13131614269640600000000000000000000000000000000000 -1.09730192869877260000000000000000000000000000000000 2.13729331017477970000000000000000000000000000000000 -2.55074843888509400000000000000000000000000000000000 2.49741502728428880000000000000000000000000000000000 -3.88908971672272500000000000000000000000000000000000 -2.76223333751043180000000000000000000000000000000000 -4.46909875549365700000000000000000000000000000000000 1.92461837728291220000000000000000000000000000000000
0.81644839703591020000000000000000000000000000000000 1.69255855549234480000000000000000000000000000000000 -1.23966389731898170000000000000000000000000000000000 -1.66548786992696300000000000000000000000000000000000 1.66520838735698600000000000000000000000000000000000 -2.29996109178859070000000000000000000000000000000000 -0.07691086214644213000000000000000000000000000000000 0.86701414452464890000000000000000000000000000000000 0.70489653738589480000000000000000000000000000000000 -2.33788675855661000000000000000000000000000000000000 -1.80026663018175200000000000000000000000000000000000
0.72483218740420750000000000000000000000000000000000 2.20627360161202770000000000000000000000000000000000 0.33266821145126360000000000000000000000000000000000 2.44517647690332260000000000000000000000000000000000 0.45438759265704975000000000000000000000000000000000 -0.91239604973722390000000000000000000000000000000000 -0.59970424798208600000000000000000000000000000000000 -1.25476280784768870000000000000000000000000000000000 0.09872662298931846000000000000000000000000000000000 -5.60804779516406600000000000000000000000000000000000 -0.53696781420645060000000000000000000000000000000000
1.32023244359701960000000000000000000000000000000000 -1.34017316656005110000000000000000000000000000000000 1.68408985957597750000000000000000000000000000000000 0.16092154032182107000000000000000000000000000000000 -1.25649848893455850000000000000000000000000000000000 -0.07710701191746472000000000000000000000000000000000 -1.83089226007918000000000000000000000000000000000000 1.01349005423581500000000000000000000000000000000000 -2.07884840470154400000000000000000000000000000000000 0.04836505026487290000000000000000000000000000000000 1.44544075289284500000000000000000000000000000000000
1.19154144398037130000000000000000000000000000000000 1.97846804611683580000000000000000000000000000000000 -3.44028122268196900000000000000000000000000000000000 -2.15061951202476550000000000000000000000000000000000 0.58733084452015520000000000000000000000000000000000 -0.71421355723744640000000000000000000000000000000000 0.06117573534361540000000000000000000000000000000000 -0.85968584157717730000000000000000000000000000000000 -0.93175485236833370000000000000000000000000000000000 0.58774166546452630000000000000000000000000000000000 -0.11289318016560289000000000000000000000000000000000
1.30469843383890340000000000000000000000000000000000 -1.18744233952779580000000000000000000000000000000000 -1.79596093309844800000000000000000000000000000000000 -0.46812639403807440000000000000000000000000000000000 2.53754040280108600000000000000000000000000000000000 -0.45739755294074920000000000000000000000000000000000 -3.12327655330562060000000000000000000000000000000000 -1.26438091900286920000000000000000000000000000000000 -1.45079285839999200000000000000000000000000000000000 1.28852599154954600000000000000000000000000000000000 -0.70238822203713490000000000000000000000000000000000
1.44900384414671210000000000000000000000000000000000 -1.17855944397711170000000000000000000000000000000000 -0.34419857955513720000000000000000000000000000000000 0.20995984721650948000000000000000000000000000000000 -0.13734384262569474000000000000000000000000000000000 -4.83740090979129400000000000000000000000000000000000 1.23846959409683640000000000000000000000000000000000 0.28753960026326864000000000000000000000000000000000 -3.16931526852437300000000000000000000000000000000000 1.27807281993117460000000000000000000000000000000000 -2.17350253972274880000000000000000000000000000000000
0.41286540923831730000000000000000000000000000000000 -2.79418186900127760000000000000000000000000000000000 -0.14868381521024020000000000000000000000000000000000 -0.14368220289950717000000000000000000000000000000000 -1.14065090940685350000000000000000000000000000000000 -2.41127698109235500000000000000000000000000000000000 -1.02255981418746430000000000000000000000000000000000 -0.34208466209233745000000000000000000000000000000000 4.88375375459123900000000000000000000000000000000000 -0.56198880956593810000000000000000000000000000000000 -2.05986938185178400000000000000000000000000000000000
0.71543292605156870000000000000000000000000000000000 -0.29498882013926697000000000000000000000000000000000 -1.80839094135800970000000000000000000000000000000000 2.11438324330899350000000000000000000000000000000000 0.27563409084102200000000000000000000000000000000000 2.47233279451253100000000000000000000000000000000000 0.50484014031197120000000000000000000000000000000000 0.02154167794829387000000000000000000000000000000000 -1.19449072341046960000000000000000000000000000000000 -2.10252545215837800000000000000000000000000000000000 -4.67324657406544200000000000000000000000000000000000
0.86359674019356030000000000000000000000000000000000 -2.08273791181998650000000000000000000000000000000000 -0.76969792014068900000000000000000000000000000000000 2.03779334353865330000000000000000000000000000000000 -3.70296883688939700000000000000000000000000000000000 0.10201309515551486000000000000000000000000000000000 -0.48578825457534974000000000000000000000000000000000 -0.61308586386116710000000000000000000000000000000000 1.21880635364285480000000000000000000000000000000000 1.08230575685159720000000000000000000000000000000000 -1.98346250006301000000000000000000000000000000000000
0.38751894358423455000000000000000000000000000000000 -0.40285973861534300000000000000000000000000000000000 2.76181409361773200000000000000000000000000000000000 2.07620388341089700000000000000000000000000000000000 -0.95744744943461810000000000000000000000000000000000 -0.71376875639670210000000000000000000000000000000000 2.20651338332830440000000000000000000000000000000000 -1.64891125719672860000000000000000000000000000000000 -0.99414139404759490000000000000000000000000000000000 -2.43412327969236000000000000000000000000000000000000 -0.22971272728014164000000000000000000000000000000000
0.51308133193409820000000000000000000000000000000000 1.43226811987190960000000000000000000000000000000000 -0.37900601515511780000000000000000000000000000000000 2.09772044197189000000000000000000000000000000000000 -2.16023700149525300000000000000000000000000000000000 -0.41361660840298190000000000000000000000000000000000 -5.34293725454800050000000000000000000000000000000000 -2.20186463870539200000000000000000000000000000000000 0.11611394298430995000000000000000000000000000000000 0.41911563557446790000000000000000000000000000000000 1.75815661051279640000000000000000000000000000000000
1.47367542034105980000000000000000000000000000000000 -1.40731493075251200000000000000000000000000000000000 -1.37732319192509630000000000000000000000000000000000 0.68326939896118950000000000000000000000000000000000 -1.62172685233417600000000000000000000000000000000000 -1.05815271032431420000000000000000000000000000000000 0.93270315581774100000000000000000000000000000000000 0.01519356470318440800000000000000000000000000000000 -1.26141444132771100000000000000000000000000000000000 -0.72290328900735890000000000000000000000000000000000 -0.01542989043647147700000000000000000000000000000000
0.40228714074976360000000000000000000000000000000000 -1.27230993053645470000000000000000000000000000000000 1.10711772061199000000000000000000000000000000000000 -2.07493715699308150000000000000000000000000000000000 -3.75288513493149360000000000000000000000000000000000 -0.28596636652497550000000000000000000000000000000000 0.04143252765244671000000000000000000000000000000000 -0.88479081201289110000000000000000000000000000000000 2.00037009507832500000000000000000000000000000000000 -1.19730352763693370000000000000000000000000000000000 -2.29021399944777530000000000000000000000000000000000
0.79001525248944540000000000000000000000000000000000 -0.21154037214945790000000000000000000000000000000000 -1.44453158394333440000000000000000000000000000000000 2.14915743141436700000000000000000000000000000000000 0.83727832841072490000000000000000000000000000000000 -2.37125197378701640000000000000000000000000000000000 -0.46725360848208860000000000000000000000000000000000 -2.98457383869327230000000000000000000000000000000000 0.45483522076012670000000000000000000000000000000000 -2.11681961708240160000000000000000000000000000000000 0.26241012796707420000000000000000000000000000000000
0.53272676406545320000000000000000000000000000000000 -1.50219553218962990000000000000000000000000000000000 3.13447649764538900000000000000000000000000000000000 -3.27503880865131030000000000000000000000000000000000 -0.56804193790972770000000000000000000000000000000000 3.51149406056520650000000000000000000000000000000000 -1.40252188210365100000000000000000000000000000000000 1.74063327692261700000000000000000000000000000000000 0.13871299490495728000000000000000000000000000000000 -2.62097891745093800000000000000000000000000000000000 -3.69670268264185900000000000000000000000000000000000
0.48427559495938650000000000000000000000000000000000 -0.07267724103303005000000000000000000000000000000000 -0.46629112594718110000000000000000000000000000000000 -2.02422251353625350000000000000000000000000000000000 -0.69871257018927160000000000000000000000000000000000 1.71358081924615640000000000000000000000000000000000 1.02341135083718320000000000000000000000000000000000 0.13321557447716650000000000000000000000000000000000 2.70436420197526630000000000000000000000000000000000 -1.30799699425761460000000000000000000000000000000000 -3.22577253440547500000000000000000000000000000000000
0.87778711851883180000000000000000000000000000000000 -2.33821923899010460000000000000000000000000000000000 1.49072426296630580000000000000000000000000000000000 -0.34007178444977590000000000000000000000000000000000 2.06274685814528400000000000000000000000000000000000 0.95450401012514520000000000000000000000000000000000 -4.17190465976711600000000000000000000000000000000000 -2.78559844996922660000000000000000000000000000000000 1.02225568136243460000000000000000000000000000000000 -0.03692273366181038400000000000000000000000000000000 -0.10534268279445272000000000000000000000000000000000
0.82401300859859640000000000000000000000000000000000 -1.07663216282593400000000000000000000000000000000000 -0.94635288067439420000000000000000000000000000000000 0.25951948390517154000000000000000000000000000000000 -3.59307792241319000000000000000000000000000000000000 0.39348803815746420000000000000000000000000000000000 -3.18817174353306000000000000000000000000000000000000 -0.16060933420725512000000000000000000000000000000000 1.63327272673022030000000000000000000000000000000000 -3.42726838692096520000000000000000000000000000000000 2.50374108252101070000000000000000000000000000000000
0.72811874356500520000000000000000000000000000000000 -4.16975180854909800000000000000000000000000000000000 1.80050528747877640000000000000000000000000000000000 -3.55382528641414060000000000000000000000000000000000 1.43699113124519620000000000000000000000000000000000 0.52238821789777220000000000000000000000000000000000 2.33965915030528900000000000000000000000000000000000 -5.32443354555978750000000000000000000000000000000000 -2.14542223782741000000000000000000000000000000000000 -3.84789222180402700000000000000000000000000000000000 2.10420505516961050000000000000000000000000000000000
0.69045161103986240000000000000000000000000000000000 -4.24768949091475800000000000000000000000000000000000 -1.28956565224738800000000000000000000000000000000000 -2.83710525149788940000000000000000000000000000000000 1.23839667156623180000000000000000000000000000000000 -1.67461223355065000000000000000000000000000000000000 -1.15683711904312460000000000000000000000000000000000 -0.96878348014209140000000000000000000000000000000000 1.26067025464703280000000000000000000000000000000000 0.08587022660132555000000000000000000000000000000000 1.01501495653446440000000000000000000000000000000000
0.50733196755938450000000000000000000000000000000000 -3.31408437217260770000000000000000000000000000000000 -0.31835738042986150000000000000000000000000000000000 -2.84337435723737000000000000000000000000000000000000 2.76717859437823850000000000000000000000000000000000 -0.79197053588692100000000000000000000000000000000000 4.94815423189455300000000000000000000000000000000000 -3.70877522155343500000000000000000000000000000000000 -1.36102541717642240000000000000000000000000000000000 -0.48917838822355960000000000000000000000000000000000 0.53331497130932890000000000000000000000000000000000
0.59557310987738280000000000000000000000000000000000 -0.13553999498552236000000000000000000000000000000000 0.59166738173925560000000000000000000000000000000000 -3.01688607743453800000000000000000000000000000000000 1.53357590322708570000000000000000000000000000000000 -0.02105039215184071800000000000000000000000000000000 -0.60057064332481380000000000000000000000000000000000 1.20765162944721970000000000000000000000000000000000 0.67642665506859170000000000000000000000000000000000 -2.87487669359399300000000000000000000000000000000000 1.86943223969501070000000000000000000000000000000000
0.84527703698160330000000000000000000000000000000000 0.08151094644592533000000000000000000000000000000000 -0.34840631127423960000000000000000000000000000000000 -0.83167301653390680000000000000000000000000000000000 -1.62902854148510110000000000000000000000000000000000 2.84608922218794900000000000000000000000000000000000 2.34803991952614400000000000000000000000000000000000 0.25825434405307790000000000000000000000000000000000 -2.67924903602786900000000000000000000000000000000000 0.90481555490103480000000000000000000000000000000000 -4.91974883855385500000000000000000000000000000000000
1.51936482501699380000000000000000000000000000000000 -1.85289000985092380000000000000000000000000000000000 -1.05007668892452400000000000000000000000000000000000 -0.13632867213474503000000000000000000000000000000000 -1.15612378586169880000000000000000000000000000000000 -0.33941135399175730000000000000000000000000000000000 0.83805421533179400000000000000000000000000000000000 -2.15336713694137270000000000000000000000000000000000 -0.08834368772524985000000000000000000000000000000000 1.43067234007654020000000000000000000000000000000000 -0.13150669883760116000000000000000000000000000000000
0.90738376684477680000000000000000000000000000000000 -1.49858401992252730000000000000000000000000000000000 1.36995627260186370000000000000000000000000000000000 -0.31427719751118927000000000000000000000000000000000 0.82406665521198140000000000000000000000000000000000 -3.36549329117951200000000000000000000000000000000000 -0.85562041824252430000000000000000000000000000000000 0.84669681163894100000000000000000000000000000000000 0.87271429775772980000000000000000000000000000000000 -0.90454909386958040000000000000000000000000000000000 -2.71914852573263040000000000000000000000000000000000
0.48152918017584570000000000000000000000000000000000 -0.79241246805372500000000000000000000000000000000000 2.75403682019803700000000000000000000000000000000000 -1.12975093961606990000000000000000000000000000000000 0.92566447356238790000000000000000000000000000000000 4.29824516727634350000000000000000000000000000000000 -1.51663458282150700000000000000000000000000000000000 -1.10238870739975340000000000000000000000000000000000 -2.87716500003660900000000000000000000000000000000000 -1.35239037640289480000000000000000000000000000000000 -4.87515306935823700000000000000000000000000000000000
0.68765037912142670000000000000000000000000000000000 1.43676016685683420000000000000000000000000000000000 0.23352358478534893000000000000000000000000000000000 -4.48162948019520300000000000000000000000000000000000 1.27127685875399600000000000000000000000000000000000 -1.31713918500299800000000000000000000000000000000000 -0.11481884664297410000000000000000000000000000000000 -0.04310020183675812600000000000000000000000000000000 1.08284937593268320000000000000000000000000000000000 0.49601952781166650000000000000000000000000000000000 0.18382194387041564000000000000000000000000000000000
1.84375036162739600000000000000000000000000000000000 -1.07714735673250250000000000000000000000000000000000 -1.57189416353473500000000000000000000000000000000000 0.03375947122390914000000000000000000000000000000000 0.38107641315445590000000000000000000000000000000000 -1.80104225197556330000000000000000000000000000000000 -3.32111124948676400000000000000000000000000000000000 0.15064891195787750000000000000000000000000000000000 -0.93290216547995330000000000000000000000000000000000 1.62649225998047390000000000000000000000000000000000 1.95993813116191020000000000000000000000000000000000
0.71715179125459740000000000000000000000000000000000 -0.93268406998642070000000000000000000000000000000000 -0.09252139210890098000000000000000000000000000000000 0.56688162157356340000000000000000000000000000000000 -3.70615354871771000000000000000000000000000000000000 1.07251122615231820000000000000000000000000000000000 -0.92983308342105100000000000000000000000000000000000 1.00766212918673400000000000000000000000000000000000 -2.22991476671405970000000000000000000000000000000000 -2.65062780912495300000000000000000000000000000000000 1.46244408065466100000000000000000000000000000000000
0.64033939141609430000000000000000000000000000000000 -1.28563684441165480000000000000000000000000000000000 -2.50543046944450900000000000000000000000000000000000 -1.09493306155187780000000000000000000000000000000000 0.57864704577899630000000000000000000000000000000000 2.25928593520387460000000000000000000000000000000000 -0.12111305600643661000000000000000000000000000000000 1.65943331380929450000000000000000000000000000000000 0.97032417517505850000000000000000000000000000000000 0.02255230701095788000000000000000000000000000000000 -2.88101170834721300000000000000000000000000000000000
0.66763218096193520000000000000000000000000000000000 0.79408167532535430000000000000000000000000000000000 -1.80986170249961260000000000000000000000000000000000 -0.59164589353827190000000000000000000000000000000000 -1.50061184655151750000000000000000000000000000000000 -3.25994151675741800000000000000000000000000000000000 1.85337112878540380000000000000000000000000000000000 -2.76669410663954700000000000000000000000000000000000 0.72572107113505000000000000000000000000000000000000 -2.26663444806183500000000000000000000000000000000000 -1.63503418003208050000000000000000000000000000000000
0.94306992474019750000000000000000000000000000000000 0.39874949866434980000000000000000000000000000000000 -2.50692093235592760000000000000000000000000000000000 1.15473399265426060000000000000000000000000000000000 2.07847599418743870000000000000000000000000000000000 -1.78251259647245060000000000000000000000000000000000 -0.44524657270442014000000000000000000000000000000000 -3.31555360249804030000000000000000000000000000000000 2.32040194011217030000000000000000000000000000000000 -2.11002922734077100000000000000000000000000000000000 -3.01675268241164350000000000000000000000000000000000
