-0.60752728661418020000000000000000000000000000000000 2.02125404874293670000000000000000000000000000000000 1.60876265620840000000000000000000000000000000000000 0.64678413793763730000000000000000000000000000000000 -0.12220281590424766000000000000000000000000000000000 1.52895182506574060000000000000000000000000000000000 2.79401932003729230000000000000000000000000000000000 0.64559603933854360000000000000000000000000000000000 1.12326665176158640000000000000000000000000000000000 1.33673098064629610000000000000000000000000000000000 0.30091065636409775000000000000000000000000000000000 0.60890487377743610000000000000000000000000000000000 1.69430444810583470000000000000000000000000000000000 0.73650888979944230000000000000000000000000000000000 0.87877349990984580000000000000000000000000000000000 -0.15194418829578965000000000000000000000000000000000 2.42438524479064330000000000000000000000000000000000 2.08328619117547300000000000000000000000000000000000 2.04707431179274000000000000000000000000000000000000 1.16905535892957910000000000000000000000000000000000 0.10751094915524656000000000000000000000000000000000 1.27690045965209250000000000000000000000000000000000 0.68833273169425250000000000000000000000000000000000 -0.87960768494337390000000000000000000000000000000000 0.95728668630103140000000000000000000000000000000000 0.45215975396257660000000000000000000000000000000000 -0.03168298880025991600000000000000000000000000000000 -0.04695949793289909400000000000000000000000000000000 1.31076969582888810000000000000000000000000000000000 1.82656469949911960000000000000000000000000000000000 1.37576594020300070000000000000000000000000000000000 0.21228521225256405000000000000000000000000000000000 2.26868989699239830000000000000000000000000000000000 2.33254274846349530000000000000000000000000000000000 1.13690938350631800000000000000000000000000000000000 0.28803521024702494000000000000000000000000000000000 0.85986829778854280000000000000000000000000000000000 2.16208691971336300000000000000000000000000000000000 0.95555717342181350000000000000000000000000000000000 1.99915859305647970000000000000000000000000000000000 0.54597042860320110000000000000000000000000000000000 1.80782741779109470000000000000000000000000000000000 0.83794110204469660000000000000000000000000000000000 3.09711138193818460000000000000000000000000000000000 0.49784812357734500000000000000000000000000000000000 2.92929131311049100000000000000000000000000000000000 -0.00681892813426017600000000000000000000000000000000 1.57120396840439120000000000000000000000000000000000 -0.09508053275635198000000000000000000000000000000000 0.89056552399054890000000000000000000000000000000000 2.08317498352271850000000000000000000000000000000000 0.60536709966562560000000000000000000000000000000000 -0.81962970962119450000000000000000000000000000000000 2.75989405632269700000000000000000000000000000000000 1.71903177958701200000000000000000000000000000000000 1.28267543725841770000000000000000000000000000000000 1.15885268366984520000000000000000000000000000000000 1.13556689767163700000000000000000000000000000000000 0.10105477220014820000000000000000000000000000000000 0.28683184600426260000000000000000000000000000000000 2.30611675611982400000000000000000000000000000000000
-0.00135639772956902500000000000000000000000000000000 -0.00087950643191313650000000000000000000000000000000 0.00096012161454977180000000000000000000000000000000 -0.00216273672625042540000000000000000000000000000000 0.00035890574256007936000000000000000000000000000000 -0.00176728252833572090000000000000000000000000000000 -0.00107796552510764610000000000000000000000000000000 -0.00133369371024917520000000000000000000000000000000 0.00086779454172296720000000000000000000000000000000 -0.00086980987452947830000000000000000000000000000000 0.00047526143973165400000000000000000000000000000000 -0.00083539526402674640000000000000000000000000000000 -0.00061263930104701050000000000000000000000000000000 0.00104891111779949020000000000000000000000000000000 0.00248660612389521900000000000000000000000000000000 -0.00181016367982032030000000000000000000000000000000 -0.00265535711186800500000000000000000000000000000000 -0.00254057309227462600000000000000000000000000000000 -0.00060270338205223580000000000000000000000000000000 -0.00248802831546482630000000000000000000000000000000 -0.00311109349325834530000000000000000000000000000000 -0.00147695931574890740000000000000000000000000000000 -0.00032352342719279550000000000000000000000000000000 -0.00203503894523570800000000000000000000000000000000 0.00028222489849504690000000000000000000000000000000 -0.00088536489077753930000000000000000000000000000000 -0.00278332473380687750000000000000000000000000000000 0.00128115951803323660000000000000000000000000000000 -0.00161006043549495470000000000000000000000000000000 -0.00125964773500077160000000000000000000000000000000 0.00003137852445538839000000000000000000000000000000 -0.00149281415347563270000000000000000000000000000000 -0.00049541426583264040000000000000000000000000000000 0.00027346225219039360000000000000000000000000000000 -0.00046670058600884120000000000000000000000000000000 -0.00164663228835235660000000000000000000000000000000 -0.00156737413613448110000000000000000000000000000000 0.00013282339325462386000000000000000000000000000000 -0.00031926031755159490000000000000000000000000000000 -0.00066596808720086580000000000000000000000000000000 -0.00232502995475107800000000000000000000000000000000 -0.00025517243066707987000000000000000000000000000000 -0.00191873150173083700000000000000000000000000000000 0.00019417201191090656000000000000000000000000000000 0.00118389473904941330000000000000000000000000000000 -0.00184801647458357740000000000000000000000000000000 -0.00126011588585954240000000000000000000000000000000 -0.00121298302912995430000000000000000000000000000000 -0.00099895476598005650000000000000000000000000000000 0.00245015929983737140000000000000000000000000000000 0.00044264928750657165000000000000000000000000000000 0.00026209939303427517000000000000000000000000000000 -0.00070575878019478090000000000000000000000000000000 -0.00041994070703960573000000000000000000000000000000 -0.00397224775202642300000000000000000000000000000000 0.00162224501528680180000000000000000000000000000000 -0.00055352549989468210000000000000000000000000000000 -0.00166870708578142680000000000000000000000000000000 -0.00069960016157307410000000000000000000000000000000 -0.00125606424517476750000000000000000000000000000000 -0.00009618069688274126000000000000000000000000000000
-0.00167209829979951890000000000000000000000000000000 -0.00061015251273568520000000000000000000000000000000 -0.00159470534184648350000000000000000000000000000000 -0.00109150084756794680000000000000000000000000000000 0.00012055431194906926000000000000000000000000000000 -0.00338949300737836480000000000000000000000000000000 0.00115468787051869110000000000000000000000000000000 0.00055595773330924210000000000000000000000000000000 0.00070132230203177480000000000000000000000000000000 0.00118823701977923680000000000000000000000000000000 0.00028618458765609100000000000000000000000000000000 -0.00042397695342224040000000000000000000000000000000 0.00026057757902383334000000000000000000000000000000 -0.00172576946658282520000000000000000000000000000000 0.00028477233915405215000000000000000000000000000000 -0.00224596873847543500000000000000000000000000000000 0.00066550557258504160000000000000000000000000000000 -0.00142223030003738230000000000000000000000000000000 -0.00085111573310888930000000000000000000000000000000 0.00001529857233307824400000000000000000000000000000 0.00055453823562478070000000000000000000000000000000 0.00028552179145859720000000000000000000000000000000 0.00073409733899427980000000000000000000000000000000 -0.00083193540819293150000000000000000000000000000000 -0.00152214012990945810000000000000000000000000000000 -0.00220291092524285350000000000000000000000000000000 -0.00005150315564478173000000000000000000000000000000 0.00065510021564634420000000000000000000000000000000 -0.00051366577395136690000000000000000000000000000000 -0.00064503123039914660000000000000000000000000000000 -0.00098447610155217440000000000000000000000000000000 0.00014157190023013182000000000000000000000000000000 0.00057027471992959170000000000000000000000000000000 -0.00342143905222058340000000000000000000000000000000 -0.00069881974708532230000000000000000000000000000000 -0.00060971095602785310000000000000000000000000000000 -0.00197059416189371330000000000000000000000000000000 -0.00022657248951542144000000000000000000000000000000 -0.00055031918886830280000000000000000000000000000000 -0.00029257716290946680000000000000000000000000000000 0.00117914686849734600000000000000000000000000000000 -0.00009731806866687188000000000000000000000000000000 -0.00025414146792166420000000000000000000000000000000 -0.00109553946298629030000000000000000000000000000000 -0.00012961383973483093000000000000000000000000000000 -0.00103692649722086030000000000000000000000000000000 -0.00017874747837446465000000000000000000000000000000 -0.00231940423684225130000000000000000000000000000000 -0.00059175755667088320000000000000000000000000000000 -0.00081871161865391900000000000000000000000000000000 -0.00285351705847858080000000000000000000000000000000 0.00156417475812143300000000000000000000000000000000 0.00192815897963044630000000000000000000000000000000 0.00177434248251329000000000000000000000000000000000 0.00054119109182454080000000000000000000000000000000 -0.00150539329162771700000000000000000000000000000000 -0.00077649783632843710000000000000000000000000000000 -0.00117486115523093330000000000000000000000000000000 -0.00073184681876267870000000000000000000000000000000 -0.00285947102357084720000000000000000000000000000000 -0.00104602284956508530000000000000000000000000000000
0.00051297253290034070000000000000000000000000000000 0.00011270947504787377000000000000000000000000000000 -0.00013084083952160470000000000000000000000000000000 -0.00106746103347214090000000000000000000000000000000 -0.00071695864505689090000000000000000000000000000000 -0.00057931424248612990000000000000000000000000000000 0.00013596814947635922000000000000000000000000000000 -0.00340134846506197740000000000000000000000000000000 0.00030858805415934166000000000000000000000000000000 -0.00099776710128524460000000000000000000000000000000 -0.00068422557283921630000000000000000000000000000000 0.00055626645842916250000000000000000000000000000000 -0.00114993424374750440000000000000000000000000000000 -0.00149426292395757770000000000000000000000000000000 0.00284424645159259200000000000000000000000000000000 -0.00221180837776088380000000000000000000000000000000 0.00193556363631415670000000000000000000000000000000 -0.00102037662999148470000000000000000000000000000000 -0.00148574553512364240000000000000000000000000000000 0.00052833980870336100000000000000000000000000000000 0.00038137620374795080000000000000000000000000000000 -0.00118965024641635780000000000000000000000000000000 -0.00096997255969983760000000000000000000000000000000 -0.00243822240674886750000000000000000000000000000000 -0.00080484404405613380000000000000000000000000000000 0.00003440743734426190400000000000000000000000000000 0.00037588337952306830000000000000000000000000000000 -0.00060933724450761100000000000000000000000000000000 -0.00292290677972951740000000000000000000000000000000 -0.00201753418097586850000000000000000000000000000000 0.00128232332314762340000000000000000000000000000000 0.00114968323359758390000000000000000000000000000000 0.00053272045597673020000000000000000000000000000000 -0.00017137536841132063000000000000000000000000000000 -0.00009231262183510727000000000000000000000000000000 -0.00003494797735533546000000000000000000000000000000 -0.00131830581942442200000000000000000000000000000000 -0.00002289801601902587800000000000000000000000000000 -0.00119846163053831480000000000000000000000000000000 0.00050828425319616590000000000000000000000000000000 -0.00174275171384181800000000000000000000000000000000 0.00022664380348061755000000000000000000000000000000 -0.00054416657752813470000000000000000000000000000000 -0.00166041743789623140000000000000000000000000000000 0.00063708074434096980000000000000000000000000000000 -0.00036294124603472155000000000000000000000000000000 0.00234811534898098500000000000000000000000000000000 -0.00142652336333087020000000000000000000000000000000 0.00045583061026799223000000000000000000000000000000 0.00067856296697139520000000000000000000000000000000 -0.00059538304588877310000000000000000000000000000000 -0.00216685906314014730000000000000000000000000000000 -0.00012564447076240644000000000000000000000000000000 -0.00106049288897597930000000000000000000000000000000 -0.00206818102456995300000000000000000000000000000000 -0.00162106223549522300000000000000000000000000000000 0.00219177692906520700000000000000000000000000000000 -0.00237506604223718800000000000000000000000000000000 0.00009087025895305470000000000000000000000000000000 -0.00147811785827716740000000000000000000000000000000 -0.00238075104191533600000000000000000000000000000000
-0.00136711863030343540000000000000000000000000000000 -0.00094451292828804800000000000000000000000000000000 0.00213114243903792360000000000000000000000000000000 0.00042122153869919110000000000000000000000000000000 -0.00182864477964408580000000000000000000000000000000 -0.00147685401185477940000000000000000000000000000000 -0.00128616758513940240000000000000000000000000000000 -0.00057708965798702720000000000000000000000000000000 -0.00134098810348745120000000000000000000000000000000 0.00093932708483761660000000000000000000000000000000 -0.00104887177088349810000000000000000000000000000000 0.00070801924195121360000000000000000000000000000000 0.00043352729480254225000000000000000000000000000000 -0.00248309229023313100000000000000000000000000000000 -0.00067121521658202320000000000000000000000000000000 -0.00158725578111536950000000000000000000000000000000 0.00137140986031532080000000000000000000000000000000 -0.00092490662303699270000000000000000000000000000000 0.00082016463621741650000000000000000000000000000000 -0.00064192001113770360000000000000000000000000000000 -0.00165785322099349860000000000000000000000000000000 -0.00094559542189137450000000000000000000000000000000 -0.00152367882672068070000000000000000000000000000000 0.00080718288423115260000000000000000000000000000000 -0.00160379040831067320000000000000000000000000000000 -0.00190557954887698600000000000000000000000000000000 0.00002361359107564895000000000000000000000000000000 -0.00197780758489825030000000000000000000000000000000 0.00009342077581421060000000000000000000000000000000 -0.00068815399159838850000000000000000000000000000000 -0.00097906937710033920000000000000000000000000000000 -0.00074781087071318280000000000000000000000000000000 0.00014062504507691790000000000000000000000000000000 -0.00090156011258799600000000000000000000000000000000 0.00023932135641875110000000000000000000000000000000 0.00079203132127808380000000000000000000000000000000 -0.00123886739361453800000000000000000000000000000000 0.00057742461244696040000000000000000000000000000000 0.00038980890776362950000000000000000000000000000000 -0.00204971742592622350000000000000000000000000000000 -0.00208513488365426060000000000000000000000000000000 -0.00075872066847233450000000000000000000000000000000 0.00123007962721801650000000000000000000000000000000 0.00068852543875379510000000000000000000000000000000 -0.00197442546432302550000000000000000000000000000000 -0.00092228132534488850000000000000000000000000000000 -0.00151156059086372200000000000000000000000000000000 -0.00209377049651440600000000000000000000000000000000 -0.00077950000016218600000000000000000000000000000000 -0.00029324297901784600000000000000000000000000000000 0.00010081561232391020000000000000000000000000000000 0.00105082021075618380000000000000000000000000000000 0.00003694010415771984000000000000000000000000000000 -0.00120150257609384640000000000000000000000000000000 -0.00318678222635871000000000000000000000000000000000 -0.00186418401192992240000000000000000000000000000000 0.00089684016172530280000000000000000000000000000000 -0.00112234413741155260000000000000000000000000000000 -0.00056683235284964990000000000000000000000000000000 -0.00276316680515531000000000000000000000000000000000 -0.00103615059844390940000000000000000000000000000000
-0.00223686421833248430000000000000000000000000000000 -0.00021343108485288165000000000000000000000000000000 -0.00344896439319935470000000000000000000000000000000 0.00116243805947610240000000000000000000000000000000 0.00030373699994087325000000000000000000000000000000 0.00074582121985186900000000000000000000000000000000 0.00001165003399698132200000000000000000000000000000 -0.00115520300338902650000000000000000000000000000000 -0.00032939897391545475000000000000000000000000000000 -0.00214455564150755200000000000000000000000000000000 -0.00169865607831709820000000000000000000000000000000 -0.00078752582030695360000000000000000000000000000000 -0.00105272528752013500000000000000000000000000000000 -0.00262942615935889700000000000000000000000000000000 -0.00051251740133544200000000000000000000000000000000 0.00026766656005600380000000000000000000000000000000 0.00081548172888948670000000000000000000000000000000 -0.00108411452849566210000000000000000000000000000000 0.00054017561418171290000000000000000000000000000000 -0.00180279115519886400000000000000000000000000000000 0.00076939368004282700000000000000000000000000000000 -0.00032656449135458614000000000000000000000000000000 -0.00065362174668684480000000000000000000000000000000 0.00022710753847490480000000000000000000000000000000 0.00021110733464897193000000000000000000000000000000 -0.00084011181679593280000000000000000000000000000000 0.00077789764219479210000000000000000000000000000000 -0.00287742948394286880000000000000000000000000000000 -0.00147818924126616850000000000000000000000000000000 -0.00041404769273271710000000000000000000000000000000 -0.00177395021835476810000000000000000000000000000000 0.00049785934764697670000000000000000000000000000000 -0.00072157700600540640000000000000000000000000000000 -0.00146483334983427100000000000000000000000000000000 0.00110757000041216990000000000000000000000000000000 -0.00011078840184047735000000000000000000000000000000 0.00104545837849141300000000000000000000000000000000 -0.00026897949517594655000000000000000000000000000000 0.00079297730306314870000000000000000000000000000000 -0.00001821018789703620400000000000000000000000000000 -0.00257778818571528900000000000000000000000000000000 -0.00024188687670749119000000000000000000000000000000 -0.00063321858023145240000000000000000000000000000000 -0.00101318155807499260000000000000000000000000000000 -0.00137097549223057790000000000000000000000000000000 0.00019321813918811925000000000000000000000000000000 -0.00127249723014114660000000000000000000000000000000 -0.00139614349189871780000000000000000000000000000000 -0.00137108364041667800000000000000000000000000000000 0.00000870893293662895000000000000000000000000000000 0.00054578297736058760000000000000000000000000000000 -0.00115968654709966400000000000000000000000000000000 -0.00111657426100809600000000000000000000000000000000 0.00022329255165717777000000000000000000000000000000 0.00012259780665383304000000000000000000000000000000 -0.00045385752868548526000000000000000000000000000000 0.00140783348201651420000000000000000000000000000000 -0.00016445937382065774000000000000000000000000000000 -0.00096815053214309990000000000000000000000000000000 0.00228420788633423030000000000000000000000000000000 -0.00085360498697676500000000000000000000000000000000
-0.00165702867862655040000000000000000000000000000000 -0.00042670193297331880000000000000000000000000000000 -0.00187135839885790550000000000000000000000000000000 -0.00023707631872915300000000000000000000000000000000 0.00235044876229447400000000000000000000000000000000 -0.00168424328890832200000000000000000000000000000000 0.00000858834132379802200000000000000000000000000000 -0.00046953475185250925000000000000000000000000000000 0.00045532251612861454000000000000000000000000000000 0.00031817279058712550000000000000000000000000000000 -0.00117297784566347200000000000000000000000000000000 -0.00009352076149277361000000000000000000000000000000 -0.00129998177670041860000000000000000000000000000000 -0.00176052763080171250000000000000000000000000000000 0.00193043108564591640000000000000000000000000000000 -0.00180391076398982730000000000000000000000000000000 -0.00034118146568718580000000000000000000000000000000 -0.00086749366726379200000000000000000000000000000000 -0.00342842781418405300000000000000000000000000000000 -0.00148724399605414030000000000000000000000000000000 -0.00059085692084801610000000000000000000000000000000 -0.00056539188562237700000000000000000000000000000000 -0.00102621642891655870000000000000000000000000000000 -0.00200833021418463000000000000000000000000000000000 -0.00221049187750435200000000000000000000000000000000 -0.00278188866946865430000000000000000000000000000000 -0.00285210663276038600000000000000000000000000000000 -0.00057580523592505450000000000000000000000000000000 0.00027414904645516416000000000000000000000000000000 -0.00269999461886046050000000000000000000000000000000 -0.00042350302069488460000000000000000000000000000000 -0.00088646258471735700000000000000000000000000000000 0.00070015530720835960000000000000000000000000000000 -0.00130583850264175650000000000000000000000000000000 0.00231309762528206800000000000000000000000000000000 -0.00212404633683005140000000000000000000000000000000 -0.00037273495538769500000000000000000000000000000000 0.00081195888315900070000000000000000000000000000000 -0.00001583514687487669500000000000000000000000000000 0.00157020153825411340000000000000000000000000000000 0.00018470904714602268000000000000000000000000000000 -0.00151866840342893360000000000000000000000000000000 0.00065524234178745810000000000000000000000000000000 -0.00086208594681204180000000000000000000000000000000 0.00034347480408113130000000000000000000000000000000 -0.00187821120256871730000000000000000000000000000000 -0.00005783645946742994300000000000000000000000000000 0.00042149347582635260000000000000000000000000000000 0.00073345284356683120000000000000000000000000000000 -0.00261893457470459840000000000000000000000000000000 0.00365205127648599900000000000000000000000000000000 -0.00017509187120287610000000000000000000000000000000 0.00132089767319160370000000000000000000000000000000 0.00044050044119420770000000000000000000000000000000 -0.00004131895427878602400000000000000000000000000000 -0.00144980130336031810000000000000000000000000000000 -0.00206521091712201500000000000000000000000000000000 0.00079209786462823850000000000000000000000000000000 0.00092892424981403550000000000000000000000000000000 -0.00071399914361067210000000000000000000000000000000 -0.00068531646313632390000000000000000000000000000000
-0.00128968199249031080000000000000000000000000000000 -0.00190075917208140650000000000000000000000000000000 -0.00206748200632689850000000000000000000000000000000 -0.00091367240895609070000000000000000000000000000000 -0.00190555341116093200000000000000000000000000000000 -0.00131044922028769240000000000000000000000000000000 -0.00001214853908205158800000000000000000000000000000 -0.00091360116576342180000000000000000000000000000000 -0.00201501735483062150000000000000000000000000000000 -0.00110190958043494600000000000000000000000000000000 -0.00051465739582759690000000000000000000000000000000 -0.00056362343418161850000000000000000000000000000000 -0.00055965617147289260000000000000000000000000000000 -0.00224329159107866400000000000000000000000000000000 -0.00012587725852261460000000000000000000000000000000 -0.00030666663145742084000000000000000000000000000000 -0.00048159343529479500000000000000000000000000000000 0.00290035877052850600000000000000000000000000000000 -0.00009786316977321188000000000000000000000000000000 -0.00111450318678878800000000000000000000000000000000 0.00178607163761453430000000000000000000000000000000 -0.00150751190727102870000000000000000000000000000000 -0.00306078334842374350000000000000000000000000000000 0.00041200669515278540000000000000000000000000000000 -0.00064317591230514610000000000000000000000000000000 -0.00086508140515064530000000000000000000000000000000 -0.00385549428343105130000000000000000000000000000000 0.00112947170656566830000000000000000000000000000000 0.00109201189307167560000000000000000000000000000000 -0.00078386599905054740000000000000000000000000000000 -0.00246538333503103660000000000000000000000000000000 -0.00262537820569032660000000000000000000000000000000 -0.00060300175218139210000000000000000000000000000000 -0.00272211123981685270000000000000000000000000000000 0.00122505627868510100000000000000000000000000000000 0.00029528162392887750000000000000000000000000000000 -0.00320708793483360940000000000000000000000000000000 -0.00202157903441659840000000000000000000000000000000 0.00177963242366384720000000000000000000000000000000 -0.00085388465093728960000000000000000000000000000000 -0.00062749432476432520000000000000000000000000000000 0.00052733965521756560000000000000000000000000000000 -0.00002594761762734956000000000000000000000000000000 -0.00106754378888947740000000000000000000000000000000 -0.00127642342071835080000000000000000000000000000000 -0.00098921242421865280000000000000000000000000000000 -0.00090033805595704290000000000000000000000000000000 0.00137539527484394990000000000000000000000000000000 -0.00000288954645995351950000000000000000000000000000 -0.00054880777985686430000000000000000000000000000000 0.00132437635345910130000000000000000000000000000000 0.00007635403226649313000000000000000000000000000000 -0.00096869740971469550000000000000000000000000000000 -0.00085563060836109560000000000000000000000000000000 -0.00039398539866275246000000000000000000000000000000 -0.00092047871290068400000000000000000000000000000000 -0.00032394419965471780000000000000000000000000000000 -0.00259791204674571450000000000000000000000000000000 -0.00193382231444488460000000000000000000000000000000 0.00159751039513076100000000000000000000000000000000 0.00025233724775191387000000000000000000000000000000
-0.00051854736286350200000000000000000000000000000000 -0.00204320552281354440000000000000000000000000000000 -0.00065637505716230340000000000000000000000000000000 -0.00076866742531155690000000000000000000000000000000 -0.00099790378673259540000000000000000000000000000000 -0.00147304311467536710000000000000000000000000000000 -0.00110709187814277280000000000000000000000000000000 -0.00040434602360894003000000000000000000000000000000 -0.00021566875377009985000000000000000000000000000000 -0.00117169392347370540000000000000000000000000000000 0.00078732286829193830000000000000000000000000000000 -0.00145134825736334700000000000000000000000000000000 -0.00121670099948210950000000000000000000000000000000 0.00001789551616020060400000000000000000000000000000 -0.00059372280352975480000000000000000000000000000000 -0.00221148573075452100000000000000000000000000000000 -0.00088746457383773560000000000000000000000000000000 -0.00049459188634396630000000000000000000000000000000 0.00027663806548516346000000000000000000000000000000 0.00005318176919269762000000000000000000000000000000 -0.00235742272233826100000000000000000000000000000000 0.00100727076966259390000000000000000000000000000000 0.00147541398989760800000000000000000000000000000000 0.00059365218207139310000000000000000000000000000000 -0.00178743285365103990000000000000000000000000000000 -0.00045451397720369896000000000000000000000000000000 -0.00159036095395242580000000000000000000000000000000 -0.00090142546758884460000000000000000000000000000000 -0.00267671622292212260000000000000000000000000000000 -0.00043412553810097436000000000000000000000000000000 -0.00193831555105733730000000000000000000000000000000 -0.00332835566503468500000000000000000000000000000000 -0.00004876912965447546000000000000000000000000000000 -0.00168664097984377600000000000000000000000000000000 0.00043525823155417350000000000000000000000000000000 -0.00077183282022712700000000000000000000000000000000 -0.00087867836620639000000000000000000000000000000000 -0.00055879509342832680000000000000000000000000000000 -0.00130342872484803240000000000000000000000000000000 0.00064588334380999070000000000000000000000000000000 0.00018958441897420290000000000000000000000000000000 -0.00219518094008432820000000000000000000000000000000 -0.00148696483803411360000000000000000000000000000000 -0.00180992367774732630000000000000000000000000000000 0.00010761655581095070000000000000000000000000000000 -0.00195541865212322560000000000000000000000000000000 -0.00133153220011563570000000000000000000000000000000 -0.00036866229069661995000000000000000000000000000000 -0.00385951524549923030000000000000000000000000000000 0.00172691814269029800000000000000000000000000000000 -0.00044447806222524490000000000000000000000000000000 -0.00116215360077615200000000000000000000000000000000 0.00084108929320614860000000000000000000000000000000 -0.00224600766308259700000000000000000000000000000000 -0.00099242264153722070000000000000000000000000000000 -0.00131584517347731060000000000000000000000000000000 0.00019421024699632140000000000000000000000000000000 -0.00118086960379828240000000000000000000000000000000 0.00078978483603889230000000000000000000000000000000 -0.00010277619840627097000000000000000000000000000000 -0.00122234680261781000000000000000000000000000000000
0.00094662956794132260000000000000000000000000000000 -0.00240364818924442870000000000000000000000000000000 0.00083192248264909130000000000000000000000000000000 0.00055564221070731940000000000000000000000000000000 -0.00090395436008187700000000000000000000000000000000 -0.00088013792696866610000000000000000000000000000000 -0.00156959139205641420000000000000000000000000000000 0.00022902732821905732000000000000000000000000000000 -0.00244435395468214000000000000000000000000000000000 -0.00087431288171343560000000000000000000000000000000 -0.00034608284670054210000000000000000000000000000000 0.00019245255239735309000000000000000000000000000000 0.00141368318617473470000000000000000000000000000000 0.00023226661747938855000000000000000000000000000000 -0.00171816415821464530000000000000000000000000000000 -0.00152433618922937030000000000000000000000000000000 -0.00181004691469464170000000000000000000000000000000 0.00001621566401570037000000000000000000000000000000 -0.00337174229627391340000000000000000000000000000000 0.00121073891468444900000000000000000000000000000000 -0.00106494042166308540000000000000000000000000000000 0.00063927092177950720000000000000000000000000000000 -0.00081923206832630840000000000000000000000000000000 -0.00023190941318908655000000000000000000000000000000 0.00034365081397558890000000000000000000000000000000 -0.00197995947265468740000000000000000000000000000000 -0.00063996402384924440000000000000000000000000000000 -0.00112963416087049080000000000000000000000000000000 0.00217880741333548100000000000000000000000000000000 0.00035477073104627063000000000000000000000000000000 -0.00154375389994526650000000000000000000000000000000 -0.00113740554633339900000000000000000000000000000000 -0.00013712024368823812000000000000000000000000000000 -0.00024065149974211070000000000000000000000000000000 -0.00040511252623320760000000000000000000000000000000 -0.00106532503903495060000000000000000000000000000000 -0.00037375660758422940000000000000000000000000000000 -0.00052018024132807200000000000000000000000000000000 -0.00015994435941810050000000000000000000000000000000 -0.00134996937535221970000000000000000000000000000000 0.00177006493340091040000000000000000000000000000000 -0.00261609192621550760000000000000000000000000000000 -0.00065181992498103490000000000000000000000000000000 0.00091575535361545350000000000000000000000000000000 0.00066665225331026260000000000000000000000000000000 -0.00032208102403490313000000000000000000000000000000 -0.00092138636828301280000000000000000000000000000000 0.00020827311926840118000000000000000000000000000000 -0.00151330566084925370000000000000000000000000000000 -0.00045150593853972180000000000000000000000000000000 -0.00265320327821275300000000000000000000000000000000 -0.00056952115813110190000000000000000000000000000000 -0.00142276998453259690000000000000000000000000000000 0.00048182293894780940000000000000000000000000000000 -0.00099830344641012700000000000000000000000000000000 -0.00197393636734396500000000000000000000000000000000 -0.00256636636707774900000000000000000000000000000000 0.00046536412842169766000000000000000000000000000000 -0.00061745821072989010000000000000000000000000000000 -0.00148691224212677000000000000000000000000000000000 0.00090900168583910330000000000000000000000000000000
-0.00246388058275422930000000000000000000000000000000 -0.00194104819722262660000000000000000000000000000000 -0.00129904877219950040000000000000000000000000000000 -0.00226977951250672320000000000000000000000000000000 -0.00396903017740658500000000000000000000000000000000 -0.00164940428019655060000000000000000000000000000000 -0.00093415765602582710000000000000000000000000000000 -0.00130703661768216380000000000000000000000000000000 0.00113530247474254950000000000000000000000000000000 -0.00050917032454316340000000000000000000000000000000 -0.00251811957911715600000000000000000000000000000000 -0.00114401097767802200000000000000000000000000000000 -0.00215173908195894700000000000000000000000000000000 -0.00138853718407504260000000000000000000000000000000 -0.00106169725381859950000000000000000000000000000000 -0.00096754423103168040000000000000000000000000000000 0.00088296363398548800000000000000000000000000000000 -0.00133042937113036660000000000000000000000000000000 0.00066774971863368330000000000000000000000000000000 -0.00045631835688004990000000000000000000000000000000 -0.00028710247362205000000000000000000000000000000000 -0.00029759595011874936000000000000000000000000000000 -0.00058400293137368200000000000000000000000000000000 -0.00071158309987135840000000000000000000000000000000 0.00098097334622819280000000000000000000000000000000 -0.00163773811091096330000000000000000000000000000000 0.00019276579915154790000000000000000000000000000000 -0.00311735183345571760000000000000000000000000000000 0.00060891761304249670000000000000000000000000000000 -0.00012651005826502620000000000000000000000000000000 -0.00097273766633450750000000000000000000000000000000 -0.00235726332764499900000000000000000000000000000000 -0.00093031140025967070000000000000000000000000000000 0.00087711280703569120000000000000000000000000000000 -0.00239136968546569370000000000000000000000000000000 -0.00190105979489879140000000000000000000000000000000 -0.00091560060333467680000000000000000000000000000000 -0.00109945532450913970000000000000000000000000000000 -0.00290135653913578400000000000000000000000000000000 -0.00046776286100065330000000000000000000000000000000 0.00094281959033878370000000000000000000000000000000 -0.00095978531246827880000000000000000000000000000000 0.00004873204586219859500000000000000000000000000000 -0.00000645040940274637200000000000000000000000000000 -0.00179337651624659250000000000000000000000000000000 -0.00013709764786753607000000000000000000000000000000 0.00188902291207001130000000000000000000000000000000 -0.00082497275668540200000000000000000000000000000000 -0.00047522836537180883000000000000000000000000000000 -0.00191699929791698140000000000000000000000000000000 0.00106127544381421970000000000000000000000000000000 -0.00120469866393206200000000000000000000000000000000 -0.00065397819736799460000000000000000000000000000000 0.00020307540562287366000000000000000000000000000000 0.00168258197226086670000000000000000000000000000000 -0.00118276505019802340000000000000000000000000000000 -0.00148838994751612950000000000000000000000000000000 0.00129274487323258280000000000000000000000000000000 0.00057683577222352650000000000000000000000000000000 -0.00007591005080071433000000000000000000000000000000 -0.00073559117519406640000000000000000000000000000000
0.00033855983337266080000000000000000000000000000000 -0.00096999318676634520000000000000000000000000000000 0.00141014967576221690000000000000000000000000000000 0.00113846774890361470000000000000000000000000000000 -0.00079058704154349540000000000000000000000000000000 -0.00032479565014231250000000000000000000000000000000 -0.00135155085781885720000000000000000000000000000000 -0.00132009422338430650000000000000000000000000000000 -0.00042855881173132875000000000000000000000000000000 0.00123071836421054710000000000000000000000000000000 -0.00168132272611422290000000000000000000000000000000 0.00039319382105389383000000000000000000000000000000 -0.00145655601326555850000000000000000000000000000000 -0.00173547205292231550000000000000000000000000000000 -0.00191825955315162030000000000000000000000000000000 -0.00092435323658783980000000000000000000000000000000 -0.00135850376825251370000000000000000000000000000000 -0.00090822648425054480000000000000000000000000000000 0.00012934705860577337000000000000000000000000000000 -0.00229068220606199430000000000000000000000000000000 0.00043789573049974480000000000000000000000000000000 -0.00368644313025503440000000000000000000000000000000 0.00052405225429704440000000000000000000000000000000 -0.00138282540971811950000000000000000000000000000000 -0.00076623550380644580000000000000000000000000000000 -0.00237205342931796300000000000000000000000000000000 -0.00023220671371595086000000000000000000000000000000 0.00145938006120132630000000000000000000000000000000 -0.00019334383904701574000000000000000000000000000000 0.00002014461468107940800000000000000000000000000000 0.00039883370359791930000000000000000000000000000000 -0.00082615023766887800000000000000000000000000000000 0.00170748070197296230000000000000000000000000000000 -0.00026618454417172650000000000000000000000000000000 -0.00165807528605464800000000000000000000000000000000 0.00109036703310333570000000000000000000000000000000 -0.00103251676367929710000000000000000000000000000000 -0.00079340798162050380000000000000000000000000000000 -0.00223236408450088500000000000000000000000000000000 -0.00079532606656678340000000000000000000000000000000 -0.00061175194009191420000000000000000000000000000000 0.00005916932410529043000000000000000000000000000000 -0.00064319739524916640000000000000000000000000000000 -0.00027818305539509480000000000000000000000000000000 0.00082590355734698960000000000000000000000000000000 0.00222569203306722480000000000000000000000000000000 -0.00110985717950471070000000000000000000000000000000 -0.00317916799533009360000000000000000000000000000000 -0.00157391268042766370000000000000000000000000000000 0.00042112641985435275000000000000000000000000000000 -0.00056461812716165880000000000000000000000000000000 -0.00100348975803445050000000000000000000000000000000 0.00019901657990499283000000000000000000000000000000 -0.00100520843919714920000000000000000000000000000000 -0.00109739415075685230000000000000000000000000000000 -0.00082335454279579080000000000000000000000000000000 -0.00256583506252096960000000000000000000000000000000 -0.00354199199526243360000000000000000000000000000000 -0.00055900568887520470000000000000000000000000000000 -0.00024115705569444810000000000000000000000000000000 0.00107738480863693460000000000000000000000000000000
-0.00211454033788714500000000000000000000000000000000 -0.00037656689676861950000000000000000000000000000000 -0.00027311824272295706000000000000000000000000000000 -0.00157386714249936440000000000000000000000000000000 -0.00048216455811577504000000000000000000000000000000 -0.00053454380031122990000000000000000000000000000000 -0.00162769924241132400000000000000000000000000000000 -0.00058645276012514880000000000000000000000000000000 0.00086038007981060770000000000000000000000000000000 -0.00232377307171906680000000000000000000000000000000 -0.00033283101861057647000000000000000000000000000000 0.00029810178681963066000000000000000000000000000000 -0.00061690390920502740000000000000000000000000000000 -0.00218532087403117900000000000000000000000000000000 -0.00157266066001613200000000000000000000000000000000 -0.00025851533933466020000000000000000000000000000000 -0.00026212454324896620000000000000000000000000000000 0.00297338530944263100000000000000000000000000000000 -0.00157295579101522300000000000000000000000000000000 -0.00351875046575595570000000000000000000000000000000 0.00026946305645966490000000000000000000000000000000 -0.00071768134180710060000000000000000000000000000000 0.00185178182742360780000000000000000000000000000000 -0.00277522777003670830000000000000000000000000000000 0.00175016378774990770000000000000000000000000000000 0.00198257496813630160000000000000000000000000000000 -0.00082203459391573880000000000000000000000000000000 -0.00299843493760805000000000000000000000000000000000 0.00053030516860768000000000000000000000000000000000 -0.00036660388475992950000000000000000000000000000000 -0.00176993861964573100000000000000000000000000000000 0.00022205795876173537000000000000000000000000000000 -0.00030350902636326306000000000000000000000000000000 -0.00100487718567003400000000000000000000000000000000 0.00142677454983769060000000000000000000000000000000 -0.00011764458381826064000000000000000000000000000000 -0.00115654318782311000000000000000000000000000000000 -0.00156887009871355940000000000000000000000000000000 0.00014210643549541558000000000000000000000000000000 -0.00111260094430313700000000000000000000000000000000 -0.00233774336486870600000000000000000000000000000000 -0.00255445159156431700000000000000000000000000000000 0.00003797705874376963400000000000000000000000000000 0.00022512472113845370000000000000000000000000000000 -0.00258297913906074700000000000000000000000000000000 -0.00011022608179085311000000000000000000000000000000 -0.00211484833189625260000000000000000000000000000000 -0.00272155803501112140000000000000000000000000000000 0.00030127991302711160000000000000000000000000000000 -0.00163619985938253920000000000000000000000000000000 0.00129855978080151230000000000000000000000000000000 -0.00182733013319456240000000000000000000000000000000 0.00111441185279731150000000000000000000000000000000 0.00012810126271181490000000000000000000000000000000 -0.00035735384421101970000000000000000000000000000000 -0.00122534646257550780000000000000000000000000000000 -0.00052071844284605790000000000000000000000000000000 -0.00168362941800973220000000000000000000000000000000 -0.00144572310255321650000000000000000000000000000000 -0.00139285703141138650000000000000000000000000000000 -0.00223386978151953800000000000000000000000000000000
0.00089924627313378820000000000000000000000000000000 -0.00052501232750053080000000000000000000000000000000 0.00710284491986889500000000000000000000000000000000 -0.00361312955013695470000000000000000000000000000000 -0.00508971979871218500000000000000000000000000000000 -0.00236034541775975100000000000000000000000000000000 0.00028989707491504217000000000000000000000000000000 -0.00036515893734929945000000000000000000000000000000 -0.00313235228533944060000000000000000000000000000000 -0.00082738397437117340000000000000000000000000000000 0.00144510894751932910000000000000000000000000000000 -0.00194790095815463360000000000000000000000000000000 0.00649783138563797100000000000000000000000000000000 0.00065573560000253110000000000000000000000000000000 -0.01131954971218837000000000000000000000000000000000 -0.00161756411345046550000000000000000000000000000000 -0.00037463313458050370000000000000000000000000000000 0.00128775137996186620000000000000000000000000000000 -0.00510941844489432700000000000000000000000000000000 -0.00010040698691534521000000000000000000000000000000 0.00152784226792977600000000000000000000000000000000 -0.00126807231412537420000000000000000000000000000000 -0.00267346827634521150000000000000000000000000000000 -0.00946057698161073500000000000000000000000000000000 0.00052518162054475180000000000000000000000000000000 0.00786749213393961700000000000000000000000000000000 -0.00126413470640307400000000000000000000000000000000 -0.00062581582523217580000000000000000000000000000000 0.00135625814971122360000000000000000000000000000000 0.00894342330158765700000000000000000000000000000000 0.00145670922984974900000000000000000000000000000000 0.00175609146955110760000000000000000000000000000000 -0.00298683180249076100000000000000000000000000000000 -0.00451589083756557000000000000000000000000000000000 0.00047206553725537596000000000000000000000000000000 -0.00101502121514725010000000000000000000000000000000 -0.00067843411306339120000000000000000000000000000000 -0.00379874688393841030000000000000000000000000000000 -0.00021852102949511298000000000000000000000000000000 -0.00200423067564113600000000000000000000000000000000 -0.00510103233780412860000000000000000000000000000000 0.00147815019558322100000000000000000000000000000000 -0.00015909518834946303000000000000000000000000000000 0.01035992782890472600000000000000000000000000000000 0.00069222391389169070000000000000000000000000000000 -0.00340225969884247300000000000000000000000000000000 0.00000012959473161567370000000000000000000000000000 -0.00315845127730836430000000000000000000000000000000 -0.00361500592247737540000000000000000000000000000000 0.00152904311696092760000000000000000000000000000000 0.00740518426587253300000000000000000000000000000000 -0.00017219476257141476000000000000000000000000000000 -0.01217141395107751100000000000000000000000000000000 -0.00105517694598866140000000000000000000000000000000 -0.00000368613007377797100000000000000000000000000000 0.00256092959317927500000000000000000000000000000000 -0.00319526583944567970000000000000000000000000000000 0.00161567213440497380000000000000000000000000000000 -0.00074538731586869310000000000000000000000000000000 -0.00129282827500343620000000000000000000000000000000 -0.00146437332625464800000000000000000000000000000000
0.00062698561369603020000000000000000000000000000000 -0.00220311927041047100000000000000000000000000000000 0.01420879037617577300000000000000000000000000000000 -0.00970959107994675400000000000000000000000000000000 -0.01226466983475433400000000000000000000000000000000 -0.00182672695599570130000000000000000000000000000000 -0.00006515857138335270000000000000000000000000000000 0.00212063162684567400000000000000000000000000000000 -0.00031376119291702623000000000000000000000000000000 0.00028629102974398417000000000000000000000000000000 0.00030111664521281897000000000000000000000000000000 -0.00271583860934266130000000000000000000000000000000 0.01568068247515373700000000000000000000000000000000 -0.00162003381591958600000000000000000000000000000000 -0.02110031056474174000000000000000000000000000000000 0.00080856074273235710000000000000000000000000000000 -0.00233881015634350650000000000000000000000000000000 0.00198588877533396060000000000000000000000000000000 -0.01268595699446491100000000000000000000000000000000 -0.00007944419691743477000000000000000000000000000000 0.00775616059629063800000000000000000000000000000000 -0.00475523591358990300000000000000000000000000000000 -0.00395993257127752400000000000000000000000000000000 -0.02225601362480908500000000000000000000000000000000 0.00065270980817265550000000000000000000000000000000 0.01548825482526250800000000000000000000000000000000 -0.00202046137128773700000000000000000000000000000000 -0.00151939429257537530000000000000000000000000000000 -0.00196553941140468170000000000000000000000000000000 0.02210561945426673200000000000000000000000000000000 -0.00187333202105915890000000000000000000000000000000 -0.00020514694070872402000000000000000000000000000000 -0.00097790325075891370000000000000000000000000000000 -0.00893613434521679000000000000000000000000000000000 -0.00114747498017025540000000000000000000000000000000 -0.00052992433174709690000000000000000000000000000000 -0.00016762743009788295000000000000000000000000000000 -0.00273415042204529140000000000000000000000000000000 0.00123129155933181180000000000000000000000000000000 0.00155122673534581150000000000000000000000000000000 -0.00907738293772763900000000000000000000000000000000 -0.00065692955706368070000000000000000000000000000000 0.00079025141575203750000000000000000000000000000000 0.02592211872746215400000000000000000000000000000000 0.00036600106519997034000000000000000000000000000000 -0.00327442665383973750000000000000000000000000000000 -0.00108533538176735770000000000000000000000000000000 -0.00192400628057744780000000000000000000000000000000 -0.00714913035529989000000000000000000000000000000000 -0.00075452487080775230000000000000000000000000000000 0.01178877185403148600000000000000000000000000000000 0.00101494014446574500000000000000000000000000000000 -0.02682076835786678700000000000000000000000000000000 0.00152366044200391290000000000000000000000000000000 -0.00201650197554415970000000000000000000000000000000 -0.00092728498121996430000000000000000000000000000000 -0.00251794655822453870000000000000000000000000000000 0.00797429123284681600000000000000000000000000000000 -0.00038958358606466180000000000000000000000000000000 -0.00166990308139459580000000000000000000000000000000 -0.00240930748340773770000000000000000000000000000000
0.00034289177232561314000000000000000000000000000000 0.00133121033560431860000000000000000000000000000000 -0.00020947277447787660000000000000000000000000000000 -0.00078574829827774640000000000000000000000000000000 -0.00053823879281135670000000000000000000000000000000 -0.00179850039103067500000000000000000000000000000000 0.00052341568325983260000000000000000000000000000000 -0.00251112911960495650000000000000000000000000000000 -0.00097641545024484400000000000000000000000000000000 -0.00079772877418406610000000000000000000000000000000 0.00111681665461518790000000000000000000000000000000 0.00006145384373295287000000000000000000000000000000 -0.00044248228606152300000000000000000000000000000000 -0.00042379436634350936000000000000000000000000000000 -0.00235993964966119560000000000000000000000000000000 -0.00080966233910387380000000000000000000000000000000 0.00067335768563925280000000000000000000000000000000 -0.00297619383152649680000000000000000000000000000000 -0.00016768592134211365000000000000000000000000000000 0.00228521551407274460000000000000000000000000000000 0.00009984405712796572000000000000000000000000000000 -0.00039144279388200770000000000000000000000000000000 0.00023585951022093910000000000000000000000000000000 -0.00019135003972628330000000000000000000000000000000 -0.00341497677958228700000000000000000000000000000000 0.00011174072091162376000000000000000000000000000000 -0.00053941338284200020000000000000000000000000000000 -0.00259626585541226660000000000000000000000000000000 0.00045554637006551170000000000000000000000000000000 -0.00159993005991956830000000000000000000000000000000 -0.00130856354129274440000000000000000000000000000000 0.00027566732274834314000000000000000000000000000000 -0.00220435556805803400000000000000000000000000000000 -0.00024924826885528394000000000000000000000000000000 -0.00218336837465616650000000000000000000000000000000 0.00062408594157457600000000000000000000000000000000 0.00048228162216389857000000000000000000000000000000 -0.00144476892365178170000000000000000000000000000000 0.00168398986377588500000000000000000000000000000000 0.00012251682010770392000000000000000000000000000000 -0.00138921633791781070000000000000000000000000000000 0.00053614245165907170000000000000000000000000000000 -0.00062956643944287710000000000000000000000000000000 -0.00232378046684963680000000000000000000000000000000 0.00183632613952950350000000000000000000000000000000 0.00004833309607864381000000000000000000000000000000 0.00068543596503488440000000000000000000000000000000 -0.00146199526160653610000000000000000000000000000000 -0.00207832547056103200000000000000000000000000000000 -0.00137030674512560290000000000000000000000000000000 0.00063957716381512130000000000000000000000000000000 -0.00012710394812720453000000000000000000000000000000 -0.00064179314935416570000000000000000000000000000000 -0.00149686770726275620000000000000000000000000000000 -0.00108845633249251830000000000000000000000000000000 -0.00046467719643977820000000000000000000000000000000 0.00187307101520544100000000000000000000000000000000 0.00165368476325601900000000000000000000000000000000 -0.00072310263827122960000000000000000000000000000000 0.00009943549877204923000000000000000000000000000000 -0.00243469396226877400000000000000000000000000000000
0.00040825885909113750000000000000000000000000000000 -0.00293878404362696780000000000000000000000000000000 -0.00077612477543574590000000000000000000000000000000 0.00119579007410541970000000000000000000000000000000 0.00000253483182407459000000000000000000000000000000 -0.00105218463860165690000000000000000000000000000000 -0.00160810901328188310000000000000000000000000000000 0.00082855737544061470000000000000000000000000000000 -0.00034831299105211980000000000000000000000000000000 -0.00117658163441657860000000000000000000000000000000 -0.00065539573921323970000000000000000000000000000000 -0.00175704312715434100000000000000000000000000000000 -0.00193669038298603530000000000000000000000000000000 -0.00099617124858430300000000000000000000000000000000 -0.00001568486835875517200000000000000000000000000000 -0.00217196205204852780000000000000000000000000000000 0.00042002102856882030000000000000000000000000000000 0.00044523771340816620000000000000000000000000000000 0.00075789169085982860000000000000000000000000000000 0.00197307436142603930000000000000000000000000000000 -0.00040912434437484650000000000000000000000000000000 0.00077751440256279110000000000000000000000000000000 0.00102466068415990160000000000000000000000000000000 -0.00105613366121442770000000000000000000000000000000 0.00037955245156887420000000000000000000000000000000 0.00188607925412764620000000000000000000000000000000 0.00059170536717066310000000000000000000000000000000 -0.00113796761084429780000000000000000000000000000000 0.00122787811439022700000000000000000000000000000000 -0.00095986190029084970000000000000000000000000000000 0.00041874734203983520000000000000000000000000000000 0.00055039366768410230000000000000000000000000000000 -0.00206787763182243780000000000000000000000000000000 -0.00063491561893933980000000000000000000000000000000 -0.00249154379993211940000000000000000000000000000000 0.00039180016676624056000000000000000000000000000000 -0.00135507943329608840000000000000000000000000000000 -0.00124088475477837240000000000000000000000000000000 -0.00215617732986488800000000000000000000000000000000 0.00108857076061894920000000000000000000000000000000 -0.00104765916888875780000000000000000000000000000000 -0.00101241636970215000000000000000000000000000000000 -0.00090131995506718100000000000000000000000000000000 0.00000472818311181750100000000000000000000000000000 -0.00204018373951283700000000000000000000000000000000 -0.00070771310802802800000000000000000000000000000000 -0.00137193670254433180000000000000000000000000000000 -0.00042598678974727923000000000000000000000000000000 -0.00019997941359884658000000000000000000000000000000 -0.00070322685230547410000000000000000000000000000000 -0.00084540514816672740000000000000000000000000000000 -0.00143900014684997940000000000000000000000000000000 0.00050424541302461740000000000000000000000000000000 -0.00152483495385038800000000000000000000000000000000 -0.00062989190616491980000000000000000000000000000000 0.00299439271577429700000000000000000000000000000000 0.00142507129021520430000000000000000000000000000000 -0.00107196973619795700000000000000000000000000000000 -0.00073830931494781450000000000000000000000000000000 -0.00130235851369360070000000000000000000000000000000 0.00071357625023679380000000000000000000000000000000
0.00155057358201166760000000000000000000000000000000 -0.00064309240179289010000000000000000000000000000000 0.00030042096329215885000000000000000000000000000000 0.00086130134816036140000000000000000000000000000000 -0.00133016072237135820000000000000000000000000000000 0.00267976385556749000000000000000000000000000000000 0.00022212205755666164000000000000000000000000000000 -0.00087880556662465350000000000000000000000000000000 -0.00234511992011850540000000000000000000000000000000 -0.00062403958898874920000000000000000000000000000000 0.00071416801445242570000000000000000000000000000000 -0.00037833288276361620000000000000000000000000000000 -0.00034220541482165136000000000000000000000000000000 -0.00206768465789971360000000000000000000000000000000 -0.00138415594135724630000000000000000000000000000000 -0.00244431629434541500000000000000000000000000000000 -0.00185844077286656100000000000000000000000000000000 0.00187027430194089230000000000000000000000000000000 0.00055149380546297670000000000000000000000000000000 -0.00022852976093403138000000000000000000000000000000 -0.00038629019137108490000000000000000000000000000000 -0.00057651808938385880000000000000000000000000000000 -0.00225471397173378100000000000000000000000000000000 0.00068629458247997090000000000000000000000000000000 -0.00214118610287041640000000000000000000000000000000 -0.00152388909070172480000000000000000000000000000000 -0.00165276487855630030000000000000000000000000000000 0.00049191767957625600000000000000000000000000000000 -0.00109992239245940390000000000000000000000000000000 -0.00103280036445864380000000000000000000000000000000 0.00006696382453897959000000000000000000000000000000 -0.00138656828717714500000000000000000000000000000000 -0.00077556092824273810000000000000000000000000000000 0.00136593720822283160000000000000000000000000000000 -0.00092295217356735960000000000000000000000000000000 -0.00299610962402145600000000000000000000000000000000 -0.00051358241000507900000000000000000000000000000000 0.00025815982809182350000000000000000000000000000000 0.00093749177183920110000000000000000000000000000000 -0.00074340116218346080000000000000000000000000000000 -0.00139663430683412550000000000000000000000000000000 -0.00107400538200840200000000000000000000000000000000 -0.00183127990967406900000000000000000000000000000000 -0.00091323252317759280000000000000000000000000000000 0.00047643489136190516000000000000000000000000000000 0.00007225658150354305000000000000000000000000000000 -0.00074339953491449900000000000000000000000000000000 -0.00023082993497492392000000000000000000000000000000 -0.00070972182192097500000000000000000000000000000000 0.00118004442037378340000000000000000000000000000000 0.00090648853365380200000000000000000000000000000000 -0.00162358887781515000000000000000000000000000000000 0.00085982565795175360000000000000000000000000000000 -0.00121377962744638920000000000000000000000000000000 -0.00036483565513634890000000000000000000000000000000 -0.00243657865737319230000000000000000000000000000000 0.00066940811008942840000000000000000000000000000000 0.00015277228241350428000000000000000000000000000000 0.00008622267233997119000000000000000000000000000000 0.00153475446564939640000000000000000000000000000000 -0.00245712385995046400000000000000000000000000000000
-0.00001934762580289026500000000000000000000000000000 -0.00065764884909043780000000000000000000000000000000 -0.00132133807764679270000000000000000000000000000000 0.00141473984825913820000000000000000000000000000000 -0.00006086903851578774400000000000000000000000000000 -0.00113232788921654050000000000000000000000000000000 -0.00197071559404904350000000000000000000000000000000 -0.00290512532642061550000000000000000000000000000000 -0.00208864807610440250000000000000000000000000000000 0.00137321412083507180000000000000000000000000000000 -0.00050058359558206630000000000000000000000000000000 -0.00048568327421965950000000000000000000000000000000 -0.00214278498510623880000000000000000000000000000000 0.00121103017759889800000000000000000000000000000000 -0.00013517107924546903000000000000000000000000000000 0.00111762835849747030000000000000000000000000000000 -0.00173209365545770730000000000000000000000000000000 0.00007262475134805450000000000000000000000000000000 -0.00079793971200122440000000000000000000000000000000 -0.00003354755586744353000000000000000000000000000000 -0.00155699271321414540000000000000000000000000000000 0.00217331815143049970000000000000000000000000000000 -0.00073248218168809430000000000000000000000000000000 -0.00159214332196508860000000000000000000000000000000 0.00156346564136516970000000000000000000000000000000 -0.00090028343788609330000000000000000000000000000000 0.00218962188451866900000000000000000000000000000000 0.00140605329967235980000000000000000000000000000000 -0.00140269354097627700000000000000000000000000000000 0.00008590892771533879000000000000000000000000000000 0.00187417281112199200000000000000000000000000000000 -0.00038562158600358080000000000000000000000000000000 -0.00287558430898365400000000000000000000000000000000 -0.00054047088999473820000000000000000000000000000000 -0.00061720695834238430000000000000000000000000000000 -0.00059556284022747720000000000000000000000000000000 -0.00151208972482891470000000000000000000000000000000 -0.00152237363550655630000000000000000000000000000000 -0.00143673862561245800000000000000000000000000000000 0.00080438930194594770000000000000000000000000000000 0.00090915233195608330000000000000000000000000000000 -0.00212473740144524800000000000000000000000000000000 0.00000572611225421292960000000000000000000000000000 -0.00059101932615802830000000000000000000000000000000 -0.00125984579113001470000000000000000000000000000000 0.00150653843943871280000000000000000000000000000000 -0.00211614082811408540000000000000000000000000000000 -0.00088966673007432550000000000000000000000000000000 -0.00100706377055997600000000000000000000000000000000 0.00262415955912466150000000000000000000000000000000 -0.00016859325224329654000000000000000000000000000000 -0.00064711164945497770000000000000000000000000000000 -0.00148649448692069100000000000000000000000000000000 -0.00196826643053657580000000000000000000000000000000 -0.00316094883135415800000000000000000000000000000000 0.00150659060618627170000000000000000000000000000000 0.00215767292086751000000000000000000000000000000000 -0.00200141433270153950000000000000000000000000000000 -0.00179957839327044750000000000000000000000000000000 -0.00057877500921524440000000000000000000000000000000 0.00115929751065915610000000000000000000000000000000
0.00028825373158285150000000000000000000000000000000 -0.00075809649401739620000000000000000000000000000000 -0.00169381446318577450000000000000000000000000000000 -0.00093871743321257380000000000000000000000000000000 -0.00079118765147670510000000000000000000000000000000 -0.00020194729269481890000000000000000000000000000000 0.00065181130984396350000000000000000000000000000000 -0.00076292038647719920000000000000000000000000000000 -0.00147223622293518340000000000000000000000000000000 -0.00058746720315764180000000000000000000000000000000 -0.00018039675490162828000000000000000000000000000000 -0.00180359222028410400000000000000000000000000000000 -0.00056485673590888760000000000000000000000000000000 0.00073561530504689740000000000000000000000000000000 -0.00317260496870349920000000000000000000000000000000 -0.00108675695809108660000000000000000000000000000000 -0.00306813180212199340000000000000000000000000000000 -0.00015183403704559294000000000000000000000000000000 -0.00214467613995152720000000000000000000000000000000 -0.00033722984895877403000000000000000000000000000000 0.00007184349048063650000000000000000000000000000000 0.00023395892239130900000000000000000000000000000000 -0.00136353566594089350000000000000000000000000000000 0.00097491872591852780000000000000000000000000000000 0.00085775093562152590000000000000000000000000000000 -0.00195649358667696300000000000000000000000000000000 -0.00065956676762206880000000000000000000000000000000 0.00144160686071510530000000000000000000000000000000 -0.00138079124790614600000000000000000000000000000000 -0.00059149961821810030000000000000000000000000000000 -0.00082536210181093060000000000000000000000000000000 -0.00229318417159660950000000000000000000000000000000 -0.00175460853417375860000000000000000000000000000000 0.00054744055410488140000000000000000000000000000000 -0.00054064547278283590000000000000000000000000000000 0.00213686686054165700000000000000000000000000000000 -0.00130341555291562600000000000000000000000000000000 -0.00236382097459457700000000000000000000000000000000 -0.00196811297509664250000000000000000000000000000000 0.00178020185038038580000000000000000000000000000000 -0.00114436336415564470000000000000000000000000000000 0.00057144498252155570000000000000000000000000000000 0.00136456869130390260000000000000000000000000000000 -0.00295012225214899260000000000000000000000000000000 0.00000026198203912004316000000000000000000000000000 -0.00041229553088212950000000000000000000000000000000 0.00114095798176922200000000000000000000000000000000 0.00096259718489247940000000000000000000000000000000 -0.00312491613165453800000000000000000000000000000000 0.00030820033734979134000000000000000000000000000000 -0.00229350899659869950000000000000000000000000000000 -0.00033584277418367770000000000000000000000000000000 0.00070350322268632010000000000000000000000000000000 -0.00287312922752953240000000000000000000000000000000 0.00018746389644301130000000000000000000000000000000 -0.00121570875342264480000000000000000000000000000000 -0.00050370215013143260000000000000000000000000000000 -0.00107034254725120400000000000000000000000000000000 -0.00264863129994996050000000000000000000000000000000 0.00020113957941457700000000000000000000000000000000 -0.00252038495484973230000000000000000000000000000000
0.00014234520963453173000000000000000000000000000000 -0.00253032481686053300000000000000000000000000000000 -0.00141151832894982660000000000000000000000000000000 0.00077823121138322130000000000000000000000000000000 0.00093770496405236750000000000000000000000000000000 0.00010931246217207272000000000000000000000000000000 -0.00081618776116550850000000000000000000000000000000 0.00021483920081219693000000000000000000000000000000 -0.00253376651256060960000000000000000000000000000000 -0.00035940093059660340000000000000000000000000000000 -0.00262846166284483700000000000000000000000000000000 0.00001901921593557031600000000000000000000000000000 -0.00160408937815023500000000000000000000000000000000 -0.00063126003197485420000000000000000000000000000000 -0.00231646902534065560000000000000000000000000000000 -0.00293903505992552630000000000000000000000000000000 -0.00042683454739857870000000000000000000000000000000 -0.00341621508809223600000000000000000000000000000000 -0.00145458255440637460000000000000000000000000000000 -0.00000168488453900492770000000000000000000000000000 -0.00042987439420314940000000000000000000000000000000 -0.00121453169407771180000000000000000000000000000000 0.00189426828941431820000000000000000000000000000000 -0.00124728060747459660000000000000000000000000000000 -0.00048322735415086025000000000000000000000000000000 -0.00015970751678364570000000000000000000000000000000 0.00225349584361661220000000000000000000000000000000 -0.00160744011396897300000000000000000000000000000000 -0.00126514070318173650000000000000000000000000000000 -0.00042614853413697803000000000000000000000000000000 -0.00276736880777676140000000000000000000000000000000 -0.00170107816774158620000000000000000000000000000000 0.00154196175273814700000000000000000000000000000000 -0.00200248678494626500000000000000000000000000000000 0.00189363828675427270000000000000000000000000000000 -0.00075475131792951130000000000000000000000000000000 0.00105102333550532100000000000000000000000000000000 -0.00141144859819703500000000000000000000000000000000 0.00048120557000627140000000000000000000000000000000 -0.00028324567289402213000000000000000000000000000000 -0.00200017929498406920000000000000000000000000000000 -0.00133462354175122360000000000000000000000000000000 -0.00101577027555187200000000000000000000000000000000 0.00040240410685078905000000000000000000000000000000 0.00060184001939834800000000000000000000000000000000 -0.00043656618529540347000000000000000000000000000000 -0.00144691265790885750000000000000000000000000000000 -0.00003169305014593716000000000000000000000000000000 0.00084218955813803930000000000000000000000000000000 0.00045949803179788280000000000000000000000000000000 0.00139127678710357620000000000000000000000000000000 -0.00439945875504452700000000000000000000000000000000 0.00081738601539725090000000000000000000000000000000 -0.00322279505565997100000000000000000000000000000000 -0.00056674132600018780000000000000000000000000000000 -0.00164062367038263000000000000000000000000000000000 -0.00003131750490384312600000000000000000000000000000 -0.00091718837781437090000000000000000000000000000000 -0.00168905959296225020000000000000000000000000000000 0.00137730608537887540000000000000000000000000000000 -0.00130825446975476030000000000000000000000000000000
-0.00027797311695132960000000000000000000000000000000 -0.00282433012084676870000000000000000000000000000000 -0.00040277141740291280000000000000000000000000000000 -0.00104282240808386150000000000000000000000000000000 0.00048939742491461260000000000000000000000000000000 -0.00163409393329916600000000000000000000000000000000 -0.00153820459561989030000000000000000000000000000000 -0.00088510024852303320000000000000000000000000000000 -0.00025797116127818070000000000000000000000000000000 -0.00182333481589854770000000000000000000000000000000 -0.00111254705441513640000000000000000000000000000000 0.00151354383539867300000000000000000000000000000000 -0.00246197271328746900000000000000000000000000000000 0.00164787328841902670000000000000000000000000000000 -0.00205858276167506130000000000000000000000000000000 -0.00141887333711446930000000000000000000000000000000 -0.00173320713240815220000000000000000000000000000000 -0.00045895660568950083000000000000000000000000000000 0.00108848461614197230000000000000000000000000000000 -0.00168849766959700430000000000000000000000000000000 -0.00336492369908328200000000000000000000000000000000 0.00139776900543668900000000000000000000000000000000 -0.00085799417918151590000000000000000000000000000000 -0.00121749387695745000000000000000000000000000000000 -0.00100279941205670880000000000000000000000000000000 -0.00068723530040776420000000000000000000000000000000 0.00056777604546349410000000000000000000000000000000 -0.00104358527481081100000000000000000000000000000000 -0.00239687233366511070000000000000000000000000000000 0.00084628403763049050000000000000000000000000000000 -0.00014163012314127670000000000000000000000000000000 -0.00049818311544037970000000000000000000000000000000 0.00012111403142616036000000000000000000000000000000 -0.00123212537175842200000000000000000000000000000000 -0.00164721989537301500000000000000000000000000000000 0.00016608165683843336000000000000000000000000000000 -0.00330208903458520900000000000000000000000000000000 -0.00148243956601532700000000000000000000000000000000 -0.00087144110353966160000000000000000000000000000000 0.00049456816736123670000000000000000000000000000000 -0.00093834476201812660000000000000000000000000000000 -0.00059133543743554080000000000000000000000000000000 0.00043709824423856060000000000000000000000000000000 -0.00195592180802760340000000000000000000000000000000 -0.00287563645953837570000000000000000000000000000000 0.00007180160926298395000000000000000000000000000000 -0.00101947854974339910000000000000000000000000000000 0.00013370160382522806000000000000000000000000000000 -0.00189397661066367360000000000000000000000000000000 -0.00175553034434828030000000000000000000000000000000 -0.00118337618305451900000000000000000000000000000000 -0.00034180117360553026000000000000000000000000000000 -0.00143994916515864900000000000000000000000000000000 -0.00076885896951008500000000000000000000000000000000 -0.00043307850995448683000000000000000000000000000000 0.00186394078797805920000000000000000000000000000000 -0.00188166067058618200000000000000000000000000000000 -0.00086025785580718480000000000000000000000000000000 -0.00252908266427642360000000000000000000000000000000 -0.00331500018415860140000000000000000000000000000000 -0.00095714825864590180000000000000000000000000000000
0.00083432876821959340000000000000000000000000000000 0.00044560749413886490000000000000000000000000000000 -0.00143509845877017560000000000000000000000000000000 0.00061545650621816830000000000000000000000000000000 -0.00011131778224778054000000000000000000000000000000 -0.00096956725072690970000000000000000000000000000000 -0.00144497809708541950000000000000000000000000000000 -0.00057365133744650050000000000000000000000000000000 -0.00269553890429384030000000000000000000000000000000 0.00086726924557700320000000000000000000000000000000 0.00101836363023725820000000000000000000000000000000 -0.00011363748187959968000000000000000000000000000000 0.00039180008056266310000000000000000000000000000000 -0.00147165145317485550000000000000000000000000000000 -0.00018738617633118348000000000000000000000000000000 -0.00150662736316386100000000000000000000000000000000 -0.00054817726366727090000000000000000000000000000000 -0.00160775922260589190000000000000000000000000000000 -0.00209822585395533800000000000000000000000000000000 0.00252149160501031860000000000000000000000000000000 -0.00087754655175117760000000000000000000000000000000 -0.00145435253506778080000000000000000000000000000000 -0.00180839831350932500000000000000000000000000000000 -0.00264741490416698100000000000000000000000000000000 -0.00129716831554961030000000000000000000000000000000 -0.00031279106059595910000000000000000000000000000000 -0.00099457344406148600000000000000000000000000000000 0.00108314968638169300000000000000000000000000000000 -0.00041236055132877703000000000000000000000000000000 -0.00103565197398469700000000000000000000000000000000 -0.00103670973885846990000000000000000000000000000000 -0.00071513517499827630000000000000000000000000000000 -0.00041250458468685770000000000000000000000000000000 0.00075895827117345610000000000000000000000000000000 -0.00259332869329502450000000000000000000000000000000 -0.00134586762301194750000000000000000000000000000000 0.00054648009618135100000000000000000000000000000000 -0.00358270259849713650000000000000000000000000000000 -0.00016115867299256674000000000000000000000000000000 -0.00072995632168038260000000000000000000000000000000 0.00020608029549004279000000000000000000000000000000 -0.00001780192768804814000000000000000000000000000000 -0.00089625471087113600000000000000000000000000000000 0.00060531619606109630000000000000000000000000000000 0.00209488117599264350000000000000000000000000000000 -0.00201195243565620340000000000000000000000000000000 -0.00141668661468680920000000000000000000000000000000 0.00006950214421289676000000000000000000000000000000 0.00058795794357927170000000000000000000000000000000 -0.00297050060558889160000000000000000000000000000000 0.00055532010342368180000000000000000000000000000000 0.00073201309926141960000000000000000000000000000000 -0.00151799615839814420000000000000000000000000000000 0.00081576549460456750000000000000000000000000000000 -0.00079082081032426290000000000000000000000000000000 0.00048366746579779315000000000000000000000000000000 -0.00031485310389657583000000000000000000000000000000 0.00033085727536601563000000000000000000000000000000 0.00238208616375255650000000000000000000000000000000 0.00172395810635523520000000000000000000000000000000 -0.00117422075877939100000000000000000000000000000000
-0.00007473111606414102000000000000000000000000000000 0.00076528948516354870000000000000000000000000000000 -0.00195217473513980800000000000000000000000000000000 0.00000197202793334448100000000000000000000000000000 0.00004119448079599084000000000000000000000000000000 0.00140299982778882390000000000000000000000000000000 -0.00054143858646175250000000000000000000000000000000 -0.00060882660079870890000000000000000000000000000000 -0.00093422599574235500000000000000000000000000000000 -0.00093570769192785340000000000000000000000000000000 0.00157741839988389780000000000000000000000000000000 -0.00183525096927710960000000000000000000000000000000 0.00149547611318054730000000000000000000000000000000 0.00154646368229363180000000000000000000000000000000 0.00011042230864462212000000000000000000000000000000 -0.00063297421422422930000000000000000000000000000000 -0.00026677038460644337000000000000000000000000000000 -0.00183494866297372870000000000000000000000000000000 -0.00053144439958443440000000000000000000000000000000 -0.00193053604554014550000000000000000000000000000000 0.00102968022390954570000000000000000000000000000000 -0.00086730026300119440000000000000000000000000000000 -0.00061414366830654110000000000000000000000000000000 -0.00165366454777661620000000000000000000000000000000 -0.00093355872803498950000000000000000000000000000000 -0.00094311081602736460000000000000000000000000000000 -0.00221812833896721260000000000000000000000000000000 0.00052910127981442190000000000000000000000000000000 -0.00098856849640253650000000000000000000000000000000 -0.00077087753333533410000000000000000000000000000000 0.00107161317987287700000000000000000000000000000000 -0.00092382981802324640000000000000000000000000000000 -0.00089672114827771690000000000000000000000000000000 -0.00097784514469752100000000000000000000000000000000 -0.00170078198074840670000000000000000000000000000000 -0.00069889285824293770000000000000000000000000000000 0.00176624144191787990000000000000000000000000000000 0.00014865441431294681000000000000000000000000000000 0.00097401457497592920000000000000000000000000000000 -0.00159305350687129850000000000000000000000000000000 0.00059078330057514070000000000000000000000000000000 -0.00283051499110096050000000000000000000000000000000 -0.00139201304923384890000000000000000000000000000000 -0.00266743773017712960000000000000000000000000000000 0.00015344743658852577000000000000000000000000000000 0.00079932842255885210000000000000000000000000000000 -0.00173206827956264150000000000000000000000000000000 0.00012220157445998019000000000000000000000000000000 -0.00011647359994496683000000000000000000000000000000 -0.00038741922532636386000000000000000000000000000000 0.00073053558396218970000000000000000000000000000000 -0.00294959354077940600000000000000000000000000000000 0.00178771561524753180000000000000000000000000000000 -0.00214382653479798860000000000000000000000000000000 -0.00031902684430550976000000000000000000000000000000 -0.00128982823762744620000000000000000000000000000000 0.00038367817311006820000000000000000000000000000000 0.00050013422418483480000000000000000000000000000000 0.00070028669378174100000000000000000000000000000000 -0.00116103250865837470000000000000000000000000000000 -0.00061854762070088180000000000000000000000000000000
-0.00138981129787407600000000000000000000000000000000 -0.00088230557137254030000000000000000000000000000000 -0.00053365285360983450000000000000000000000000000000 0.00062485672074885330000000000000000000000000000000 0.00073943353701265890000000000000000000000000000000 0.00031356278474568974000000000000000000000000000000 0.00025852081527001636000000000000000000000000000000 -0.00044956822102975387000000000000000000000000000000 -0.00308548765412062900000000000000000000000000000000 -0.00275529539095064130000000000000000000000000000000 0.00269867027005951060000000000000000000000000000000 -0.00073626485381708400000000000000000000000000000000 -0.00129041587766728940000000000000000000000000000000 0.00031164481685156233000000000000000000000000000000 -0.00146812489461666860000000000000000000000000000000 -0.00078903533538612000000000000000000000000000000000 -0.00020271354282737310000000000000000000000000000000 0.00054298938617070880000000000000000000000000000000 -0.00148938871950036520000000000000000000000000000000 0.00048267645424033884000000000000000000000000000000 0.00090175846527443310000000000000000000000000000000 0.00207781425987119560000000000000000000000000000000 -0.00373825987925315970000000000000000000000000000000 0.00063185733660941340000000000000000000000000000000 -0.00245738335554061050000000000000000000000000000000 -0.00121706640571168340000000000000000000000000000000 -0.00122182487881691900000000000000000000000000000000 -0.00217430352476985330000000000000000000000000000000 0.00107208400401671500000000000000000000000000000000 -0.00147729107947647650000000000000000000000000000000 -0.00156901635966764950000000000000000000000000000000 -0.00124576133025663690000000000000000000000000000000 -0.00070131602723414570000000000000000000000000000000 -0.00133955072985140120000000000000000000000000000000 0.00065811510447184220000000000000000000000000000000 -0.00065254667599852750000000000000000000000000000000 -0.00136759963279353600000000000000000000000000000000 0.00088311056873037640000000000000000000000000000000 0.00116159376581666200000000000000000000000000000000 -0.00082225434125536240000000000000000000000000000000 0.00035288168538477550000000000000000000000000000000 -0.00148263565581594060000000000000000000000000000000 -0.00177796155655836640000000000000000000000000000000 -0.00374250004055352400000000000000000000000000000000 0.00116458387773242700000000000000000000000000000000 -0.00235838536555976500000000000000000000000000000000 0.00191525435178327650000000000000000000000000000000 -0.00136037738272169950000000000000000000000000000000 -0.00310384015414969200000000000000000000000000000000 0.00089028783893666570000000000000000000000000000000 0.00093618306481642290000000000000000000000000000000 -0.00353050110435132100000000000000000000000000000000 0.00094055105202206530000000000000000000000000000000 0.00010652207885275360000000000000000000000000000000 0.00101247665996131520000000000000000000000000000000 -0.00125658414185240900000000000000000000000000000000 -0.00037183898515482330000000000000000000000000000000 0.00184719259708636570000000000000000000000000000000 0.00008763323131341302000000000000000000000000000000 -0.00040604072353223530000000000000000000000000000000 0.00070753544936420830000000000000000000000000000000
0.00034884815873609480000000000000000000000000000000 0.00008695873049374518000000000000000000000000000000 -0.00041457435161361726000000000000000000000000000000 -0.00146392579333651930000000000000000000000000000000 0.00020702043155887894000000000000000000000000000000 -0.00024382571338452916000000000000000000000000000000 -0.00125055209309142570000000000000000000000000000000 -0.00118686805321293900000000000000000000000000000000 0.00209177010415317670000000000000000000000000000000 0.00082496077456917130000000000000000000000000000000 -0.00308598198878934000000000000000000000000000000000 -0.00118856487348944200000000000000000000000000000000 0.00063724432047421360000000000000000000000000000000 -0.00116448325931069190000000000000000000000000000000 -0.00023496417144574003000000000000000000000000000000 -0.00163701867259124360000000000000000000000000000000 0.00045522436852325884000000000000000000000000000000 -0.00029199815716619410000000000000000000000000000000 -0.00176456692202043740000000000000000000000000000000 0.00013082109161782816000000000000000000000000000000 -0.00371172267190953700000000000000000000000000000000 -0.00376207866063390330000000000000000000000000000000 0.00169416279619057950000000000000000000000000000000 0.00037272942220929590000000000000000000000000000000 -0.00223028460910115300000000000000000000000000000000 -0.00311723388210625600000000000000000000000000000000 -0.00224439669030030300000000000000000000000000000000 0.00008835312479729923000000000000000000000000000000 -0.00050784745355439120000000000000000000000000000000 -0.00173638761277959170000000000000000000000000000000 0.00061808776667067200000000000000000000000000000000 0.00056289780985295560000000000000000000000000000000 -0.00343276209254310400000000000000000000000000000000 -0.00147986384714502400000000000000000000000000000000 -0.00009479292624567760000000000000000000000000000000 0.00010714184000471915000000000000000000000000000000 0.00080109877937786580000000000000000000000000000000 0.00028164353226973970000000000000000000000000000000 -0.00056228074888993170000000000000000000000000000000 -0.00099320501400670900000000000000000000000000000000 -0.00048482396904053955000000000000000000000000000000 0.00064814288192699620000000000000000000000000000000 -0.00000847947691313012000000000000000000000000000000 0.00134400956996009700000000000000000000000000000000 0.00171138285921000300000000000000000000000000000000 -0.00049723942081847420000000000000000000000000000000 -0.00143859666122752140000000000000000000000000000000 -0.00207041930267746300000000000000000000000000000000 -0.00033011717409584100000000000000000000000000000000 -0.00082834421332951150000000000000000000000000000000 0.00125739340441461710000000000000000000000000000000 -0.00089157962022634180000000000000000000000000000000 -0.00251905063315020500000000000000000000000000000000 -0.00221541858828715900000000000000000000000000000000 0.00030932594671937146000000000000000000000000000000 0.00077294667314244100000000000000000000000000000000 -0.00031937571398553440000000000000000000000000000000 -0.00039872417050280956000000000000000000000000000000 -0.00075854643108036710000000000000000000000000000000 -0.00068639031272108460000000000000000000000000000000 0.00018436340692124920000000000000000000000000000000
0.00135225876335788540000000000000000000000000000000 -0.00138634105773098220000000000000000000000000000000 0.00121732474771322300000000000000000000000000000000 -0.00306208778707569820000000000000000000000000000000 -0.00052857763939216940000000000000000000000000000000 0.00081566017240479710000000000000000000000000000000 0.00008581372581030727000000000000000000000000000000 -0.00221838260799283760000000000000000000000000000000 -0.00021433303133181760000000000000000000000000000000 -0.00085738550920797460000000000000000000000000000000 0.00013614196265309731000000000000000000000000000000 -0.00144245358992397530000000000000000000000000000000 0.00016267331136659766000000000000000000000000000000 -0.00080215911402620990000000000000000000000000000000 -0.00056566961067898790000000000000000000000000000000 -0.00069321135620229940000000000000000000000000000000 -0.00212378655791209500000000000000000000000000000000 -0.00292957685181685300000000000000000000000000000000 -0.00218879734088993900000000000000000000000000000000 -0.00158464634800324630000000000000000000000000000000 -0.00005303828633451820500000000000000000000000000000 -0.00011536800528287442000000000000000000000000000000 -0.00181992423405808600000000000000000000000000000000 -0.00039088650184042090000000000000000000000000000000 -0.00115693424540796360000000000000000000000000000000 -0.00261332850033389960000000000000000000000000000000 0.00091377446215968460000000000000000000000000000000 0.00118137939054102500000000000000000000000000000000 -0.00151895666108973780000000000000000000000000000000 -0.00173778275911302660000000000000000000000000000000 0.00004034815409634782400000000000000000000000000000 -0.00145565933652726850000000000000000000000000000000 -0.00092001501439616170000000000000000000000000000000 -0.00066400375788804100000000000000000000000000000000 -0.00128658445572417570000000000000000000000000000000 -0.00188580853280489360000000000000000000000000000000 -0.00010559918360540524000000000000000000000000000000 -0.00030644064464190480000000000000000000000000000000 -0.00101927359527960100000000000000000000000000000000 -0.00151155707886794000000000000000000000000000000000 -0.00165646833310350780000000000000000000000000000000 0.00053586682218760290000000000000000000000000000000 -0.00032422093524197740000000000000000000000000000000 -0.00031086773172715786000000000000000000000000000000 -0.00044517282680086787000000000000000000000000000000 -0.00217124578865460560000000000000000000000000000000 -0.00017953806507062264000000000000000000000000000000 -0.00246745661693877550000000000000000000000000000000 -0.00077596469112096740000000000000000000000000000000 -0.00255129390458788000000000000000000000000000000000 -0.00113640983727378600000000000000000000000000000000 0.00073718849054292690000000000000000000000000000000 -0.00187384222016766600000000000000000000000000000000 -0.00297236473907665050000000000000000000000000000000 -0.00321052047139763030000000000000000000000000000000 0.00017349793319085727000000000000000000000000000000 -0.00172916207645874840000000000000000000000000000000 -0.00101501517331439380000000000000000000000000000000 -0.00019831376363753508000000000000000000000000000000 0.00037648453929579570000000000000000000000000000000 0.00105775918478240570000000000000000000000000000000
-0.00154413729331299120000000000000000000000000000000 -0.00018493272139737213000000000000000000000000000000 -0.00057810213549265220000000000000000000000000000000 0.00050714990568149010000000000000000000000000000000 -0.00106435829724100800000000000000000000000000000000 0.00142399070375678420000000000000000000000000000000 -0.00189938450204713870000000000000000000000000000000 -0.00002621973358726728000000000000000000000000000000 0.00050932248122505660000000000000000000000000000000 0.00120812170735288500000000000000000000000000000000 -0.00009645894635200197000000000000000000000000000000 -0.00085406766803212630000000000000000000000000000000 -0.00032997875747979930000000000000000000000000000000 -0.00091303753511193690000000000000000000000000000000 -0.00112509933923749320000000000000000000000000000000 -0.00345022741976215200000000000000000000000000000000 0.00156021572974137820000000000000000000000000000000 -0.00250576024967001180000000000000000000000000000000 -0.00074410954267212620000000000000000000000000000000 -0.00224647744130376100000000000000000000000000000000 -0.00189991038484519250000000000000000000000000000000 -0.00185957568637375520000000000000000000000000000000 -0.00080498353103077010000000000000000000000000000000 -0.00203502885616048270000000000000000000000000000000 -0.00181031577388225590000000000000000000000000000000 0.00011807920291243424000000000000000000000000000000 -0.00196461040878819670000000000000000000000000000000 -0.00150010565979522300000000000000000000000000000000 0.00011360826696589857000000000000000000000000000000 -0.00075207876531859100000000000000000000000000000000 0.00009390884290464243000000000000000000000000000000 0.00127810133456099290000000000000000000000000000000 -0.00104662945097114700000000000000000000000000000000 -0.00216025397218934070000000000000000000000000000000 -0.00101421476286861360000000000000000000000000000000 -0.00159611542129709920000000000000000000000000000000 -0.00038405119256800153000000000000000000000000000000 0.00026946058308869430000000000000000000000000000000 -0.00076875257390687200000000000000000000000000000000 -0.00206327161600508870000000000000000000000000000000 0.00026908494057974945000000000000000000000000000000 -0.00221034032853803480000000000000000000000000000000 0.00162544267638339760000000000000000000000000000000 -0.00065010264904350130000000000000000000000000000000 -0.00114339663671739160000000000000000000000000000000 0.00014490097099288050000000000000000000000000000000 0.00016347569089400352000000000000000000000000000000 0.00121346378382260110000000000000000000000000000000 -0.00250196381679988100000000000000000000000000000000 0.00172527434125709220000000000000000000000000000000 -0.00268084628567229700000000000000000000000000000000 0.00010008525547951317000000000000000000000000000000 -0.00141091360124604340000000000000000000000000000000 -0.00057992255562499220000000000000000000000000000000 0.00002660948270680619600000000000000000000000000000 -0.00136377477425106160000000000000000000000000000000 -0.00404615139379681240000000000000000000000000000000 -0.00069991450525193760000000000000000000000000000000 0.00001242206243985330700000000000000000000000000000 -0.00453021695268464660000000000000000000000000000000 0.00100627213583511870000000000000000000000000000000
-0.00080479198958529000000000000000000000000000000000 0.00019749699641838620000000000000000000000000000000 -0.00159627599890852950000000000000000000000000000000 0.00231526750708298170000000000000000000000000000000 -0.00241478221102194200000000000000000000000000000000 0.00058668910962666270000000000000000000000000000000 -0.00174456165811706170000000000000000000000000000000 -0.00142837700793569180000000000000000000000000000000 0.00000126098178158192030000000000000000000000000000 0.00082026520272392320000000000000000000000000000000 -0.00141588720738929410000000000000000000000000000000 -0.00141120617242115840000000000000000000000000000000 0.00083937079348372600000000000000000000000000000000 -0.00080014367609346430000000000000000000000000000000 0.00031225865168547483000000000000000000000000000000 -0.00254415299138450500000000000000000000000000000000 -0.00168045070874782210000000000000000000000000000000 -0.00025560984960404327000000000000000000000000000000 -0.00055834505858104340000000000000000000000000000000 -0.00267987974117169900000000000000000000000000000000 -0.00135872144186401520000000000000000000000000000000 0.00038942137899778014000000000000000000000000000000 0.00170179029259990380000000000000000000000000000000 0.00195772635019104100000000000000000000000000000000 -0.00005167534343539855000000000000000000000000000000 -0.00030891695991846420000000000000000000000000000000 0.00021545507801083036000000000000000000000000000000 -0.00099499894574178100000000000000000000000000000000 -0.00048722647997323336000000000000000000000000000000 0.00071160469994920030000000000000000000000000000000 -0.00075569247421829510000000000000000000000000000000 -0.00036340762234759400000000000000000000000000000000 0.00128652635773652930000000000000000000000000000000 -0.00038485116901815250000000000000000000000000000000 0.00071905963483162700000000000000000000000000000000 0.00060804875130787920000000000000000000000000000000 -0.00074400292028046330000000000000000000000000000000 -0.00412690931771244000000000000000000000000000000000 -0.00313957487125224800000000000000000000000000000000 -0.00207582369493109630000000000000000000000000000000 -0.00112567754638123050000000000000000000000000000000 -0.00205132816854758670000000000000000000000000000000 -0.00213671508775427600000000000000000000000000000000 -0.00174744316429167140000000000000000000000000000000 -0.00137745914680046060000000000000000000000000000000 -0.00098141215407621820000000000000000000000000000000 -0.00253953749139785830000000000000000000000000000000 -0.00383919483505620360000000000000000000000000000000 0.00010349900386517430000000000000000000000000000000 0.00114611382499138500000000000000000000000000000000 0.00050793011272744050000000000000000000000000000000 -0.00053906078254784660000000000000000000000000000000 -0.00192959394084430600000000000000000000000000000000 -0.00084861555607719870000000000000000000000000000000 -0.00043521417785051810000000000000000000000000000000 -0.00217051492093805250000000000000000000000000000000 -0.00178578670820674300000000000000000000000000000000 0.00090663556951339190000000000000000000000000000000 0.00131889213103927350000000000000000000000000000000 -0.00031466822906183324000000000000000000000000000000 0.00276780762332870350000000000000000000000000000000
0.00049391585757181140000000000000000000000000000000 -0.00179771649305693080000000000000000000000000000000 0.00183851256296399190000000000000000000000000000000 -0.00072393561832328090000000000000000000000000000000 0.00078097472859635440000000000000000000000000000000 -0.00076254187902457030000000000000000000000000000000 -0.00311687524494026060000000000000000000000000000000 -0.00115539587339497770000000000000000000000000000000 0.00062637980697221380000000000000000000000000000000 -0.00083173555407325740000000000000000000000000000000 0.00027739491277780476000000000000000000000000000000 0.00211276634500842970000000000000000000000000000000 0.00096142244033812040000000000000000000000000000000 -0.00129121949867629570000000000000000000000000000000 0.00059881018789320450000000000000000000000000000000 0.00026092038946759174000000000000000000000000000000 0.00056891623989982300000000000000000000000000000000 -0.00048121013972262435000000000000000000000000000000 -0.00096882529577402940000000000000000000000000000000 -0.00168626645198869130000000000000000000000000000000 -0.00086292800182010520000000000000000000000000000000 -0.00160836895800987170000000000000000000000000000000 -0.00174972009894330120000000000000000000000000000000 -0.00133823764599735230000000000000000000000000000000 -0.00037179492394271610000000000000000000000000000000 -0.00186262235691804720000000000000000000000000000000 -0.00017592225158616983000000000000000000000000000000 -0.00086972150753355210000000000000000000000000000000 -0.00067421948099028450000000000000000000000000000000 -0.00266983914775352540000000000000000000000000000000 0.00032119272405993960000000000000000000000000000000 -0.00030672170159262046000000000000000000000000000000 -0.00163385375392611620000000000000000000000000000000 0.00018127844127417648000000000000000000000000000000 -0.00012890321369975785000000000000000000000000000000 0.00025162421683229657000000000000000000000000000000 -0.00042854933773273324000000000000000000000000000000 -0.00068314561267107640000000000000000000000000000000 0.00043038167577109075000000000000000000000000000000 0.00156265816352137070000000000000000000000000000000 -0.00129483834429200200000000000000000000000000000000 0.00197693217933807200000000000000000000000000000000 -0.00148341366786577730000000000000000000000000000000 -0.00137549006907076480000000000000000000000000000000 -0.00155097788146118880000000000000000000000000000000 0.00138316513098311020000000000000000000000000000000 -0.00379109860957636600000000000000000000000000000000 -0.00017409263857292120000000000000000000000000000000 -0.00004326505883622974000000000000000000000000000000 -0.00054384899249232510000000000000000000000000000000 -0.00082963913188757870000000000000000000000000000000 -0.00143849582435903040000000000000000000000000000000 -0.00040198649784611726000000000000000000000000000000 0.00029332607424339475000000000000000000000000000000 0.00116514428708374690000000000000000000000000000000 -0.00101884489268209020000000000000000000000000000000 0.00043768918636930053000000000000000000000000000000 -0.00071969274578979450000000000000000000000000000000 -0.00190784032941584930000000000000000000000000000000 0.00172041742238691800000000000000000000000000000000 -0.00170748205349730920000000000000000000000000000000
